Language model created by QuickLM on Wed May 23 06:48:21 EDT 2018
Copyright (c) 1996-2010 Carnegie Mellon University and Alexander I. Rudnicky

The model is in standard ARPA format, designed by Doug Paul while he was at MITRE.

The code that was used to produce this language model is available in Open Source.
Please visit http://www.speech.cs.cmu.edu/tools/ for more information

The (fixed) discount mass is 0.5. The backoffs are computed using the ratio method.
This model based on a corpus of 100 sentences and 4184 words

\data\
ngram 1=4184
ngram 2=15364
ngram 3=20481

\1-grams:
-2.6417 </s> -0.3010
-2.6417 <s> -0.2418
-1.8607 A -0.2621
-4.6417 ABANDONED -0.3010
-4.6417 ABASHIDZE -0.3004
-4.6417 ABC -0.2982
-4.6417 ABDUCTION -0.3008
-4.3407 ABILITY -0.2996
-3.9428 ABLE -0.2962
-2.8636 ABOUT -0.2546
-4.6417 ABOVE -0.2878
-4.6417 ABSENT -0.3005
-4.1646 ABSOLUTE -0.3008
-4.1646 ABSOLUTELY -0.3006
-4.6417 ABSURDISM -0.2968
-4.6417 ABSURDITY -0.3009
-4.6417 ABSURDLY -0.3010
-4.6417 ABYSS -0.2953
-4.6417 ACADEMY -0.3010
-4.1646 ACCENT -0.2904
-4.6417 ACCENTUATE -0.2878
-4.6417 ACCEPTANCE -0.2878
-4.6417 ACCIDENT -0.3005
-4.6417 ACCIDENTAL -0.3010
-4.6417 ACCIDENTALLY -0.3010
-4.6417 ACCOMPANIES -0.3007
-4.6417 ACCURATE -0.2948
-4.6417 ACCUSATION -0.2994
-4.6417 ACCUSTOMED -0.2962
-4.6417 ACHIEVE -0.3010
-4.6417 ACHIEVEMENTS -0.2994
-4.6417 ACROSS -0.2994
-4.6417 ACT -0.3002
-4.1646 ACTED -0.2841
-3.2800 ACTING -0.2689
-3.5278 ACTION -0.2668
-4.6417 ACTIVISTS -0.3010
-4.0397 ACTOR -0.2969
-3.3865 ACTORS -0.2778
-4.1646 ACTRESS -0.3003
-4.6417 ACTRESSES -0.3005
-4.1646 ACTS -0.2934
-4.0397 ACTUAL -0.3008
-3.4656 ACTUALLY -0.2878
-4.6417 ADAM -0.3010
-4.3407 ADAPTATION -0.2988
-4.6417 ADAPTING -0.2983
-4.6417 ADAPTS -0.2878
-4.3407 ADD -0.2982
-4.6417 ADDED -0.3008
-4.6417 ADDITION -0.2953
-4.6417 ADDITIONS -0.2878
-4.6417 ADDRESS -0.3010
-4.6417 ADDRESSED -0.2975
-4.6417 ADJACENT -0.3010
-4.6417 ADMINISTRATION -0.2970
-4.6417 ADMIRABLE -0.2994
-4.6417 ADMIRE -0.3010
-4.0397 ADMIT -0.2907
-4.6417 ADMITS -0.2878
-4.6417 ADRIAN -0.3010
-3.9428 ADULT -0.2983
-4.6417 ADULTS -0.3007
-4.3407 ADVENTURE -0.3008
-4.6417 ADVERSARY -0.2962
-4.3407 ADVICE -0.2956
-4.6417 ADVICES -0.3005
-4.6417 ADVISED -0.2962
-4.6417 AESTHETIC -0.2948
-4.1646 AFFAIR -0.2995
-4.3407 AFFECT -0.3004
-4.6417 AFFECTING -0.2968
-4.6417 AFFECTION -0.2994
-4.6417 AFFLUENT -0.2995
-4.3407 AFFORD -0.2961
-4.6417 AFOREMENTIONED -0.3009
-4.6417 AFRICA -0.3010
-3.2268 AFTER -0.2692
-4.1646 AFTERNOON -0.2969
-3.4113 AGAIN -0.2622
-3.8636 AGAINST -0.2841
-4.0397 AGE -0.2862
-4.6417 AGED -0.3009
-4.6417 AGENCY -0.3004
-4.3407 AGENT -0.2898
-4.6417 AGENTS -0.3003
-4.1646 AGES -0.2995
-4.6417 AGING -0.3009
-3.9428 AGO -0.2902
-4.3407 AGREE -0.2995
-4.6417 AGREED -0.2984
-4.6417 AGREES -0.2995
-4.6417 AH -0.2994
-4.6417 AHEAD -0.2953
-4.3407 AIM -0.2993
-4.6417 AIMLESS -0.3010
-4.3407 AIR -0.2995
-4.6417 AIRED -0.2999
-4.6417 AIRMEN -0.2878
-3.8636 AL -0.2958
-4.6417 ALAN -0.3010
-4.6417 ALARM -0.3009
-4.6417 ALARMISTS -0.2948
-4.6417 ALAS -0.3001
-4.6417 ALCOHOLIC -0.3010
-4.6417 ALEXANDER -0.3010
-4.6417 ALICE -0.3010
-4.0397 ALIKE -0.3001
-2.6461 ALL -0.2406
-4.6417 ALLEGEDLY -0.2950
-4.1646 ALLEN -0.2985
-4.6417 ALLOW -0.2962
-4.6417 ALLOWS -0.3008
-3.5278 ALMOST -0.2743
-4.6417 ALOHA -0.3000
-4.1646 ALONE -0.2871
-3.9428 ALONG -0.2811
-4.6417 ALONGNO -0.3004
-3.7966 ALREADY -0.2992
-4.3407 ALRIGHT -0.2985
-2.9885 ALSO -0.2681
-4.6417 ALTERNATE -0.3010
-4.6417 ALTERNATIVES -0.3004
-3.7966 ALTHOUGH -0.2799
-3.3407 ALWAYS -0.2709
-4.6417 ALZHEIMER -0.2986
-4.0397 AM -0.2997
-4.6417 AMAZED -0.3008
-3.6875 AMAZING -0.2925
-4.6417 AMAZINGLY -0.3010
-4.6417 AMELIE -0.2986
-4.3407 AMERICA -0.3000
-4.3407 AMERICAN -0.2947
-4.6417 AMERICANS -0.3006
-4.6417 AMIABLE -0.3010
-3.6417 AMONG -0.2875
-4.6417 AMORAL -0.3010
-4.1646 AMOUNT -0.2952
-4.6417 AMOUNTS -0.2953
-4.6417 AMROHI -0.3010
-4.6417 AMURO -0.3010
-4.3407 AMUSING -0.2947
-2.7022 AN -0.2922
-4.6417 ANCIENT -0.3010
-1.8431 AND -0.1826
-4.0397 ANDERS -0.2857
-4.6417 ANDERSON -0.3001
-4.3407 ANGELA -0.3010
-4.3407 ANGLES -0.2948
-4.6417 ANGUISH -0.2953
-4.0397 ANIMALS -0.2907
-4.1646 ANIMATED -0.3008
-4.3407 ANIMATION -0.2997
-4.6417 ANIMATRONIC -0.3010
-4.6417 ANNALS -0.2953
-4.6417 ANNOYING -0.3009
-3.7386 ANOTHER -0.2994
-4.3407 ANSWER -0.2872
-4.6417 ANSWERS -0.3009
-4.6417 ANT -0.2975
-4.6417 ANTHONY -0.2995
-4.6417 ANTICIPATES -0.2975
-4.6417 ANTICIPATION -0.3004
-4.6417 ANXIOUS -0.3010
-3.2993 ANY -0.2934
-4.6417 ANYHOW -0.3004
-4.6417 ANYMORE -0.2994
-3.6417 ANYONE -0.2963
-3.7966 ANYTHING -0.2980
-4.3407 ANYWAY -0.2851
-4.1646 ANYWHERE -0.2939
-4.1646 APART -0.2833
-4.1646 APARTMENT -0.2994
-4.6417 APEL -0.2992
-4.6417 APLOMB -0.3010
-4.3407 APPARENT -0.2940
-4.3407 APPARENTLY -0.2874
-4.6417 APPEAL -0.3009
-4.3407 APPEALING -0.2962
-4.6417 APPEAR -0.2992
-4.6417 APPEARANCE -0.3010
-4.3407 APPEARED -0.2962
-4.6417 APPLAUDED -0.2878
-4.6417 APPLE -0.3005
-4.6417 APPLICATION -0.3010
-4.1646 APPRECIATE -0.2808
-4.3407 APPRECIATED -0.2878
-4.6417 APPRECIATING -0.2970
-4.6417 APPRECIATION -0.2962
-4.6417 APPROACH -0.2992
-4.6417 APPROPRIATE -0.2994
-4.6417 APPROVAL -0.2994
-4.6417 APRIL -0.3007
-2.5887 ARE -0.2613
-4.1646 AREA -0.2919
-4.6417 AREAS -0.2975
-4.1646 AREN -0.3000
-4.6417 ARETHA -0.3010
-4.6417 ARGUABLY -0.3009
-4.6417 ARMAGEDDON -0.2975
-4.0397 ARMY -0.2966
-3.6003 AROUND -0.2775
-4.6417 ARRIVAL -0.3010
-4.6417 ARRIVES -0.3001
-4.6417 ARRIVING -0.3009
-4.0397 ART -0.2883
-4.6417 ARTEMISIA -0.3010
-4.6417 ARTICULATE -0.2970
-4.6417 ARTIFICIAL -0.3010
-4.6417 ARTIFICIALLY -0.3010
-4.6417 ARTIST -0.2992
-4.6417 ARTISTIC -0.3010
-4.6417 ARTISTS -0.2948
-4.3407 ARTS -0.3009
-2.3676 AS -0.2467
-3.9428 ASHURA -0.2809
-4.6417 ASIAN -0.3010
-3.8636 ASIDE -0.2805
-4.3407 ASKED -0.3006
-4.1646 ASPECTS -0.2923
-4.3407 ASS -0.2970
-4.6417 ASSASSIN -0.2948
-4.6417 ASSAULT -0.3003
-4.6417 ASSHOLE -0.3009
-4.6417 ASSUME -0.2984
-4.6417 ASSUMED -0.2878
-4.3407 ASTAIRE -0.2947
-4.6417 ASTRONOMICAL -0.3010
-2.6923 AT -0.2627
-4.6417 ATHINODOROS -0.3010
-4.6417 ATLANTA -0.3010
-4.0397 ATMOSPHERE -0.2883
-4.0397 ATMOSPHERIC -0.2929
-3.9428 ATTACK -0.2960
-4.6417 ATTACKED -0.3002
-4.6417 ATTACKING -0.2878
-4.3407 ATTEMPT -0.2962
-4.6417 ATTEMPTING -0.2948
-4.3407 ATTEMPTS -0.2945
-4.6417 ATTEND -0.2878
-4.3407 ATTENTION -0.2980
-4.6417 ATTIRED -0.3010
-4.6417 ATTITUDE -0.2970
-4.6417 ATTRACTION -0.2962
-4.1646 ATTRACTIVE -0.2995
-3.6417 AUDIENCE -0.2799
-4.6417 AUDIENCES -0.3010
-4.6417 AUDLEY -0.3006
-4.6417 AUNT -0.2986
-4.3407 AUR -0.3010
-4.6417 AUSTRALIA -0.2968
-4.1646 AUSTRALIAN -0.2934
-4.6417 AUTHENTIC -0.2975
-4.6417 AUTHORITY -0.3009
-4.6417 AUTISM -0.2975
-4.6417 AVATAR -0.3002
-4.0397 AVERAGE -0.2980
-4.6417 AVIATION -0.3010
-4.6417 AVOIDS -0.2878
-4.3407 AWARD -0.3010
-4.3407 AWARE -0.2876
-3.6003 AWAY -0.2652
-4.1646 AWESOME -0.2976
-4.6417 AWFUL -0.2982
-4.6417 AWHILE -0.2994
-4.1646 AWKWARD -0.2931
-4.1646 B -0.3010
-4.6417 BABBS -0.3010
-4.6417 BABIES -0.3010
-4.3407 BABY -0.3010
-4.6417 BACHELOR -0.3010
-3.4113 BACK -0.2766
-4.6417 BACKGROUND -0.2948
-4.6417 BACON -0.3003
-3.5626 BAD -0.2794
-4.6417 BAHRAIN -0.3005
-4.6417 BAKERSFIELD -0.3010
-4.3407 BALANCE -0.2819
-4.6417 BALL -0.3010
-4.3407 BALLET -0.3001
-4.6417 BALLING -0.3005
-4.6417 BALLYHOOED -0.3008
-4.6417 BAMBINO -0.3010
-4.6417 BANDS -0.2953
-4.6417 BANG -0.3005
-4.6417 BANTERING -0.3008
-4.3407 BAR -0.3009
-4.6417 BARBARA -0.3010
-4.6417 BARELY -0.3010
-4.6417 BARR -0.3003
-4.3407 BARRYMORE -0.2905
-4.6417 BARTY -0.2996
-4.6417 BASE -0.2878
-4.3407 BASEBALL -0.3003
-4.0397 BASED -0.2999
-4.3407 BASEMENT -0.2967
-4.6417 BASHING -0.2970
-4.6417 BASICALLY -0.3010
-4.6417 BASING -0.2950
-4.6417 BASIS -0.3008
-4.6417 BASKET -0.3010
-4.6417 BAT -0.2982
-4.6417 BATHROOM -0.3009
-3.9428 BATTLE -0.2897
-4.6417 BAUREL -0.2990
-4.6417 BAVA -0.3010
-4.6417 BAWDY -0.3010
-2.6164 BE -0.2395
-4.6417 BEAMED -0.3009
-4.3407 BEAST -0.2996
-4.6417 BEATTY -0.2948
-3.7966 BEAUTIFUL -0.2908
-4.3407 BEAUTIFULLY -0.3010
-3.9428 BEAUTY -0.2937
-4.0397 BECAME -0.2994
-3.3195 BECAUSE -0.2684
-4.6417 BECKINSALE -0.2986
-4.3407 BECKY -0.2947
-3.6417 BECOME -0.2927
-4.0397 BECOMES -0.2941
-4.3407 BECOMING -0.2950
-4.6417 BEDROOM -0.3010
-4.6417 BEECH -0.3010
-3.1366 BEEN -0.2833
-3.3407 BEFORE -0.2681
-4.6417 BEFRIENDS -0.3010
-4.6417 BEGAN -0.2962
-4.3407 BEGIN -0.2995
-3.7386 BEGINNING -0.2764
-4.3407 BEGINS -0.2960
-4.6417 BEHAVIOR -0.2953
-3.9428 BEHIND -0.2999
-3.2268 BEING -0.2728
-4.6417 BEINGS -0.2995
-4.6417 BELIEFS -0.3008
-4.1646 BELIEVABLE -0.2985
-3.7386 BELIEVE -0.2914
-4.6417 BELIEVED -0.2984
-4.6417 BELL -0.3008
-4.0397 BELUSHI -0.2888
-3.8636 BEN -0.2767
-4.6417 BENARD -0.3010
-4.6417 BENDING -0.3007
-4.6417 BENEATH -0.2878
-4.6417 BENEFIT -0.2953
-4.6417 BENJAMIN -0.2948
-4.6417 BERLIN -0.2986
-4.1646 BERNIE -0.3009
-4.6417 BERRY -0.2962
-4.6417 BERSERK -0.2975
-3.0735 BEST -0.2464
-3.4113 BETTER -0.2848
-3.6003 BETWEEN -0.2869
-4.1646 BEYOND -0.2995
-4.6417 BI -0.3010
-4.6417 BIASED -0.3009
-4.6417 BIBI -0.3010
-3.4376 BIG -0.2847
-4.3407 BIGGER -0.2944
-4.1646 BIGGEST -0.3010
-4.3407 BILL -0.3000
-4.6417 BILLIE -0.3010
-4.6417 BILLY -0.3010
-4.6417 BINDER -0.2982
-4.6417 BINDING -0.3010
-4.6417 BIRTH -0.3006
-4.6417 BIRTHDAY -0.3010
-3.3407 BIT -0.2873
-4.6417 BITCHY -0.3010
-4.0397 BIZARRE -0.3000
-4.0397 BLACK -0.3006
-4.6417 BLADE -0.3010
-4.6417 BLAME -0.2878
-4.6417 BLAMES -0.3010
-3.9428 BLANKS -0.2959
-4.6417 BLAXPLOITATION -0.3008
-4.3407 BLEW -0.2969
-4.1646 BLOOD -0.2898
-4.6417 BLOODLUST -0.2994
-4.6417 BLOODY -0.2948
-4.3407 BLOW -0.3009
-4.6417 BLOWING -0.3005
-4.1646 BLOWN -0.3009
-4.1646 BLUE -0.2970
-4.6417 BOASTS -0.2950
-4.3407 BOAT -0.3010
-4.3407 BOB -0.2968
-4.3407 BOBBY -0.2972
-4.6417 BODIES -0.2948
-4.3407 BODYGUARD -0.2889
-4.6417 BOGGLING -0.3009
-4.6417 BOGOSIAN -0.3010
-4.3407 BOLLYWOOD -0.3009
-4.6417 BOMBASTIC -0.3008
-4.6417 BOMBED -0.3002
-4.6417 BOND -0.2948
-4.6417 BONES -0.2975
-4.3407 BOOGIE -0.3010
-3.5278 BOOK -0.2773
-4.6417 BOOKS -0.2999
-4.6417 BOORMAN -0.2986
-4.6417 BORDER -0.2999
-4.6417 BORE -0.2994
-4.6417 BOREANAZ -0.2992
-4.3407 BORING -0.2945
-4.6417 BORNE -0.3008
-4.6417 BOSS -0.3009
-4.6417 BOSWELL -0.2968
-3.3630 BOTH -0.2839
-4.6417 BOTHERS -0.3007
-4.6417 BOTTLE -0.2878
-4.3407 BOTTOM -0.2952
-4.6417 BOTTOMS -0.2953
-4.1646 BOUGHT -0.2844
-4.6417 BOULEVARDIER -0.3007
-4.6417 BOUND -0.3002
-4.6417 BOWELS -0.3010
-4.6417 BOX -0.3008
-4.6417 BOXER -0.2948
-3.9428 BOY -0.2904
-4.3407 BOYLE -0.2985
-3.9428 BOYS -0.2812
-4.6417 BRAINY -0.3010
-4.6417 BRANAGH -0.2948
-4.0397 BRANDO -0.2762
-4.6417 BRAT -0.2878
-4.6417 BRAZIL -0.3010
-4.3407 BREAK -0.3003
-4.6417 BREAKDOWN -0.2950
-4.6417 BREAKER -0.3010
-4.6417 BREAKOUT -0.2878
-4.3407 BREAKS -0.2969
-4.3407 BREATH -0.3006
-4.6417 BREATHING -0.3009
-4.6417 BREATHLESS -0.3010
-4.6417 BRIBES -0.2948
-4.6417 BRIDGE -0.2948
-4.6417 BRIGHT -0.2948
-4.6417 BRILLANT -0.3008
-4.6417 BRILLIANCE -0.2953
-3.8636 BRILLIANT -0.2995
-4.3407 BRILLIANTLY -0.3010
-4.3407 BRING -0.2964
-3.9428 BRINGS -0.2968
-4.3407 BRISSON -0.2954
-4.1646 BRITISH -0.3010
-4.0397 BROADWAY -0.3007
-4.6417 BROKEN -0.3010
-4.6417 BROKERS -0.2953
-4.6417 BRONSTEIN -0.3010
-4.6417 BROODING -0.2948
-4.1646 BROTHER -0.2889
-4.6417 BROTHERS -0.2948
-4.6417 BROUGHT -0.3005
-3.9428 BROWN -0.2740
-4.6417 BRUHL -0.2968
-4.6417 BRUTAL -0.3010
-4.6417 BRUTALLY -0.3010
-4.6417 BUCKET -0.2953
-4.6417 BUCKETS -0.2953
-4.6417 BUCKS -0.2948
-4.6417 BUDDIES -0.3010
-4.6417 BUDDY -0.3010
-3.7386 BUDGET -0.2943
-4.3407 BUILD -0.2945
-4.3407 BUILDING -0.2870
-4.3407 BUILDINGS -0.2947
-4.3407 BUILT -0.2994
-4.3407 BULK -0.2953
-4.6417 BULL -0.2992
-4.6417 BUNCH -0.2953
-4.6417 BURIED -0.3010
-4.6417 BURROWS -0.2999
-4.6417 BURT -0.3010
-4.6417 BUSHMAN -0.2948
-4.3407 BUSINESS -0.2974
-4.1646 BUSY -0.3008
-2.4295 BUT -0.2281
-4.3407 BUY -0.2968
-4.6417 BUYS -0.3000
-2.6972 BY -0.2709
-4.6417 BYRDS -0.2983
-4.3407 BYRON -0.3009
-4.3407 C -0.3010
-4.1646 CABAL -0.2986
-4.6417 CADET -0.2982
-4.6417 CAGE -0.2968
-4.1646 CAGNEY -0.2964
-4.6417 CAHULAWASSEE -0.2878
-3.6417 CAINE -0.2814
-4.6417 CALAMITIES -0.3010
-4.6417 CALCULATING -0.3007
-4.6417 CALENDER -0.2948
-4.6417 CALIBER -0.3010
-4.0397 CALL -0.2962
-3.7966 CALLED -0.2957
-3.6875 CAME -0.2877
-4.6417 CAMEO -0.2953
-3.9428 CAMERA -0.2980
-4.1646 CAMP -0.2941
-4.1646 CAMPY -0.3009
-3.0397 CAN -0.2960
-4.3407 CANADIAN -0.3010
-4.6417 CANDIDATES -0.2999
-4.6417 CANDY -0.2986
-4.0397 CANNON -0.2990
-4.3407 CANNOT -0.2999
-4.6417 CANVAS -0.2948
-4.6417 CAPITALIZES -0.2999
-4.6417 CAPSULE -0.2953
-4.6417 CAPTORS -0.3010
-4.3407 CAPTURE -0.2914
-4.3407 CAPTURED -0.2877
-4.6417 CAPTURES -0.2878
-4.6417 CAR -0.2995
-4.6417 CARA -0.3010
-4.3407 CARDS -0.2984
-4.1646 CARE -0.2948
-3.4656 CAREER -0.2712
-4.6417 CAREFUL -0.3009
-4.6417 CAREFULLY -0.3010
-4.6417 CARES -0.3004
-4.6417 CAREY -0.3004
-4.6417 CARHART -0.2992
-4.6417 CARL -0.3010
-4.6417 CARNIVAL -0.3010
-4.6417 CARON -0.2990
-4.6417 CARR -0.2968
-4.6417 CARRIED -0.3004
-4.6417 CARRIES -0.2878
-4.6417 CARRYING -0.2878
-4.6417 CARS -0.3009
-4.1646 CARTOONS -0.3002
-3.8636 CASA -0.3010
-3.7386 CASE -0.2890
-3.2800 CAST -0.2684
-4.0397 CASTING -0.2947
-3.8636 CASTLE -0.2900
-4.6417 CATALOG -0.2994
-4.6417 CATALYZING -0.3009
-4.1646 CATCH -0.2917
-4.6417 CATCHY -0.2962
-4.6417 CATEGORISE -0.2970
-4.1646 CAUGHT -0.2998
-4.3407 CAUSE -0.2819
-4.3407 CAUSED -0.2815
-4.3407 CB -0.2974
-4.6417 CECIL -0.3010
-4.6417 CEDRIC -0.2986
-4.6417 CELEBRATED -0.3000
-4.3407 CEMETERY -0.2942
-4.6417 CENTER -0.3009
-4.6417 CENTERED -0.2999
-4.1646 CENTRAL -0.3007
-4.6417 CENTS -0.3000
-4.3407 CENTURY -0.2947
-4.6417 CEREBRAL -0.3010
-4.0397 CERTAIN -0.3007
-3.7966 CERTAINLY -0.2887
-4.6417 CG -0.3010
-4.6417 CHAIRMAN -0.2968
-4.6417 CHAIRS -0.2975
-4.6417 CHALK -0.2983
-4.6417 CHALLENGING -0.3010
-4.6417 CHAMAS -0.3010
-3.7386 CHANCE -0.2832
-4.3407 CHANGE -0.2996
-4.0397 CHANGED -0.2904
-4.3407 CHANGES -0.2867
-4.6417 CHANGING -0.3009
-4.6417 CHANNEL -0.3010
-3.3407 CHARACTER -0.2811
-4.6417 CHARACTERISATIONS -0.2995
-4.6417 CHARACTERIZATION -0.2878
-4.3407 CHARACTERIZE -0.2850
-4.6417 CHARACTERIZED -0.2878
-3.2615 CHARACTERS -0.2566
-3.9428 CHAREL -0.2933
-4.1646 CHARGED -0.2995
-4.6417 CHARITY -0.3010
-4.6417 CHARLES -0.3010
-4.6417 CHARLEY -0.3010
-4.3407 CHARM -0.2950
-4.6417 CHARTS -0.3001
-4.6417 CHASE -0.3000
-4.6417 CHASES -0.3010
-4.6417 CHAVALIER -0.3010
-4.1646 CHAVEZ -0.2965
-4.3407 CHEADLE -0.2905
-4.6417 CHEAP -0.3010
-4.1646 CHECK -0.2937
-4.3407 CHECKED -0.2942
-4.6417 CHEEK -0.3000
-4.6417 CHEER -0.3005
-4.6417 CHEERLEADER -0.3010
-4.6417 CHEESE -0.3010
-4.6417 CHEESECAKE -0.3004
-4.6417 CHEESINESS -0.2948
-4.6417 CHEESY -0.3010
-4.3407 CHEEZY -0.3007
-4.1646 CHEMISTRY -0.2946
-4.6417 CHIAURELI -0.3010
-3.7966 CHILD -0.2861
-3.9428 CHILDHOOD -0.2944
-4.6417 CHILDLIKE -0.3009
-3.5626 CHILDREN -0.2855
-4.6417 CHILLING -0.3009
-4.6417 CHILLS -0.3010
-4.0397 CHINESE -0.3005
-4.6417 CHIP -0.2948
-4.6417 CHOCOLATE -0.3010
-4.6417 CHOICE -0.2948
-4.6417 CHOOSE -0.2962
-4.6417 CHOPPILY -0.3010
-4.6417 CHORUS -0.3010
-4.3407 CHOSEN -0.3006
-4.3407 CHRISTINA -0.3010
-4.6417 CHRISTINE -0.3010
-3.8636 CHRISTOPHER -0.2991
-4.6417 CHRONICLES -0.3000
-4.6417 CHUCK -0.3010
-4.6417 CHUNKS -0.3010
-4.6417 CHURCH -0.2968
-4.6417 CHURCHILL -0.3010
-4.6417 CIA -0.3010
-4.6417 CIARIN -0.3010
-3.8636 CINDERELLA -0.2745
-3.6875 CINEMA -0.2937
-4.6417 CINEMATIC -0.3010
-3.8636 CINEMATOGRAPHY -0.2896
-4.6417 CIRCLE -0.3010
-4.6417 CITIES -0.2948
-4.6417 CITIZEN -0.3010
-4.6417 CITIZENS -0.3002
-4.0397 CITY -0.2807
-4.6417 CIVILIZED -0.3010
-4.6417 CLARKE -0.3007
-4.6417 CLASS -0.3010
-3.6875 CLASSIC -0.2879
-4.3407 CLASSICS -0.2991
-4.6417 CLEAN -0.3010
-4.6417 CLEANING -0.3005
-3.9428 CLEAR -0.2916
-4.6417 CLEARENCE -0.3010
-4.0397 CLEARLY -0.2978
-4.6417 CLEEF -0.3010
-4.6417 CLEVELAND -0.3010
-4.3407 CLEVER -0.2861
-4.6417 CLEVERLY -0.3010
-4.6417 CLICHE -0.3010
-4.6417 CLICHé -0.3010
-4.6417 CLICHéD -0.3010
-4.3407 CLICHéS -0.2991
-4.6417 CLICK -0.2994
-4.6417 CLIFF -0.3010
-4.6417 CLIFFORD -0.3010
-4.6417 CLIMACTIC -0.3010
-4.6417 CLIMBS -0.3009
-4.6417 CLINT -0.3010
-4.6417 CLIPPED -0.3008
-4.3407 CLIPS -0.3000
-4.6417 CLOCK -0.2975
-4.1646 CLOSE -0.2877
-4.6417 CLOSELY -0.3002
-4.6417 CLOSING -0.2999
-4.6417 CLOSURE -0.3010
-4.6417 CLOUDS -0.3010
-4.6417 CLOWN -0.2982
-4.6417 CLUB -0.2948
-4.6417 CLUBS -0.3005
-4.6417 CLUES -0.2994
-4.6417 CLUTTERED -0.3005
-4.6417 CODE -0.2953
-4.3407 COLD -0.3010
-4.3407 COLLEGE -0.2997
-4.3407 COLLETTE -0.2986
-4.1646 COLONY -0.2875
-4.6417 COLORIZATION -0.3010
-4.6417 COLORS -0.3009
-4.6417 COLOURS -0.3002
-4.3407 COLUMBINE -0.2947
-4.6417 COLUMN -0.2983
-4.6417 COM -0.3000
-4.6417 COMBINATION -0.2953
-4.0397 COME -0.2981
-4.6417 COMEBACK -0.3001
-4.6417 COMEDIC -0.3009
-4.3407 COMEDIES -0.2947
-3.3630 COMEDY -0.2807
-3.7966 COMES -0.2947
-4.6417 COMFORTED -0.3002
-4.3407 COMIC -0.3010
-4.6417 COMICAL -0.3010
-4.6417 COMING -0.3004
-4.6417 COMMANDING -0.3008
-4.6417 COMMENT -0.2984
-4.6417 COMMENTARY -0.2999
-4.6417 COMMENTATOR -0.2984
-4.3407 COMMENTED -0.2973
-4.6417 COMMENTING -0.3007
-4.6417 COMMIT -0.2984
-4.6417 COMMON -0.3010
-4.6417 COMPANY -0.3010
-4.0397 COMPARED -0.2962
-4.1646 COMPELLING -0.2929
-4.1646 COMPETENT -0.2997
-4.6417 COMPILATION -0.3007
-4.0397 COMPLAINT -0.2955
-4.3407 COMPLETE -0.2973
-4.1646 COMPLETELY -0.3009
-4.1646 COMPLEX -0.3003
-4.1646 COMPLICATED -0.2932
-4.6417 COMPLICATION -0.3002
-4.3407 COMPOSED -0.3002
-4.6417 COMPOSER -0.2992
-4.6417 COMPOSERS -0.3010
-4.1646 COMPOUND -0.2947
-4.6417 CONCEITED -0.3010
-4.6417 CONCENTRATED -0.2999
-4.6417 CONCENTRATES -0.2999
-4.3407 CONCERN -0.2934
-4.3407 CONCERNS -0.2950
-4.6417 CONCLUDE -0.2982
-4.6417 CONCLUDED -0.3001
-4.6417 CONCLUSION -0.3010
-4.6417 CONDENSING -0.3010
-4.6417 CONDITION -0.2878
-4.6417 CONDUCTED -0.2975
-4.6417 CONFIDENCE -0.2996
-4.3407 CONFRONT -0.2866
-4.6417 CONFRONTING -0.2984
-4.0397 CONFUSED -0.2969
-4.3407 CONFUSING -0.2858
-4.6417 CONJUNCTIVITIS -0.2962
-4.6417 CONNERY -0.3004
-4.6417 CONSEQUENCE -0.2970
-4.6417 CONSERVATIVE -0.3010
-4.1646 CONSIDER -0.2871
-4.1646 CONSIDERED -0.2949
-4.6417 CONSIDERING -0.2984
-4.6417 CONSIDERS -0.2962
-4.3407 CONSISTS -0.2947
-4.6417 CONSTANTLY -0.3010
-4.6417 CONSTRUCTION -0.2948
-4.6417 CONSULATE -0.3010
-4.6417 CONTAINING -0.3001
-4.1646 CONTAINS -0.3005
-4.3407 CONTENT -0.2953
-4.3407 CONTEST -0.3007
-4.6417 CONTEXTUAL -0.3010
-4.6417 CONTINUED -0.2962
-4.3407 CONTINUITY -0.2947
-4.6417 CONTRARY -0.3005
-4.6417 CONTRAST -0.3010
-4.6417 CONTRIBUTIONS -0.2962
-4.3407 CONTRIVED -0.2947
-4.6417 CONTROL -0.2984
-4.6417 CONTROVERSY -0.3003
-4.6417 CONVENTION -0.2995
-4.6417 CONVENTIONAL -0.3007
-4.6417 CONVENTIONALLY -0.3005
-4.6417 CONVENTIONS -0.2953
-4.6417 CONVEY -0.2878
-4.3407 CONVEYED -0.3000
-4.6417 CONVICTED -0.3008
-4.6417 COOKED -0.3005
-4.6417 COOKIE -0.3010
-4.0397 COOL -0.2921
-4.6417 COP -0.2995
-4.6417 COPY -0.3009
-4.6417 CORE -0.2953
-4.3407 CORMAN -0.3010
-4.6417 CORNY -0.2948
-4.6417 CORPORATE -0.3010
-4.1646 CORRECT -0.2992
-4.3407 COST -0.2997
-4.6417 COSTLY -0.2998
-4.6417 COSTUMES -0.2975
-4.6417 COSTUMING -0.2948
-3.2993 COULD -0.2929
-4.6417 COULDN -0.3000
-4.6417 COUNTEROFFER -0.2996
-4.6417 COUNTING -0.3009
-4.3407 COUNTRIES -0.2961
-4.6417 COUNTRY -0.3010
-4.6417 COUNTRYSIDE -0.3004
-3.8636 COUPLE -0.2949
-4.6417 COUPLED -0.2995
-4.3407 COUPS -0.2886
-4.6417 COURAGEOUS -0.2948
-3.6417 COURSE -0.2776
-4.6417 COURT -0.3005
-4.6417 COURTESAN -0.3010
-4.6417 COURTNEY -0.3010
-4.3407 COURTROOM -0.3010
-4.6417 COVER -0.2994
-4.6417 COWORKER -0.2984
-4.6417 COWORKERS -0.3010
-4.3407 COX -0.2974
-4.6417 CRADLE -0.3001
-4.6417 CRAFTING -0.2948
-4.6417 CRAIG -0.3010
-4.6417 CRAP -0.2984
-4.6417 CRAPPY -0.3010
-4.6417 CRASH -0.3008
-4.6417 CRAZED -0.3010
-3.7966 CRAZY -0.2928
-4.6417 CREAMED -0.3010
-4.6417 CREASEY -0.2986
-4.1646 CREASY -0.2967
-4.0397 CREATE -0.2950
-4.6417 CREATED -0.3002
-4.6417 CREATING -0.3010
-4.6417 CREATORS -0.2953
-4.6417 CREATURE -0.3008
-4.3407 CREDIT -0.2969
-4.0397 CREEPY -0.2935
-4.0397 CREW -0.2983
-4.6417 CRIED -0.3004
-4.1646 CRIME -0.2942
-4.0397 CRIMES -0.2968
-4.1646 CRIMINAL -0.2994
-4.6417 CRIMINALS -0.2996
-4.6417 CRIPPLED -0.2948
-4.3407 CRISIS -0.2972
-4.6417 CRISP -0.2948
-4.6417 CRISTY -0.3010
-4.6417 CRITIC -0.2983
-4.6417 CRITICISE -0.2970
-4.6417 CRITICISM -0.2968
-4.6417 CRITICISMS -0.2982
-4.6417 CRITICS -0.2948
-4.6417 CROWD -0.2983
-4.6417 CRUCIAL -0.2975
-4.6417 CRUEL -0.3010
-4.6417 CRY -0.2948
-4.3407 CRYING -0.2939
-4.6417 CRYPTIC -0.3010
-4.6417 CUBE -0.2948
-4.3407 CULT -0.3009
-4.1646 CULTURAL -0.3010
-4.1646 CULTURE -0.2914
-4.6417 CUP -0.3010
-4.6417 CURED -0.2953
-4.3407 CURSE -0.2951
-4.6417 CURTAIN -0.3010
-4.6417 CURTIS -0.3010
-4.1646 CUT -0.2934
-4.6417 CUTE -0.2990
-4.6417 CUTESY -0.2962
-4.6417 CUTTER -0.3008
-4.6417 CUTTING -0.3010
-4.3407 CYCLOPS -0.2950
-4.6417 CYNICAL -0.3010
-3.9428 D -0.2988
-4.3407 DA -0.3010
-4.6417 DAILY -0.3010
-4.6417 DAISIES -0.2968
-4.6417 DAISY -0.3010
-4.3407 DAKOTA -0.3010
-4.6417 DALE -0.3010
-4.6417 DALLAS -0.3010
-4.6417 DALTON -0.3004
-4.6417 DAM -0.3010
-4.6417 DAMN -0.2878
-4.6417 DAN -0.3007
-3.7386 DANCE -0.2868
-4.3407 DANCER -0.3001
-4.6417 DANCERS -0.2953
-4.1646 DANCING -0.2947
-4.6417 DANDY -0.2948
-4.6417 DANELIA -0.2968
-4.3407 DANGER -0.2947
-4.6417 DANGEROUS -0.3010
-4.6417 DANGERS -0.2984
-4.6417 DANIEL -0.3008
-4.6417 DANTE -0.2950
-4.6417 DAOSHVILI -0.3010
-4.6417 DARE -0.2962
-4.6417 DARES -0.3001
-3.9428 DARK -0.2994
-4.6417 DARLENE -0.2995
-4.3407 DATE -0.3000
-4.6417 DATED -0.2994
-4.6417 DAUGHTER -0.3010
-4.0397 DAVID -0.2947
-4.6417 DAVIS -0.3010
-4.3407 DAWN -0.2980
-3.3630 DAY -0.2837
-3.8636 DAYS -0.2890
-4.3407 DC -0.3004
-4.6417 DE -0.3010
-4.3407 DEAD -0.2959
-4.6417 DEAF -0.3010
-4.6417 DEAL -0.2953
-4.6417 DEALER -0.3010
-4.6417 DEALERS -0.2962
-4.6417 DEALING -0.2995
-4.0397 DEALS -0.2842
-4.6417 DEALT -0.2995
-3.9428 DEATH -0.2735
-4.0397 DEATHTRAP -0.2967
-4.6417 DECADE -0.2878
-4.6417 DECADENT -0.3008
-4.6417 DECADES -0.3006
-4.6417 DECEASED -0.3010
-4.6417 DECEIVE -0.2878
-4.6417 DECEIVED -0.3010
-4.6417 DECENCY -0.2975
-4.0397 DECENT -0.2978
-4.6417 DECEPTIVE -0.3010
-4.3407 DECIDE -0.2962
-4.3407 DECIDED -0.2962
-3.9428 DECIDES -0.2947
-4.6417 DECK -0.2948
-4.6417 DEDICATED -0.2962
-3.9428 DEEP -0.2944
-4.3407 DEEPER -0.3005
-4.6417 DEFEAT -0.3010
-4.6417 DEFENDING -0.2878
-4.6417 DEFINATELY -0.3009
-4.6417 DEFINED -0.2878
-3.9428 DEFINITELY -0.2931
-4.3407 DELIBERATE -0.3009
-4.6417 DELIBERATELY -0.3010
-4.6417 DELIGHTED -0.3002
-4.6417 DELIGHTFUL -0.2962
-4.3407 DELIVER -0.2877
-4.6417 DELIVERANCE -0.3010
-4.6417 DELIVERED -0.2992
-4.6417 DELIVERING -0.3010
-4.3407 DELIVERY -0.2953
-3.8636 DELL -0.3010
-4.6417 DEMAND -0.2962
-4.6417 DEMANDING -0.3009
-3.7966 DEMON -0.2995
-4.6417 DEMONIC -0.3010
-3.6417 DEMONS -0.2852
-4.6417 DEMONSTRATE -0.2984
-4.6417 DENMARK -0.2968
-3.7966 DENNIS -0.2917
-4.6417 DENSITY -0.2953
-4.3407 DENZEL -0.3010
-4.6417 DEPICT -0.2878
-4.6417 DEPRESSED -0.3010
-4.3407 DEPT -0.2989
-4.3407 DEPTH -0.2953
-4.6417 DEPUTY -0.3010
-4.6417 DERANGEMENT -0.3010
-4.6417 DESCENT -0.3010
-4.6417 DESCRIBED -0.3004
-4.6417 DESECRATED -0.3010
-4.3407 DESERT -0.2954
-4.6417 DESERTED -0.3010
-4.6417 DESERVE -0.3010
-4.3407 DESERVED -0.2991
-4.0397 DESERVES -0.2994
-4.3407 DESIGNED -0.2947
-4.6417 DESOLATE -0.3010
-4.3407 DESPISED -0.2937
-4.0397 DESPITE -0.2867
-4.3407 DESTINY -0.2999
-4.6417 DESTRUCTION -0.3010
-4.6417 DETACHED -0.3009
-4.3407 DETAIL -0.3008
-4.3407 DETAILED -0.3005
-4.6417 DETAILS -0.2878
-4.6417 DETECTIVE -0.3010
-4.6417 DETERIORATION -0.2948
-4.6417 DETERRED -0.3007
-4.6417 DETRACT -0.3003
-4.6417 DETROIT -0.3005
-4.0397 DEVELOPED -0.2938
-4.6417 DEVELOPER -0.3004
-4.3407 DEVELOPING -0.2813
-4.6417 DEVELOPMENT -0.2983
-4.6417 DEVELOPMENTS -0.3009
-4.6417 DEVELOPS -0.2950
-4.6417 DEVICES -0.3010
-4.3407 DIALOG -0.3007
-4.1646 DIALOGUE -0.3007
-4.6417 DIAMOND -0.3009
-4.3407 DICK -0.3010
-4.6417 DICTATORSHIP -0.2953
-3.3865 DID -0.2817
-3.4376 DIDN -0.3000
-4.1646 DIE -0.2855
-4.6417 DIED -0.3005
-4.6417 DIES -0.2975
-4.3407 DIFFERENCE -0.2961
-3.6417 DIFFERENT -0.2933
-4.6417 DIFFERS -0.3004
-3.7386 DIFFICULT -0.2927
-4.6417 DIGGERS -0.2953
-4.6417 DIGGING -0.2950
-4.6417 DIME -0.2950
-4.6417 DIMENSION -0.2953
-4.3407 DIMENSIONAL -0.2948
-4.6417 DIMINISH -0.3007
-4.6417 DINER -0.3009
-3.7386 DIRECTED -0.2815
-4.1646 DIRECTING -0.2790
-3.9428 DIRECTION -0.2896
-3.2993 DIRECTOR -0.2908
-4.6417 DIRECTORIAL -0.3009
-4.1646 DIRECTORS -0.2943
-4.6417 DIRECTS -0.3000
-4.6417 DISAGREE -0.3005
-4.6417 DISAPPEAR -0.2994
-4.6417 DISAPPEARED -0.2950
-4.6417 DISAPPEARS -0.3010
-4.6417 DISAPPOINT -0.3010
-4.1646 DISAPPOINTED -0.2975
-4.6417 DISARMING -0.2962
-4.3407 DISASTER -0.2938
-4.6417 DISASTERS -0.3005
-4.6417 DISASTROUS -0.2953
-4.6417 DISCO -0.2970
-4.6417 DISCONNECTED -0.3005
-4.6417 DISCONTINUE -0.2970
-4.6417 DISCOVER -0.2984
-4.6417 DISCUSS -0.2950
-4.6417 DISCUSSING -0.3009
-4.6417 DISEASE -0.2878
-4.6417 DISEASES -0.3009
-4.6417 DISENFRANCHISED -0.3009
-4.6417 DISLIKE -0.2878
-4.6417 DISMAL -0.3010
-3.8636 DISNEY -0.2976
-4.6417 DISPLAY -0.2983
-4.6417 DISTANCE -0.3004
-4.6417 DISTRESSED -0.3002
-4.6417 DISTRICTS -0.3010
-4.6417 DISTURBED -0.2982
-4.6417 DISTURBING -0.2948
-4.6417 DIVERGENT -0.3008
-4.6417 DJ -0.3010
-4.6417 DJAFARIDZE -0.3010
-3.2268 DO -0.2522
-4.0397 DOCTOR -0.2872
-4.6417 DOCTRINES -0.2953
-4.3407 DOCUMENTARIES -0.2973
-4.1646 DOCUMENTARY -0.2915
-4.6417 DODGY -0.2975
-4.6417 DODO -0.3010
-3.3865 DOES -0.2818
-3.4656 DOESN -0.3000
-4.3407 DOG -0.2974
-3.7966 DOING -0.2849
-3.2268 DON -0.3000
-3.6417 DONE -0.2772
-4.1646 DOOLEY -0.2969
-4.1646 DOOR -0.2901
-4.6417 DOORS -0.3010
-4.1646 DOPPELGANGER -0.3004
-4.6417 DOUBLE -0.3010
-4.1646 DOUBT -0.2984
-4.1646 DOUBTS -0.2871
-3.5626 DOWN -0.2752
-4.6417 DOWNSIDE -0.2970
-4.6417 DOZEN -0.3004
-4.3407 DOZENS -0.2889
-4.6417 DRAG -0.3008
-4.6417 DRAGON -0.3010
-4.0397 DRAMA -0.2927
-4.6417 DRAMAS -0.2950
-4.1646 DRAMATIC -0.2981
-4.6417 DRASTICALLY -0.2992
-4.6417 DREAMLIKE -0.2948
-4.3407 DRESS -0.2929
-4.6417 DRESSED -0.3005
-4.6417 DRESSES -0.2975
-3.8636 DREW -0.3008
-4.6417 DREWS -0.3008
-4.6417 DRIFTER -0.3010
-4.6417 DRILL -0.3010
-4.3407 DRIVE -0.2911
-4.3407 DRIVER -0.2946
-4.6417 DRONE -0.3008
-4.6417 DROPS -0.3009
-4.6417 DRUG -0.3010
-4.3407 DRUNK -0.3001
-4.6417 DRYER -0.2948
-4.6417 DUBBED -0.2950
-4.6417 DUBBING -0.2968
-4.6417 DUCKTALES -0.2948
-3.8636 DUE -0.2962
-4.6417 DUG -0.3005
-4.6417 DULL -0.2994
-4.6417 DUMB -0.3009
-4.6417 DUNDEE -0.3010
-3.7386 DURING -0.2870
-4.6417 DUSK -0.3010
-4.6417 DUSTIN -0.3010
-3.7966 DVD -0.2828
-4.6417 DWELLERS -0.3003
-4.6417 DWIGHT -0.3010
-4.3407 DYAN -0.3010
-4.6417 DYING -0.2975
-4.1646 DYLAN -0.2985
-4.6417 DéJà -0.3010
-4.6417 E -0.3010
-4.3407 EA -0.3000
-3.4956 EACH -0.2926
-4.3407 EAGERLY -0.2994
-4.0397 EARLIER -0.2913
-4.3407 EARLIEST -0.2986
-3.6417 EARLY -0.2953
-4.6417 EARSHOT -0.2994
-4.1646 EARTH -0.3002
-4.6417 EARTHLY -0.3010
-4.6417 EASE -0.2975
-4.6417 EASIEST -0.2962
-4.0397 EASILY -0.2937
-4.0397 EAST -0.3009
-4.0397 EASY -0.2958
-4.6417 EASYGOING -0.3010
-3.9428 EATING -0.2849
-4.6417 EAZY -0.3010
-4.6417 ECONOMY -0.3009
-4.6417 ED -0.3010
-4.6417 EDD -0.2948
-4.6417 EDDY -0.3004
-3.9428 EDGE -0.2921
-4.3407 EDITED -0.2991
-4.0397 EDITING -0.2868
-4.6417 EDITS -0.2994
-4.3407 EDO -0.2974
-4.6417 EDWARD -0.3010
-4.3407 EFFECT -0.2953
-4.3407 EFFECTIVE -0.2989
-4.1646 EFFECTS -0.2936
-4.3407 EFFORTS -0.2944
-4.6417 EGGS -0.2975
-4.6417 EGLANTINE -0.2950
-4.3407 EGLIMATA -0.3004
-4.6417 EGO -0.3010
-4.3407 EIGHTIES -0.2982
-4.3407 EISENSTEIN -0.2874
-3.8636 EITHER -0.2830
-4.6417 ELDERLY -0.3010
-4.6417 ELDEST -0.2953
-4.6417 ELECTED -0.3002
-4.6417 ELECTION -0.3008
-4.6417 ELEMENTARY -0.3009
-4.1646 ELEMENTS -0.2948
-4.6417 ELEVATES -0.3009
-4.6417 ELEVEN -0.3010
-4.6417 ELITE -0.3010
-3.7966 ELSE -0.2740
-4.6417 ELSEWHERE -0.2992
-4.6417 EMBARRASSED -0.3010
-4.6417 EMBARRASSING -0.3010
-4.6417 EMERGED -0.3003
-4.6417 EMILIA -0.3010
-4.6417 EMINENT -0.3008
-4.3407 EMMA -0.3004
-4.6417 EMOTION -0.2975
-4.3407 EMOTIONAL -0.3004
-4.3407 EMOTIONALLY -0.3010
-3.7966 EMOTIONS -0.2894
-4.6417 EMOTIVE -0.3010
-4.6417 EMPHASIZE -0.3009
-4.6417 EMPLOYER -0.3010
-4.6417 EMPLOYERS -0.2948
-4.6417 EMULATE -0.3010
-4.6417 EN -0.3009
-4.1646 ENCHANTED -0.2989
-4.6417 ENCOUNTER -0.2996
-4.6417 ENCOUNTERED -0.2950
-4.3407 ENCOUNTERS -0.2815
-3.5626 END -0.2804
-4.6417 ENDEAVORING -0.2962
-4.1646 ENDED -0.3005
-3.7386 ENDING -0.2871
-4.6417 ENDINGS -0.3004
-4.6417 ENDLESS -0.3010
-4.0397 ENDS -0.2999
-4.6417 ENEMIES -0.3005
-4.6417 ENEMY -0.3010
-4.6417 ENFORCEMENT -0.3010
-4.0397 ENGLAND -0.2972
-4.1646 ENGLISH -0.2877
-4.6417 ENGROSSED -0.2995
-4.6417 ENGROSSING -0.3001
-4.6417 ENHANCING -0.2878
-3.4956 ENJOY -0.2795
-3.8636 ENJOYABLE -0.2927
-4.0397 ENJOYED -0.2850
-4.6417 ENJOYS -0.2878
-3.7386 ENOUGH -0.2888
-4.6417 ENSEMBLE -0.3008
-4.6417 ENSUES -0.2948
-4.3407 ENTER -0.2877
-4.6417 ENTERED -0.3005
-4.6417 ENTERPRISE -0.3010
-4.6417 ENTERPRISING -0.3010
-4.6417 ENTERTAINED -0.2878
-4.1646 ENTERTAINING -0.3007
-4.1646 ENTERTAINMENT -0.2960
-4.6417 ENTHRALLING -0.3010
-4.6417 ENTHUSIAST -0.3003
-4.3407 ENTIRE -0.2992
-4.6417 ENTIRETY -0.3010
-4.6417 ENTITY -0.2995
-3.9428 ENVY -0.2949
-4.1646 EPIC -0.2984
-3.7386 EPISODE -0.2956
-3.9428 EPISODES -0.2915
-4.6417 EQUAL -0.3010
-4.3407 EQUALLY -0.3003
-4.6417 EQUIPMENT -0.3009
-4.6417 EQUIVALENT -0.2953
-3.6875 ERA -0.2879
-4.3407 ERAS -0.2949
-4.3407 ERIC -0.3010
-4.6417 EROS -0.2984
-4.6417 ESCALATING -0.3010
-3.6875 ESCAPE -0.2798
-4.3407 ESCAPED -0.3003
-4.3407 ESCAPEES -0.3007
-4.6417 ESCAPING -0.3009
-4.6417 ESOTERICS -0.2953
-4.6417 ESPECIAL -0.3010
-3.8636 ESPECIALLY -0.2872
-4.3407 ESSENCE -0.2953
-4.6417 ESSENTIALLY -0.2878
-4.6417 EST -0.3010
-4.6417 ESTABLISH -0.2950
-4.3407 ESTATE -0.2947
-4.6417 ESTES -0.3009
-4.6417 ESTHETICS -0.2999
-4.6417 ESTIMATE -0.3010
-4.1646 ETC -0.3000
-4.6417 ETERNITY -0.3004
-4.6417 EUROPE -0.3008
-4.6417 EVACUATE -0.2878
-4.6417 EVACUATION -0.3009
-3.0977 EVEN -0.2738
-4.3407 EVENT -0.2978
-3.9428 EVENTS -0.2841
-4.1646 EVENTUALLY -0.3003
-3.4376 EVER -0.2867
-4.3407 EVERETT -0.3010
-3.4956 EVERY -0.2990
-4.6417 EVERYDAY -0.3008
-4.6417 EVERYMAN -0.2878
-3.7386 EVERYONE -0.2848
-3.7386 EVERYTHING -0.2916
-4.6417 EVERYWHERE -0.3009
-4.6417 EVGENI -0.3010
-4.6417 EVIDENCED -0.3002
-4.6417 EVIDENCES -0.2994
-4.3407 EVIL -0.3009
-4.6417 EVOLVED -0.3001
-4.6417 EX -0.3010
-3.8636 EXACTLY -0.2805
-4.6417 EXAGGERATEDLY -0.3010
-3.8636 EXAMPLE -0.2781
-4.6417 EXAMPLES -0.2975
-4.6417 EXCEEDED -0.3010
-4.6417 EXCELLENCE -0.3001
-3.6417 EXCELLENT -0.2834
-4.3407 EXCELLENTLY -0.3009
-4.0397 EXCEPT -0.2861
-4.6417 EXCEPTIONS -0.3008
-4.3407 EXCHANGE -0.3009
-4.3407 EXCITING -0.2944
-4.6417 EXCLUSIVELY -0.2994
-4.6417 EXILED -0.2962
-4.6417 EXISTENCE -0.2992
-4.6417 EXONERATED -0.2982
-4.6417 EXPANSIVE -0.3008
-4.1646 EXPECT -0.2909
-4.0397 EXPECTATIONS -0.2934
-3.9428 EXPECTED -0.2780
-4.0397 EXPECTING -0.2951
-4.6417 EXPENSE -0.2953
-4.6417 EXPENSIVE -0.3010
-4.1646 EXPERIENCED -0.2943
-4.6417 EXPERIENCES -0.3010
-4.6417 EXPERT -0.3010
-4.6417 EXPERTLY -0.3010
-4.6417 EXPLAIN -0.2950
-4.3407 EXPLAINS -0.2921
-4.6417 EXPLANATION -0.3010
-4.6417 EXPLODE -0.3010
-4.1646 EXPLOITATION -0.2994
-4.6417 EXPLORATIONS -0.3010
-4.6417 EXPLORED -0.3009
-4.6417 EXPLOSION -0.3010
-4.6417 EXPOSED -0.3010
-4.6417 EXPOSURES -0.3008
-4.6417 EXPRESSING -0.3008
-4.3407 EXPRESSION -0.2905
-4.3407 EXPRESSIONIST -0.3010
-4.6417 EXQUISITELY -0.3008
-4.3407 EXTRA -0.3010
-4.6417 EXTRAS -0.3009
-4.6417 EXTRAVAGANT -0.3010
-4.6417 EXTREME -0.3010
-3.9428 EXTREMELY -0.3003
-4.6417 EY -0.3008
-4.0397 EYE -0.2801
-4.6417 EYES -0.2953
-4.6417 EYRE -0.3002
-4.6417 EYRED -0.3004
-4.6417 F -0.3010
-3.8636 FACE -0.2812
-4.1646 FACED -0.2970
-4.6417 FACILITY -0.2984
-4.3407 FACING -0.2878
-3.3407 FACT -0.2799
-4.6417 FACTOR -0.2970
-4.6417 FACTS -0.3010
-4.6417 FADE -0.3009
-4.6417 FADED -0.3010
-4.6417 FADING -0.3010
-4.6417 FADS -0.2999
-4.6417 FAHEY -0.2878
-4.6417 FAILING -0.3010
-4.6417 FAILS -0.2962
-4.6417 FAILURE -0.2975
-4.6417 FAIR -0.2962
-4.6417 FAIRGROUND -0.3010
-4.1646 FAIRLY -0.3009
-4.1646 FAIRY -0.2961
-4.6417 FAITH -0.2975
-4.6417 FALL -0.2975
-4.1646 FALLING -0.2994
-4.6417 FALLON -0.2994
-4.6417 FALLS -0.2975
-4.6417 FALSE -0.3010
-4.0397 FAMILIAR -0.2991
-4.6417 FAMILIES -0.3003
-3.5278 FAMILY -0.2898
-4.6417 FAMOUS -0.3009
-3.6417 FAN -0.2880
-4.6417 FANGIRL -0.3004
-4.3407 FANNING -0.2948
-4.0397 FANS -0.2931
-4.6417 FANTASIA -0.3010
-3.8636 FANTASTIC -0.2916
-4.1646 FANTASY -0.3009
-3.4656 FAR -0.2839
-4.3407 FARING -0.3010
-4.6417 FASCINATING -0.2992
-4.1646 FASHION -0.2913
-4.6417 FASHIONS -0.3010
-4.6417 FAST -0.2992
-4.6417 FATALE -0.3009
-4.3407 FATE -0.2904
-3.8636 FATHER -0.2960
-4.6417 FAULTS -0.2948
-4.1646 FAVORITE -0.2988
-4.6417 FAVORITES -0.3009
-4.3407 FAVOURITE -0.2990
-4.6417 FAVOURITES -0.3010
-4.0397 FEAR -0.2883
-4.6417 FEARED -0.3010
-4.6417 FEARING -0.2878
-4.6417 FEARSOME -0.3010
-4.6417 FEAT -0.2984
-4.3407 FEATURE -0.2950
-4.6417 FEATURED -0.2975
-4.0397 FEATURES -0.2963
-4.6417 FEDERATION -0.3010
-3.5626 FEEL -0.2855
-4.0397 FEELING -0.2927
-4.0397 FEELINGS -0.2860
-3.9428 FEELS -0.2933
-4.6417 FELL -0.3004
-4.3407 FELLOW -0.3010
-4.1646 FELT -0.2984
-4.0397 FEMALE -0.2968
-4.6417 FEMME -0.3010
-4.3407 FENCE -0.2999
-4.6417 FEND -0.3009
-4.6417 FEST -0.2953
-4.1646 FESTIVAL -0.2941
-4.6417 FETCHING -0.2984
-4.6417 FEUDING -0.2948
-3.3195 FEW -0.2925
-4.3407 FI -0.3010
-4.6417 FICTIONAL -0.3010
-4.6417 FIFTIES -0.3009
-3.9428 FIGHT -0.2971
-4.3407 FIGHTING -0.2993
-4.6417 FIGHTS -0.2995
-4.1646 FIGURE -0.2916
-4.6417 FILL -0.3002
-4.6417 FILLED -0.2995
-2.5345 FILM -0.2135
-4.0397 FILMED -0.2943
-4.3407 FILMING -0.2946
-4.6417 FILMMAKERS -0.2999
-3.1504 FILMS -0.2537
-4.6417 FILMSCHOOL -0.3006
-4.6417 FILTER -0.2948
-4.0397 FINAL -0.3008
-4.1646 FINALE -0.2941
-4.6417 FINALIZING -0.2970
-4.1646 FINALLY -0.3004
-3.3630 FIND -0.2791
-4.6417 FINDING -0.2950
-4.3407 FINDS -0.3003
-3.7386 FINE -0.2940
-4.1646 FINEST -0.2907
-4.3407 FINISH -0.2970
-4.6417 FINISHED -0.3010
-4.0397 FIRE -0.2807
-4.6417 FIRES -0.3008
-4.6417 FIRESIDE -0.2983
-4.6417 FIRESTORM -0.2953
-4.6417 FIRM -0.3010
-3.2438 FIRST -0.2781
-4.6417 FIT -0.3009
-4.3407 FITS -0.2877
-4.3407 FIVE -0.3008
-4.6417 FIX -0.2994
-4.6417 FIXATION -0.2995
-4.6417 FLAMBOYANT -0.3010
-4.6417 FLAMES -0.2953
-4.6417 FLASHED -0.2975
-4.6417 FLASHY -0.3010
-4.6417 FLAT -0.3006
-4.6417 FLAV -0.3010
-4.6417 FLAVA -0.3010
-4.1646 FLAWS -0.2895
-4.6417 FLEET -0.3006
-4.6417 FLEETING -0.2996
-4.0397 FLICK -0.2957
-4.6417 FLLOW -0.3010
-4.6417 FLOODING -0.2953
-4.3407 FLOPS -0.2971
-4.3407 FLOW -0.2942
-4.6417 FLOWERS -0.2948
-4.6417 FLU -0.3001
-4.6417 FLUFFY -0.3010
-4.1646 FLUTE -0.2947
-4.0397 FLYING -0.2875
-4.6417 FLYNN -0.3010
-4.6417 FOCH -0.2986
-4.6417 FOCUS -0.2999
-4.6417 FOCUSES -0.3004
-4.6417 FOCUSING -0.2999
-4.6417 FODDER -0.2994
-4.6417 FOIBLES -0.2948
-4.3407 FOLKLORE -0.2940
-4.0397 FOLKS -0.2996
-4.1646 FOLLOW -0.2861
-4.3407 FOLLOWED -0.3010
-3.9428 FOLLOWING -0.2807
-4.1646 FOLLOWS -0.2947
-4.3407 FONTAINE -0.2923
-4.6417 FOOD -0.2878
-4.6417 FOODS -0.2948
-4.3407 FOOT -0.2979
-4.6417 FOOTAGE -0.3000
-4.3407 FOOTBALL -0.2973
-2.4269 FOR -0.2474
-4.3407 FORCE -0.2942
-4.3407 FORCED -0.2926
-4.6417 FORCES -0.3007
-4.6417 FORESTALL -0.3010
-4.3407 FOREVER -0.2955
-4.1646 FORGET -0.3008
-4.6417 FORGIVE -0.3010
-4.6417 FORGIVEN -0.3009
-4.6417 FORGOT -0.2994
-4.6417 FORMATIVE -0.3010
-4.0397 FORMER -0.3009
-4.6417 FORMS -0.2948
-4.3407 FORMULA -0.2942
-4.3407 FORMULAIC -0.2988
-4.6417 FORTH -0.2982
-4.6417 FORTUNATELY -0.2983
-4.6417 FORTUNE -0.2950
-4.6417 FORTUNES -0.3010
-3.9428 FORWARD -0.2962
-3.5626 FOUND -0.2817
-4.1646 FOUR -0.3009
-4.6417 FOURTH -0.3010
-4.6417 FOX -0.2982
-4.6417 FOXY -0.3010
-4.6417 FRAGMENT -0.2975
-4.6417 FRANCE -0.3010
-4.6417 FRANCES -0.3010
-4.6417 FRANCISCO -0.3010
-4.3407 FRANK -0.3010
-4.6417 FRANKLIN -0.2990
-4.6417 FRANKLY -0.3004
-4.6417 FREAK -0.3009
-4.6417 FREAKED -0.3004
-4.6417 FREAKS -0.3004
-4.6417 FRED -0.3010
-4.3407 FREED -0.3010
-4.6417 FREEDOM -0.2878
-3.9428 FRENCH -0.2993
-4.3407 FRENZY -0.2975
-4.3407 FREQUENTLY -0.2991
-4.6417 FREQUENTS -0.2983
-4.6417 FRESH -0.3010
-4.3407 FRESHMAN -0.2927
-4.6417 FRIED -0.2993
-3.7966 FRIEND -0.2881
-4.6417 FRIENDLY -0.3010
-3.6875 FRIENDS -0.2896
-4.6417 FROG -0.2975
-4.6417 FROLIC -0.3010
-2.7667 FROM -0.2665
-4.6417 FRONT -0.2953
-4.6417 FROZEN -0.3010
-4.6417 FRUSTRATING -0.2984
-4.3407 FULCI -0.2986
-4.6417 FULFILLED -0.3000
-3.8636 FULL -0.2951
-4.3407 FULLY -0.3010
-3.4376 FUN -0.2762
-4.6417 FUNDRAISER -0.3010
-4.6417 FUNNIER -0.3007
-4.0397 FUNNIEST -0.3005
-3.6417 FUNNY -0.2834
-4.6417 FURLONG -0.2948
-4.6417 FURNISHINGS -0.3010
-4.6417 FUSS -0.2990
-4.0397 FUTURE -0.2813
-4.6417 FUZZY -0.2948
-4.6417 G -0.3010
-4.3407 GACKT -0.2923
-4.6417 GAGS -0.3009
-4.6417 GAINED -0.3002
-4.6417 GALE -0.2953
-4.6417 GALORE -0.3008
-3.5278 GAME -0.2673
-4.6417 GAMEPLAY -0.2970
-4.0397 GAMES -0.2913
-4.6417 GAMIN -0.3010
-4.3407 GANG -0.3009
-4.6417 GANGS -0.3010
-4.1646 GANGSTER -0.3008
-4.6417 GARSH -0.2996
-4.6417 GATHER -0.2878
-3.9428 GAVE -0.2962
-4.6417 GAY -0.3008
-4.6417 GEEK -0.3004
-4.6417 GEM -0.2970
-3.9428 GENE -0.2902
-4.6417 GENERAL -0.3009
-4.1646 GENERALLY -0.3009
-4.6417 GENERATE -0.3010
-4.6417 GENERIC -0.3008
-4.6417 GENEROUSLY -0.3010
-4.6417 GENETICS -0.3010
-4.6417 GENIUS -0.2953
-3.4656 GENRE -0.2825
-4.6417 GENTEEL -0.3007
-4.1646 GENUINELY -0.3004
-4.6417 GENUINENESS -0.2953
-3.9428 GEORGE -0.3008
-4.6417 GEORGIA -0.2962
-4.3407 GEORGIAN -0.3009
-4.6417 GEORGY -0.3010
-4.6417 GERALD -0.3010
-4.6417 GERALDINE -0.2948
-4.6417 GERIATRIC -0.3010
-4.3407 GERMAN -0.3010
-4.6417 GERMANY -0.2948
-4.6417 GERMOGEL -0.2968
-4.0397 GERSHWIN -0.2861
-4.6417 GERSHWINS -0.3007
-4.6417 GESTAPO -0.2948
-3.1646 GET -0.2687
-3.5626 GETS -0.2726
-3.9428 GETTING -0.2804
-4.6417 GHARANAS -0.2968
-4.6417 GHOST -0.3010
-4.6417 GHULAM -0.2948
-4.6417 GIANCARLO -0.3010
-4.6417 GIANNINI -0.2984
-4.3407 GIFTED -0.2945
-4.6417 GIFTS -0.2990
-4.6417 GIG -0.3009
-4.6417 GIGGLES -0.2962
-4.3407 GIMMICKS -0.2927
-4.1646 GINA -0.2976
-3.9428 GIRL -0.2956
-4.6417 GIRLFRIEND -0.2878
-4.6417 GIRLHOOD -0.2948
-4.6417 GIRLS -0.2962
-3.3865 GIVE -0.2776
-4.0397 GIVEN -0.2765
-4.6417 GIVER -0.3010
-3.7386 GIVES -0.2927
-3.9428 GIVING -0.2771
-4.6417 GLANCE -0.2970
-4.1646 GLENN -0.3010
-4.6417 GLOBAL -0.3010
-4.3407 GLORY -0.2819
-3.2104 GO -0.2815
-3.7966 GOD -0.2841
-4.6417 GODDESS -0.3003
-4.6417 GODFATHER -0.2983
-3.6417 GOES -0.2801
-3.3195 GOING -0.2899
-4.6417 GOLD -0.3010
-4.6417 GOLDEN -0.3010
-4.1646 GONE -0.2944
-2.8859 GOOD -0.2752
-4.6417 GOODHEARTED -0.3010
-4.6417 GOODNESS -0.3008
-4.6417 GOODNIGHT -0.3009
-4.6417 GOODS -0.2992
-4.6417 GOOFS -0.3010
-4.6417 GORDON -0.3010
-4.6417 GORE -0.2968
-4.3407 GORGEOUS -0.3005
-3.5278 GOT -0.2715
-4.6417 GOTTA -0.3008
-4.3407 GOVERNMENT -0.3007
-4.6417 GOWN -0.2992
-4.6417 GPM -0.3010
-4.6417 GRACE -0.3010
-4.3407 GRADE -0.2949
-4.6417 GRADER -0.2994
-4.6417 GRADUATION -0.3008
-4.6417 GRAND -0.3010
-4.6417 GRANDPARENT -0.2983
-4.6417 GRANTED -0.2970
-4.3407 GRAPHICS -0.2948
-4.1646 GRASP -0.2943
-4.6417 GRASS -0.3010
-4.6417 GRATUITOUS -0.3010
-4.6417 GRATUITUS -0.3010
-4.3407 GRAVE -0.2974
-4.6417 GRAVEYARD -0.3005
-4.6417 GRAVITAS -0.2948
-2.9175 GREAT -0.2712
-3.8636 GREATEST -0.2900
-4.6417 GREATS -0.2968
-4.6417 GREECE -0.3004
-4.0397 GREEK -0.2944
-4.6417 GREEN -0.3010
-4.6417 GREETING -0.3010
-4.3407 GREW -0.3005
-4.6417 GREYTACK -0.3010
-4.6417 GRIM -0.3010
-4.6417 GRIPPING -0.3010
-4.3407 GRISBY -0.2986
-4.6417 GRIT -0.3000
-4.6417 GROOVE -0.3010
-4.6417 GROUNDHOG -0.3008
-3.9428 GROUP -0.2953
-4.3407 GROUPS -0.2947
-4.6417 GROWING -0.3010
-4.6417 GUARANTEE -0.3000
-4.6417 GUARD -0.3002
-4.6417 GUARONTEE -0.3009
-3.7966 GUESS -0.2928
-4.6417 GUEST -0.3010
-4.3407 GUIDE -0.2992
-4.1646 GUILTY -0.2994
-4.3407 GUITAR -0.3010
-4.3407 GUN -0.2950
-3.9428 GUNDAM -0.2963
-4.6417 GUS -0.3010
-4.3407 GUSTO -0.3001
-3.8636 GUY -0.2909
-3.9428 GUYS -0.2924
-4.3407 GUéTARY -0.2996
-4.6417 GWYNETH -0.3010
-4.6417 H -0.3010
-3.0854 HAD -0.2715
-4.6417 HADN -0.3000
-4.3407 HAINES -0.2967
-4.6417 HALF -0.2983
-4.6417 HALL -0.3010
-4.6417 HALLIDAY -0.3003
-4.6417 HALLUCINATIONS -0.3010
-4.1646 HAMLET -0.2959
-4.6417 HAMMY -0.3001
-4.6417 HAMPER -0.2999
-4.1646 HAMPTON -0.2994
-4.3407 HAND -0.2960
-4.6417 HANDFUL -0.2953
-4.3407 HANDLE -0.2909
-4.3407 HANDLED -0.2967
-4.1646 HANDS -0.2982
-4.3407 HANDSOME -0.2931
-4.3407 HANGS -0.3003
-4.6417 HANNAH -0.3010
-4.1646 HAPPEN -0.3000
-4.1646 HAPPENED -0.2915
-4.6417 HAPPENING -0.3007
-4.3407 HAPPENS -0.2877
-4.6417 HAPPILY -0.2878
-3.7966 HAPPY -0.2951
-4.6417 HARA -0.2878
-4.6417 HARALAMBOPOULOS -0.3010
-3.6875 HARD -0.2812
-4.6417 HARKER -0.3010
-4.3407 HAROLD -0.2968
-4.6417 HARRIET -0.3010
-4.6417 HARRY -0.3007
-4.6417 HARSH -0.3008
-4.6417 HARTLEY -0.2992
-4.6417 HARVARD -0.2968
-2.8029 HAS -0.2581
-4.1646 HASN -0.3000
-4.3407 HAT -0.2994
-4.3407 HATED -0.3008
-4.6417 HAUNTING -0.3010
-2.7279 HAVE -0.2592
-4.3407 HAVEN -0.3000
-3.5626 HAVING -0.2803
-4.6417 HAWAII -0.2948
-4.6417 HAWKING -0.2986
-4.0397 HAYWORTH -0.2990
-4.6417 HAZARDOUS -0.3010
-4.6417 HAZE -0.3001
-4.6417 HBO -0.3006
-2.4834 HE -0.2851
-4.6417 HEADBANGERS -0.2975
-4.6417 HEADLINE -0.3010
-4.3407 HEALTH -0.3010
-4.3407 HEAR -0.2836
-4.0397 HEARD -0.2946
-4.6417 HEARFELT -0.3010
-4.6417 HEARING -0.3010
-3.7966 HEART -0.2947
-4.6417 HEARTED -0.3010
-4.6417 HEAVEN -0.3000
-4.6417 HEAVY -0.3009
-4.3407 HECK -0.2924
-4.3407 HEEL -0.3001
-4.6417 HELEN -0.3010
-4.6417 HELL -0.3010
-4.6417 HELLO -0.2878
-3.8636 HELP -0.2928
-4.6417 HELPFUL -0.2962
-4.6417 HELPING -0.3005
-4.1646 HELPS -0.2960
-4.6417 HELTE -0.3006
-4.6417 HENRI -0.3010
-2.9093 HER -0.2767
-3.5278 HERE -0.2777
-4.6417 HERO -0.2992
-4.1646 HEROINE -0.2818
-4.1646 HERSELF -0.2970
-4.6417 HETEROSEXUALS -0.2878
-4.6417 HIDDEN -0.3010
-4.6417 HIDING -0.2999
-3.6875 HIGH -0.3009
-4.6417 HIGHEST -0.3010
-4.6417 HIGHLIGHT -0.2953
-4.6417 HIGHLIGHTING -0.3010
-3.9428 HIGHLY -0.3003
-4.6417 HIGHTOWER -0.3010
-3.9428 HILARIOUS -0.2848
-4.6417 HILL -0.3008
-4.3407 HILLIARD -0.3004
-4.6417 HILTON -0.2962
-3.3630 HIM -0.2579
-3.5278 HIMSELF -0.2760
-4.6417 HINDS -0.3010
-4.3407 HINDSIGHT -0.2877
-4.6417 HIPNESS -0.2984
-4.1646 HIRED -0.2953
-2.6289 HIS -0.2821
-4.6417 HISTORIANS -0.3010
-4.6417 HISTORIC -0.3010
-4.6417 HISTORICAL -0.3010
-3.8636 HISTORY -0.2897
-3.8636 HIT -0.2977
-4.6417 HITCH -0.3003
-3.8636 HITCHCOCK -0.2968
-4.6417 HITS -0.2948
-4.6417 HODGE -0.3010
-4.6417 HOFFMAN -0.3002
-4.6417 HOKEY -0.3008
-4.3407 HOLD -0.3007
-3.6417 HOLLYWOOD -0.2876
-4.1646 HOLMES -0.2834
-4.3407 HOM -0.2968
-4.6417 HOMAGE -0.2962
-3.6417 HOME -0.2818
-4.6417 HOMEMADE -0.3010
-4.6417 HOMETOWN -0.2986
-4.6417 HOMOSEXUALS -0.3010
-4.3407 HONEST -0.2981
-4.3407 HONESTLY -0.2875
-4.6417 HONESTY -0.3009
-4.6417 HONG -0.3010
-4.3407 HONOR -0.2877
-4.6417 HONORARY -0.3010
-4.6417 HONOURABLE -0.3010
-4.6417 HOOFER -0.2986
-4.6417 HOORAY -0.3000
-4.6417 HOP -0.2962
-4.1646 HOPE -0.2927
-4.6417 HOPES -0.2983
-4.6417 HOPPER -0.2994
-4.6417 HORRENDOUS -0.3010
-4.6417 HORRIBLE -0.3010
-4.6417 HORRIFIC -0.2992
-3.3865 HORROR -0.2865
-3.6875 HORSE -0.2823
-4.6417 HOSTESS -0.2878
-4.6417 HOSTILE -0.3010
-4.6417 HOSTILITY -0.2962
-4.3407 HOUR -0.2932
-4.3407 HOURS -0.3007
-3.8636 HOUSE -0.2886
-3.1946 HOW -0.2779
-4.3407 HOWARD -0.2877
-3.4113 HOWEVER -0.2671
-4.1646 HUGE -0.3009
-4.6417 HUGELY -0.3010
-3.8636 HUMAN -0.2886
-4.3407 HUMANITY -0.2876
-4.6417 HUMANS -0.3006
-3.8636 HUMOR -0.2756
-4.1646 HUMOROUS -0.3003
-4.6417 HUMOUR -0.2953
-4.3407 HUNG -0.2991
-4.6417 HUNKY -0.3009
-4.6417 HUNT -0.2990
-4.6417 HUNTER -0.3003
-4.6417 HURLED -0.3008
-4.6417 HURRICANE -0.2878
-4.6417 HURT -0.2986
-4.6417 HURTING -0.3010
-3.8636 HUSBAND -0.2942
-4.3407 HYDE -0.2967
-4.6417 HYPOCHONDRIAC -0.2948
-2.1884 I -0.2863
-4.6417 IAMASEAL -0.3010
-4.3407 IAN -0.3010
-4.3407 ICE -0.3010
-4.6417 ICONIC -0.2962
-4.6417 IDA -0.2999
-3.7966 IDEA -0.2875
-4.6417 IDEAL -0.3010
-4.6417 IDEAS -0.2948
-4.3407 IDENTITY -0.2996
-4.6417 IE -0.3005
-2.9257 IF -0.2613
-4.6417 IGNORE -0.2984
-4.1646 III -0.2970
-4.6417 ILL -0.2948
-4.1646 IMAGE -0.2910
-4.3407 IMAGERY -0.2920
-4.3407 IMAGES -0.2926
-4.6417 IMAGINATION -0.3005
-4.6417 IMAGINATIVE -0.3010
-4.1646 IMAGINE -0.2933
-4.6417 IMAX -0.2994
-4.6417 IMBUED -0.2995
-4.6417 IMDB -0.3003
-4.6417 IMDBERS -0.2982
-4.6417 IMHO -0.3000
-4.6417 IMITATE -0.2970
-4.3407 IMMATURE -0.3000
-4.6417 IMMENSELY -0.3010
-4.6417 IMMERSES -0.3009
-4.6417 IMMERSING -0.2878
-4.3407 IMPACT -0.2999
-4.6417 IMPASSIONED -0.3010
-4.6417 IMPECCABLE -0.3010
-4.6417 IMPERFECTIONS -0.3007
-4.3407 IMPLAUSIBLE -0.2947
-4.0397 IMPORTANT -0.2976
-4.0397 IMPOSSIBLE -0.2961
-4.6417 IMPOTENT -0.3010
-4.6417 IMPRESSED -0.2995
-4.3407 IMPRESSION -0.2970
-4.6417 IMPRESSIONIST -0.3010
-4.3407 IMPRESSIVE -0.3009
-2.0878 IN -0.2299
-4.6417 INABILITY -0.2962
-4.6417 INCLUDE -0.3010
-4.3407 INCLUDED -0.2993
-4.1646 INCLUDING -0.2868
-4.6417 INCOMPARABLE -0.3009
-4.6417 INCOMPREHENSIBLE -0.3010
-4.6417 INCONGRUITY -0.2984
-4.6417 INCREASED -0.3010
-4.6417 INCREASINGLY -0.3010
-4.1646 INCREDIBLE -0.2947
-4.6417 INCREDIBLY -0.3010
-4.1646 INDEED -0.2876
-4.1646 INDEPENDENT -0.2997
-4.1646 INDIAN -0.3007
-4.6417 INDIVIDUAL -0.3009
-4.6417 INDUCED -0.3010
-4.6417 INDULGENT -0.3010
-4.6417 INDUSTRIALIST -0.3010
-4.6417 INDUSTRY -0.2996
-4.6417 INEXPENSIVE -0.3010
-4.6417 INEXPERIENCED -0.2975
-4.6417 INEXPLICABLE -0.3010
-4.6417 INFAMOUS -0.3010
-4.6417 INFANT -0.3010
-4.6417 INFER -0.2878
-4.6417 INFERIOR -0.2994
-4.6417 INFESTED -0.3010
-4.6417 INFIDELITY -0.3010
-4.6417 INFLUENCED -0.3002
-4.6417 INFLUENTIAL -0.3010
-4.3407 INFO -0.3010
-4.6417 INFORMATION -0.2982
-4.6417 INFORMED -0.2984
-4.6417 INGENIOUS -0.3000
-4.6417 INHABITANTS -0.3000
-4.6417 INHERIT -0.3005
-4.6417 INHERITED -0.3003
-4.6417 INITIAL -0.3010
-4.6417 INITIALLY -0.3010
-3.8636 INNOCENT -0.2930
-4.6417 INQUISITIVE -0.3004
-4.6417 INSATIABLE -0.3010
-3.7966 INSIDE -0.2821
-4.6417 INSIDER -0.3010
-4.6417 INSIGHTFUL -0.3010
-4.6417 INSISTS -0.3004
-4.6417 INSPIRED -0.2878
-4.6417 INSTALLMENT -0.2962
-4.6417 INSTALMENTS -0.2992
-4.1646 INSTANCE -0.2835
-4.6417 INSTANTS -0.2984
-3.7386 INSTEAD -0.2804
-4.6417 INSULT -0.3009
-4.6417 INSURANCE -0.3010
-4.6417 INSURED -0.2975
-4.3407 INTELLIGENCE -0.3006
-4.3407 INTELLIGENT -0.2945
-4.3407 INTENDED -0.2974
-4.6417 INTENDS -0.2962
-4.6417 INTENSIFIES -0.3010
-4.6417 INTENSITY -0.3002
-4.1646 INTENTIONALLY -0.3001
-4.6417 INTERACT -0.2968
-4.6417 INTERACTIONS -0.3009
-4.6417 INTERCUTTING -0.3009
-4.6417 INTEREST -0.3007
-4.1646 INTERESTED -0.2975
-3.4956 INTERESTING -0.2784
-4.6417 INTERNATIONAL -0.2998
-4.3407 INTERNET -0.3009
-4.3407 INTERPRETATION -0.2953
-4.6417 INTERRUPTED -0.3002
-4.6417 INTERTWINE -0.3010
-4.6417 INTERVENES -0.2992
-4.3407 INTERVIEWS -0.2984
-3.1946 INTO -0.2719
-4.6417 INTRICATELY -0.3010
-4.3407 INTRIGUING -0.3008
-4.3407 INTRODUCE -0.2991
-4.6417 INVETERATE -0.3010
-4.6417 INVOLVE -0.3000
-4.6417 INVOLVED -0.2975
-4.6417 INVOLVEMENTS -0.2995
-4.6417 INVOLVES -0.3002
-4.6417 IPOLITE -0.3010
-4.3407 IRA -0.3010
-4.6417 IRAN -0.2948
-4.1646 IRANIAN -0.3010
-4.3407 IRENE -0.3009
-4.3407 IRISH -0.3010
-4.3407 IRONICALLY -0.3009
-4.6417 IRONY -0.2953
-4.3407 IRRITATING -0.2992
-4.6417 IRVING -0.3010
-2.0144 IS -0.2193
-4.1646 ISLAND -0.2877
-3.4956 ISN -0.3000
-4.0397 ISSUE -0.2938
-4.6417 ISSUES -0.2984
-2.0332 IT -0.2058
-4.0397 ITALIAN -0.3007
-2.9342 ITS -0.2776
-3.7966 ITSELF -0.2959
-3.7966 IZUMO -0.2921
-4.6417 IZURUHA -0.2950
-4.6417 J -0.3000
-4.0397 JACK -0.2990
-4.3407 JACKSON -0.2950
-4.6417 JAFAR -0.3010
-4.3407 JAIL -0.2857
-4.6417 JAKU -0.3003
-4.0397 JAMES -0.3010
-4.6417 JAMIE -0.3010
-4.3407 JANE -0.3010
-3.9428 JAPAN -0.2879
-4.1646 JAPANESE -0.2961
-4.6417 JARRING -0.3004
-4.6417 JEALOUS -0.3010
-4.6417 JEANNOT -0.3010
-4.6417 JEFF -0.3010
-4.6417 JEREMY -0.3010
-4.6417 JERSEY -0.2996
-4.6417 JIM -0.3010
-4.6417 JIMMY -0.3010
-4.3407 JOAN -0.3010
-3.7966 JOB -0.2912
-4.6417 JOBS -0.2975
-4.6417 JOCK -0.3004
-4.6417 JOE -0.3010
-4.3407 JOEY -0.2841
-3.4376 JOHN -0.3008
-4.3407 JOHNSON -0.2991
-4.6417 JOKE -0.3004
-4.3407 JOKES -0.2939
-4.6417 JON -0.3010
-4.6417 JOSEF -0.3010
-4.6417 JOURNEY -0.2962
-4.3407 JOY -0.2889
-4.6417 JOYFUL -0.2970
-4.6417 JOYRIDE -0.2999
-4.6417 JUGGLES -0.2878
-4.3407 JULIET -0.2968
-4.6417 JUNIOR -0.2975
-2.8709 JUST -0.2699
-4.6417 JUSTIFYING -0.3005
-4.6417 K -0.2999
-4.6417 KABUKI -0.3010
-4.6417 KAMAL -0.3010
-4.6417 KANE -0.3006
-4.6417 KATE -0.3010
-4.6417 KATHAK -0.3010
-4.6417 KAVOGIANNI -0.3010
-4.6417 KAY -0.3010
-3.7966 KEEP -0.2866
-4.3407 KEEPING -0.2964
-4.3407 KEEPS -0.3010
-4.3407 KELLY -0.2857
-4.3407 KEN -0.3010
-4.6417 KENNETH -0.3010
-4.3407 KENNY -0.2948
-4.6417 KENTUCKY -0.3010
-4.1646 KEPT -0.2995
-4.6417 KESEY -0.2948
-4.6417 KETTY -0.3010
-4.3407 KICK -0.3009
-4.6417 KICKOFF -0.3008
-4.0397 KID -0.2939
-4.6417 KIDNAPPED -0.2948
-4.6417 KIDNAPPING -0.2948
-3.6875 KIDS -0.2893
-3.7966 KILL -0.2992
-4.1646 KILLED -0.3003
-3.7966 KILLER -0.2767
-4.6417 KILLERS -0.2982
-4.3407 KILLING -0.2949
-4.6417 KILLS -0.3007
-4.6417 KILMER -0.3003
-3.8636 KIND -0.2953
-4.1646 KINDA -0.3009
-4.6417 KINDS -0.3010
-4.1646 KING -0.2797
-4.3407 KIRK -0.3010
-4.6417 KITCHEN -0.3010
-3.6417 KNEW -0.2894
-4.6417 KNIFE -0.3005
-4.6417 KNIGHTLEY -0.3010
-4.6417 KNOCKS -0.3001
-3.3407 KNOW -0.2640
-4.0397 KNOWING -0.2940
-4.0397 KNOWLEDGE -0.2915
-3.7386 KNOWN -0.2833
-3.8636 KNOWS -0.2936
-4.6417 KONG -0.2986
-4.6417 KONSTADINOU -0.2948
-4.0397 KORDA -0.2853
-4.6417 KOTE -0.3010
-4.6417 KUDOS -0.3008
-4.3407 KUMAR -0.3010
-4.0397 KUMARI -0.2787
-4.6417 KURT -0.3010
-3.7966 LA -0.3010
-4.6417 LACED -0.2995
-4.3407 LACK -0.2953
-4.6417 LACKING -0.3010
-4.6417 LACKLUSTRE -0.2975
-4.6417 LACKS -0.2878
-4.6417 LADIES -0.2948
-3.6003 LADY -0.2932
-4.6417 LAMBERTO -0.3010
-4.3407 LAME -0.3010
-4.6417 LAMPOONING -0.3010
-4.6417 LANDIS -0.2948
-4.3407 LANDS -0.2981
-4.6417 LAND -0.2878
-4.3407 LANGUAGE -0.2935
-4.3407 LANGUAGES -0.2871
-4.3407 LANSBURY -0.2985
-4.6417 LARA -0.3010
-4.0397 LARGE -0.3009
-4.3407 LARGER -0.3006
-3.6417 LAST -0.2988
-4.6417 LASTED -0.2975
-3.8636 LATE -0.2986
-4.6417 LATELY -0.3010
-3.4376 LATER -0.2829
-4.3407 LATEST -0.3010
-4.6417 LATTER -0.2968
-3.9428 LAUGH -0.2925
-4.6417 LAUGHED -0.3004
-4.1646 LAUGHING -0.2988
-4.3407 LAUGHS -0.2841
-4.6417 LAUGHTER -0.3010
-4.6417 LAUNCHING -0.3010
-3.9428 LAW -0.3010
-4.6417 LAWS -0.2953
-4.6417 LAWYERS -0.3009
-4.6417 LAZERS -0.2948
-3.8636 LEAD -0.2950
-4.6417 LEADER -0.3004
-4.1646 LEADING -0.3009
-4.6417 LEAP -0.3010
-4.6417 LEARN -0.3004
-4.3407 LEARNING -0.2964
-4.1646 LEARNS -0.2984
-4.1646 LEARY -0.2867
-3.4656 LEAST -0.2767
-3.8636 LEAVE -0.2859
-4.0397 LEAVES -0.2864
-4.3407 LEAVING -0.2995
-4.3407 LED -0.2998
-4.1646 LEE -0.3010
-3.7386 LEFT -0.2855
-4.6417 LEFTOVER -0.3003
-4.6417 LEGAL -0.2948
-4.3407 LEGEND -0.2947
-4.6417 LEGS -0.2953
-4.6417 LEISURELY -0.3010
-4.6417 LENGTH -0.3010
-4.3407 LENGTHY -0.3009
-4.6417 LEONARDO -0.2975
-4.6417 LEONOV -0.2948
-4.6417 LESBIAN -0.3010
-4.6417 LESLIE -0.3010
-3.9428 LESS -0.2892
-4.1646 LESSER -0.2952
-4.6417 LESSON -0.3007
-4.6417 LESSONS -0.2994
-4.6417 LEST -0.3006
-3.6875 LET -0.2967
-4.6417 LETTER -0.3010
-4.6417 LETTING -0.3007
-4.6417 LEVANT -0.2990
-4.3407 LEVEL -0.2941
-4.3407 LEVELS -0.2912
-4.6417 LEVIN -0.2986
-4.1646 LEWIS -0.2869
-4.6417 LIBERALLY -0.3000
-4.1646 LIBRARIAN -0.2852
-4.6417 LIBRARY -0.3000
-4.3407 LIE -0.3002
-4.3407 LIED -0.2901
-4.6417 LIES -0.3001
-3.1103 LIFE -0.2424
-3.6417 LIGHT -0.2875
-4.0397 LIKABLE -0.2806
-2.7123 LIKE -0.2464
-3.6875 LIKED -0.2760
-4.3407 LIKELY -0.2962
-4.6417 LILLIAN -0.3010
-3.8636 LINDSAY -0.2858
-3.7966 LINE -0.2664
-3.9428 LINES -0.2978
-4.6417 LIOTTA -0.3008
-4.6417 LIP -0.3009
-4.6417 LISA -0.3010
-4.3407 LISTENER -0.2968
-4.6417 LITERALLY -0.2948
-3.2993 LITTLE -0.2972
-3.6417 LIVE -0.2848
-4.3407 LIVED -0.2911
-4.1646 LIVES -0.2911
-4.3407 LIVING -0.2995
-3.7966 LL -0.2992
-4.3407 LLOYD -0.2986
-4.1646 LOCAL -0.3008
-4.6417 LOCATION -0.3009
-4.6417 LOCATIONS -0.3010
-4.3407 LODGER -0.2969
-3.5626 LONG -0.2950
-4.0397 LONGER -0.2976
-3.3195 LOOK -0.2753
-3.9428 LOOKED -0.2994
-3.7966 LOOKING -0.2982
-3.6417 LOOKS -0.2861
-4.6417 LOONY -0.3010
-4.6417 LORD -0.2982
-4.3407 LOSE -0.2956
-4.3407 LOSER -0.2986
-4.3407 LOSES -0.3005
-4.1646 LOSING -0.2835
-4.0397 LOST -0.2957
-3.4656 LOT -0.2920
-4.0397 LOTS -0.2953
-4.6417 LOTTERY -0.2948
-4.3407 LOUD -0.3005
-4.6417 LOUIS -0.2948
-4.6417 LOVABLENESS -0.2950
-3.2615 LOVE -0.2542
-3.9428 LOVED -0.2937
-4.3407 LOVELIER -0.2921
-4.0397 LOVELY -0.3009
-4.6417 LOVER -0.3000
-4.1646 LOVERS -0.2941
-4.6417 LOVES -0.2962
-4.6417 LOVING -0.2970
-4.0397 LOW -0.3009
-4.6417 LOWER -0.3010
-4.6417 LOWLIFES -0.2996
-4.6417 LUCIO -0.3010
-4.3407 LUCKY -0.3009
-4.6417 LUDICROUS -0.2970
-4.1646 LUFT -0.3010
-4.6417 LUFTENS -0.3010
-4.1646 LUMET -0.3008
-4.6417 LUNG -0.2968
-4.3407 LUSH -0.3008
-4.6417 LUSTING -0.3008
-3.9428 LYLE -0.2897
-4.3407 LYNCH -0.2876
-4.6417 LYRICISM -0.2948
-4.6417 LYRICIST -0.2948
-3.4376 M -0.2933
-3.1504 MADE -0.2460
-4.6417 MAGIC -0.3010
-4.6417 MAGICAL -0.3010
-4.6417 MAGNETIC -0.3010
-4.6417 MAGNIFICENT -0.2992
-4.6417 MAIL -0.2948
-3.6875 MAIN -0.3002
-4.1646 MAINLY -0.3002
-4.6417 MAJOR -0.3010
-4.6417 MAJORITY -0.2953
-3.1504 MAKE -0.2697
-3.2993 MAKES -0.2732
-3.7966 MAKING -0.2900
-4.3407 MALE -0.3008
-4.6417 MALEFICENT -0.2975
-4.6417 MALEVOLENT -0.3010
-4.6417 MALLEPA -0.3010
-3.2268 MAN -0.2687
-4.3407 MANAGE -0.2877
-4.3407 MANAGES -0.2962
-4.6417 MANGA -0.2970
-4.6417 MANHATTAN -0.2962
-4.6417 MANIAC -0.2878
-4.6417 MANIPULATE -0.2878
-4.6417 MANIPULATION -0.2953
-4.6417 MANN -0.3000
-4.1646 MANNER -0.2978
-3.1946 MANY -0.2863
-4.6417 MANZANO -0.3010
-4.6417 MARC -0.3010
-4.6417 MARCO -0.2968
-4.6417 MARIA -0.3010
-4.6417 MARIETTE -0.3010
-4.6417 MARINE -0.3010
-4.6417 MARITAL -0.3010
-4.0397 MARK -0.3007
-4.6417 MARKET -0.3010
-4.3407 MARLON -0.3010
-4.6417 MARRIAGE -0.3010
-4.0397 MARRIED -0.2944
-4.6417 MARRIES -0.2950
-4.3407 MARTIAL -0.3010
-4.1646 MARTIN -0.3010
-3.9428 MARY -0.2906
-4.6417 MARYLAND -0.2998
-4.3407 MASKED -0.3001
-4.6417 MASS -0.3010
-4.3407 MASSACRE -0.2947
-4.6417 MASSES -0.3008
-4.6417 MASSEY -0.2986
-4.6417 MASSIVE -0.3010
-4.6417 MASTER -0.3010
-4.6417 MASTERFUL -0.3010
-4.6417 MASTERLY -0.3010
-3.7966 MASTERPIECE -0.2817
-4.6417 MASTERPIECES -0.2994
-4.6417 MASTERS -0.3001
-4.6417 MASTERSON -0.3010
-3.9428 MATCH -0.2941
-4.6417 MATCHED -0.3009
-4.1646 MATERIAL -0.2796
-4.6417 MATT -0.3010
-3.9428 MATTER -0.2876
-4.6417 MATTERED -0.2948
-4.6417 MATURE -0.3007
-4.6417 MATURELY -0.2994
-4.6417 MAURICE -0.3010
-4.6417 MAX -0.2990
-3.6003 MAY -0.2978
-3.5626 MAYBE -0.2869
-4.3407 MAYER -0.2967
-4.6417 MAYOR -0.2953
-4.6417 MCBAIN -0.2968
-4.3407 MCCOY -0.2991
-4.6417 MCKENZIE -0.2994
-3.1504 ME -0.2626
-4.3407 MEAN -0.2950
-4.3407 MEANING -0.2927
-4.6417 MEANS -0.2984
-4.6417 MEANT -0.2962
-4.6417 MEANWHILE -0.3010
-4.6417 MEAT -0.3010
-4.6417 MEDAL -0.2953
-3.8636 MEDIA -0.2833
-4.6417 MEDIATION -0.2999
-4.3407 MEEK -0.3010
-4.0397 MEENA -0.2985
-4.3407 MEET -0.2973
-4.6417 MEETING -0.3010
-4.1646 MEETS -0.2778
-4.6417 MELANGE -0.2984
-4.6417 MELODIES -0.2968
-4.6417 MELODRAMA -0.3010
-4.6417 MELODRAMATIC -0.3010
-4.3407 MEMBER -0.2946
-3.8636 MEMBERS -0.2887
-4.3407 MEMORABLE -0.3007
-4.6417 MEMORY -0.2970
-3.7966 MEN -0.2822
-4.6417 MENACING -0.3010
-4.3407 MENTAL -0.3010
-4.6417 MENTALITY -0.2984
-4.0397 MENTIONED -0.2976
-4.3407 MENTIONS -0.2967
-4.3407 MERE -0.3008
-4.6417 MERELY -0.3010
-4.6417 MERYL -0.3010
-4.6417 MESH -0.3010
-4.6417 MESS -0.2970
-4.0397 MESSAGE -0.2973
-4.3407 MESSAGES -0.2919
-4.6417 MET -0.3008
-3.7966 METAL -0.2929
-4.6417 METHOD -0.3009
-4.6417 METICULOUS -0.3010
-4.6417 MEXICO -0.3010
-4.3407 MGM -0.2947
-4.3407 MICE -0.2943
-3.7386 MICHAEL -0.2945
-4.6417 MICHELE -0.3010
-4.6417 MID -0.2962
-4.0397 MIDDLE -0.2924
-4.6417 MIDDLING -0.3010
-3.8636 MIGHT -0.2985
-4.6417 MILLE -0.2994
-4.6417 MILLER -0.3004
-4.3407 MILLION -0.2983
-4.6417 MILO -0.2962
-4.6417 MIMICKING -0.3010
-3.8636 MIND -0.2817
-4.6417 MINDFU -0.3010
-4.3407 MINDS -0.2966
-4.6417 MINE -0.3010
-4.6417 MINELLI -0.2995
-4.6417 MINUTE -0.2993
-3.7386 MINUTES -0.2938
-4.6417 MIRACLE -0.3010
-4.6417 MIRROR -0.3010
-4.6417 MISCONCEPTIONS -0.3005
-4.6417 MISE -0.3010
-4.6417 MISERY -0.3010
-4.6417 MISINFORMATION -0.2878
-4.3407 MISLEADING -0.2877
-3.7966 MISS -0.2931
-4.6417 MISSED -0.3005
-4.6417 MISSES -0.2950
-4.3407 MISSING -0.2964
-4.6417 MISSION -0.2994
-4.6417 MISTAKE -0.3002
-4.3407 MISTAKEN -0.2994
-4.3407 MITCHELL -0.2877
-4.3407 MIX -0.2953
-4.6417 MIXED -0.3010
-4.1646 MOBILE -0.3010
-4.6417 MOCKING -0.3010
-4.6417 MOCKUMENTARY -0.3004
-4.6417 MODEL -0.3010
-4.6417 MODERATELY -0.3010
-4.3407 MODERN -0.2996
-4.6417 MODUS -0.3010
-4.6417 MOGULS -0.2953
-4.6417 MOLLY -0.3010
-3.9428 MOMENT -0.2931
-3.5626 MOMENTS -0.2807
-3.7386 MONEY -0.2752
-4.6417 MONGER -0.2968
-4.6417 MONO -0.3010
-4.6417 MONTAGE -0.2953
-4.6417 MONTANA -0.3004
-4.6417 MONTAUK -0.3010
-4.6417 MONTHS -0.3001
-4.3407 MONTREAL -0.2994
-4.6417 MONUMENTAL -0.2948
-4.3407 MOOD -0.2961
-4.6417 MOON -0.2970
-4.6417 MOONCHILD -0.2968
-4.6417 MOONWALKER -0.2962
-4.6417 MOPE -0.3010
-4.6417 MORAL -0.3010
-4.6417 MORALITY -0.3010
-4.6417 MORANT -0.2975
-4.6417 MORAYS -0.3006
-4.6417 MORBID -0.3010
-2.8564 MORE -0.2744
-4.6417 MORES -0.3010
-4.6417 MORNING -0.3010
-4.6417 MOSQUE -0.2968
-3.0735 MOST -0.2921
-4.0397 MOSTLY -0.2999
-4.3407 MOTHER -0.2947
-4.6417 MOTIF -0.2962
-4.3407 MOTIFS -0.2889
-4.6417 MOTION -0.3010
-4.3407 MOUSE -0.2886
-4.3407 MOVE -0.2989
-4.6417 MOVEMENT -0.2948
-4.3407 MOVES -0.3010
-2.3962 MOVIE -0.2074
-3.2615 MOVIES -0.2577
-4.6417 MOVING -0.3010
-3.4956 MR -0.3006
-3.8636 MS -0.3009
-3.0619 MUCH -0.2608
-4.3407 MUDDLED -0.2975
-4.1646 MULTI -0.3010
-4.6417 MULTICULTURAL -0.3010
-4.3407 MUMBLES -0.3002
-4.0397 MURDER -0.2945
-4.6417 MURDERED -0.3002
-4.6417 MURDEROUS -0.3010
-4.6417 MURKY -0.3009
-3.5278 MUSIC -0.2807
-3.4376 MUSICAL -0.2738
-3.8636 MUSICALS -0.2945
-4.6417 MUSICIANS -0.3010
-4.6417 MUSINGS -0.2948
-3.5278 MUST -0.2991
-2.9428 MY -0.2993
-4.6417 MYRA -0.3002
-3.7386 MYSELF -0.2743
-4.3407 MYSTERIOUS -0.3008
-4.6417 MYSTERY -0.3005
-4.3407 N -0.3010
-4.6417 NAGS -0.3007
-4.6417 NAILED -0.2878
-4.3407 NAIVE -0.3006
-3.7966 NAME -0.2929
-4.3407 NAMED -0.3010
-4.3407 NAMES -0.2911
-4.3407 NANCY -0.3010
-4.6417 NARRATE -0.2878
-4.6417 NARRATIVE -0.2995
-4.6417 NATHAN -0.3010
-4.6417 NATION -0.2986
-4.6417 NATIVE -0.3010
-4.1646 NATURAL -0.2946
-4.6417 NATUREIT -0.2968
-4.6417 NAUSHADS -0.3009
-4.6417 NAVIGATE -0.3000
-4.3407 ND -0.3010
-4.0397 NEAR -0.2877
-4.0397 NEARLY -0.2990
-4.6417 NECESSITY -0.3010
-4.6417 NECKS -0.2878
-4.6417 NED -0.3010
-4.0397 NEED -0.2956
-4.6417 NEEDED -0.2962
-4.6417 NEEDLESS -0.3010
-4.0397 NEEDS -0.2900
-4.6417 NEITHER -0.3002
-4.6417 NETWORK -0.2994
-4.6417 NEUROTIC -0.2948
-4.6417 NEUTRAL -0.3010
-3.1504 NEVER -0.2871
-4.1646 NEVERTHELESS -0.2939
-3.4113 NEW -0.2933
-4.6417 NEWBIE -0.3010
-4.6417 NEWNESS -0.2975
-4.6417 NEWT -0.2995
-4.6417 NEWTYPES -0.3010
-4.0397 NEXT -0.2850
-3.7966 NICE -0.2896
-4.6417 NICK -0.3010
-4.6417 NICKNAME -0.3010
-4.6417 NICOLAS -0.3010
-4.6417 NIGH -0.2878
-3.7386 NIGHT -0.2914
-4.3407 NIGHTMARE -0.2870
-4.6417 NIGHTMARES -0.2983
-4.6417 NIGHTMARISH -0.3010
-4.3407 NIGHTS -0.2905
-4.6417 NIKAH -0.3010
-4.6417 NIKOLAIDIS -0.2994
-4.6417 NINA -0.3010
-4.6417 NINE -0.2990
-3.2104 NO -0.2970
-4.6417 NOBILITY -0.3009
-4.6417 NOBODY -0.3009
-4.6417 NOD -0.2953
-4.1646 NOIR -0.3006
-4.6417 NOMINATED -0.2994
-4.3407 NONE -0.2953
-4.6417 NONETHELESS -0.3010
-4.6417 NONSENSICAL -0.3010
-4.1646 NOR -0.3006
-4.0397 NORMAL -0.2986
-4.6417 NORMALLY -0.2968
-4.6417 NORTH -0.3010
-4.6417 NORTHAM -0.3009
-4.6417 NOSE -0.3010
-4.6417 NOSTALGIA -0.3010
-2.6595 NOT -0.2422
-4.6417 NOTABLY -0.3003
-4.6417 NOTCH -0.3010
-4.3407 NOTE -0.2981
-4.1646 NOTED -0.3000
-4.3407 NOTES -0.2940
-3.4376 NOTHING -0.2860
-4.6417 NOTICE -0.2878
-4.0397 NOVEL -0.2860
-3.5278 NOW -0.2887
-4.6417 NUANCE -0.2953
-4.3407 NUDE -0.2999
-4.6417 NUDITY -0.3005
-4.0397 NUMBER -0.2910
-4.1646 NUMBERS -0.2861
-4.6417 NURSES -0.2975
-4.3407 NWA -0.2947
-4.6417 NWH -0.3003
-4.0397 O -0.3010
-4.6417 OBJECTIVE -0.3010
-4.3407 OBLIGATORY -0.2947
-4.6417 OBNOXIOUS -0.3010
-4.6417 OBSERVING -0.3006
-4.6417 OBSESSED -0.3010
-4.3407 OBSESSION -0.2953
-4.3407 OBTAIN -0.2947
-4.6417 OBTAINED -0.3002
-4.6417 OBTRUSIVE -0.2975
-4.0397 OBVIOUS -0.2978
-3.7386 OBVIOUSLY -0.2828
-4.6417 OCCASIONALLY -0.3004
-4.6417 OCCUPANTS -0.2975
-4.6417 OCCUPIED -0.3010
-4.3407 ODD -0.3010
-4.6417 ODDYSEY -0.3008
-1.8828 OF -0.2225
-3.4376 OFF -0.2728
-4.6417 OFFERED -0.2878
-4.0397 OFFERS -0.2940
-4.0397 OFFICER -0.2932
-4.6417 OFFICERS -0.3002
-4.1646 OFFSIDE -0.2924
-3.4656 OFTEN -0.2941
-4.3407 OGRE -0.3004
-4.3407 OH -0.2947
-4.6417 OHIO -0.3010
-3.9428 OK -0.2883
-3.3630 OLD -0.2867
-4.1646 OLDER -0.3005
-4.6417 OLDEST -0.3010
-4.6417 OLEN -0.3010
-4.6417 OLIVER -0.3010
-2.5887 ON -0.2432
-4.1646 ONCE -0.3002
-2.6505 ONE -0.2575
-3.9428 ONES -0.2868
-4.6417 ONLINE -0.3002
-3.2104 ONLY -0.2695
-4.6417 ONMYOJI -0.3010
-4.6417 ONTO -0.2878
-4.6417 OOD -0.3010
-4.6417 OOPS -0.2982
-4.6417 OPEN -0.2975
-4.6417 OPENED -0.3008
-4.3407 OPENING -0.2952
-4.6417 OPENLY -0.3010
-4.6417 OPENS -0.3009
-4.6417 OPERANDI -0.2953
-3.6003 OPINION -0.2795
-4.6417 OPPOSED -0.2962
-4.6417 OPPOSES -0.3010
-4.3407 OPPOSING -0.2877
-4.6417 OPPOSITE -0.3005
-4.6417 OPPRESSIVE -0.3009
-4.3407 OPTIMISM -0.3000
-4.6417 OPULENT -0.3009
-2.8709 OR -0.2612
-4.6417 ORCHESTRAL -0.3010
-3.8636 ORCO -0.2966
-4.1646 ORDER -0.2947
-4.3407 OREGON -0.2985
-4.6417 OREGONIAN -0.2994
-4.6417 ORGANIZED -0.2975
-4.6417 ORIENTED -0.3010
-4.6417 ORIGIN -0.2878
-3.7386 ORIGINAL -0.2783
-4.6417 ORIGINALITY -0.3000
-4.6417 ORIGINALLY -0.3010
-4.6417 ORIGINS -0.2970
-4.6417 ORPHANS -0.3005
-4.1646 ORSON -0.3008
-4.6417 ORWELL -0.3010
-3.9428 OSCAR -0.2854
-4.6417 OSCARS -0.3009
-3.0735 OTHER -0.2876
-4.1646 OTHERS -0.2921
-4.6417 OTHERWISE -0.3010
-3.5626 OUR -0.3002
-4.1646 OURSELVES -0.2983
-2.8709 OUT -0.2470
-4.6417 OUTCOME -0.2968
-4.3407 OUTSIDE -0.2819
-4.6417 OUTSIDER -0.3009
-4.6417 OUTSIDERS -0.3009
-4.0397 OUTSTANDING -0.2931
-3.3195 OVER -0.2747
-4.6417 OVERACTING -0.2970
-3.6417 OVERALL -0.2867
-4.6417 OVERCOME -0.3002
-4.6417 OVERDONE -0.2950
-4.6417 OVERSHADOWED -0.3002
-4.6417 OVERWEIGHT -0.3010
-4.6417 OVERWHELMING -0.3010
-3.9428 OWN -0.3005
-4.3407 OWNER -0.2953
-4.6417 OXFORD -0.3008
-4.6417 P -0.3000
-4.6417 PACE -0.3010
-4.3407 PACED -0.2968
-4.3407 PACING -0.2952
-4.6417 PACKAGE -0.2996
-4.3407 PACKED -0.2945
-4.6417 PAD -0.2950
-4.6417 PAGE -0.2982
-4.3407 PAID -0.2926
-4.6417 PAIN -0.2984
-4.6417 PAINTED -0.2999
-4.3407 PAINTERS -0.2933
-4.6417 PAINTING -0.3004
-4.6417 PAINTS -0.3010
-4.6417 PAJAMA -0.2986
-4.6417 PAKEEZAH -0.2968
-4.1646 PAL -0.2988
-4.6417 PALE -0.3008
-4.6417 PALETTE -0.3005
-4.6417 PALPABLE -0.2948
-4.6417 PALSY -0.3008
-4.6417 PALTROW -0.2968
-4.3407 PANAHI -0.2970
-4.6417 PANNED -0.3002
-4.6417 PAOLO -0.3010
-4.6417 PAPAL -0.3010
-4.6417 PAR -0.2995
-4.6417 PARACHUTING -0.3009
-4.3407 PARANOIA -0.2836
-4.6417 PARAPHRASED -0.3010
-4.6417 PARAPHRASING -0.3009
-4.6417 PARENT -0.3010
-4.0397 PARENTS -0.2937
-4.6417 PARIS -0.3010
-4.1646 PARKER -0.3010
-4.6417 PARODY -0.3010
-3.4376 PART -0.2654
-4.6417 PARTIAL -0.3001
-4.6417 PARTIALLY -0.3010
-4.6417 PARTICULAR -0.2878
-3.7966 PARTICULARLY -0.2855
-4.6417 PARTLY -0.3010
-4.1646 PARTNER -0.2947
-4.0397 PARTS -0.2953
-3.8636 PARTY -0.2919
-4.6417 PASDAR -0.2968
-4.6417 PASSAGE -0.2953
-4.1646 PASSED -0.3000
-4.6417 PASSES -0.2948
-4.3407 PASSING -0.2872
-4.6417 PASSION -0.2953
-4.6417 PASSIONATE -0.3009
-4.6417 PASSWORTHY -0.3010
-4.0397 PAST -0.2933
-4.6417 PATHAR -0.3009
-4.1646 PATIENT -0.2941
-4.1646 PATRICK -0.2965
-4.6417 PATRIOTS -0.2948
-4.3407 PAY -0.3006
-4.6417 PAYING -0.2878
-4.6417 PAYS -0.3010
-4.6417 PD -0.3010
-4.6417 PEACE -0.2948
-4.6417 PEANUTS -0.2994
-4.6417 PECULIAR -0.2992
-4.6417 PEDIGREE -0.2953
-4.6417 PEEK -0.3008
-4.6417 PENCE -0.3009
-4.6417 PENNED -0.2975
-3.2615 PEOPLE -0.2751
-4.6417 PEOPLES -0.3010
-4.6417 PERCEIVE -0.2948
-4.6417 PERCENT -0.2953
-3.7966 PERFECT -0.2930
-4.6417 PERFECTED -0.3009
-4.3407 PERFECTLY -0.2947
-3.7386 PERFORMANCE -0.2796
-3.4376 PERFORMANCES -0.2668
-3.7386 PERHAPS -0.2772
-3.7966 PERIOD -0.2827
-4.6417 PERMANENT -0.3010
-4.6417 PERSON -0.3005
-4.6417 PERSONA -0.2953
-4.3407 PERSONAL -0.3010
-4.1646 PERSONALITY -0.2896
-4.6417 PERSONALLY -0.3010
-4.6417 PERSONS -0.3010
-4.6417 PERSPECTIVE -0.2975
-4.6417 PET -0.3010
-4.6417 PETTIT -0.2948
-4.6417 PHENOMENAL -0.3010
-4.6417 PHILLIP -0.3009
-4.1646 PHILOSOPHICAL -0.3001
-4.6417 PHOENIX -0.2986
-4.6417 PHONY -0.3010
-4.6417 PHOOL -0.3010
-4.6417 PHOTOGRAPHED -0.2962
-4.3407 PHOTOGRAPHY -0.3006
-4.6417 PIANIST -0.2948
-4.3407 PICKFORD -0.3008
-3.7386 PICTURE -0.2744
-4.6417 PICTURES -0.3008
-4.6417 PIECE -0.3010
-4.6417 PIECES -0.2984
-4.3407 PILOT -0.3010
-4.6417 PIPE -0.3010
-4.3407 PIT -0.2981
-4.3407 PITA -0.3010
-4.6417 PITCH -0.2878
-3.6003 PLACE -0.2776
-4.3407 PLACED -0.2974
-4.0397 PLACES -0.2859
-4.6417 PLAIN -0.3010
-4.3407 PLAN -0.2962
-4.6417 PLANE -0.3010
-3.9428 PLANET -0.2808
-4.6417 PLANNING -0.3010
-4.6417 PLANS -0.3007
-3.7966 PLAY -0.2914
-3.4956 PLAYED -0.2879
-4.3407 PLAYER -0.3006
-4.6417 PLAYERS -0.3002
-3.6003 PLAYING -0.2923
-3.7966 PLAYS -0.2770
-4.6417 PLAYWRIGHT -0.3010
-4.6417 PLEAD -0.2962
-4.6417 PLEASANT -0.2998
-4.3407 PLEASANTLY -0.3010
-4.6417 PLEASANTVILLE -0.2986
-4.3407 PLEASE -0.3005
-4.6417 PLEASING -0.3001
-4.3407 PLEASURE -0.2944
-4.6417 PLENTY -0.2953
-4.6417 PLODS -0.3010
-3.3630 PLOT -0.2736
-4.6417 PLOTS -0.2975
-4.3407 PLOTTED -0.2935
-4.6417 PLUMP -0.2948
-4.1646 PLUS -0.2959
-4.6417 POCKET -0.3010
-4.6417 PODGE -0.2953
-4.6417 POETIC -0.3010
-4.6417 POIGNANT -0.3009
-3.4956 POINT -0.2582
-4.1646 POINTS -0.2891
-4.6417 POISONED -0.3002
-4.6417 POKE -0.3009
-4.6417 POLANSKI -0.2950
-4.6417 POLARIZATION -0.2953
-4.0397 POLICE -0.3007
-4.6417 POLISH -0.3008
-4.6417 POLISHED -0.2948
-4.6417 POLITE -0.2994
-4.6417 POLLAK -0.2948
-4.6417 POND -0.3008
-4.0397 POOR -0.3009
-4.3407 POORLY -0.3009
-4.1646 POP -0.2997
-4.3407 POPCORN -0.2993
-3.7966 POPULAR -0.2849
-4.3407 PORN -0.3010
-4.6417 PORTRAIT -0.2953
-4.6417 PORTRAY -0.2948
-4.6417 PORTRAYAL -0.2968
-4.3407 PORTRAYED -0.2983
-4.6417 PORTRAYING -0.3007
-2.6417 POS -0.3000
-3.9428 POSEY -0.2901
-4.3407 POSITION -0.2947
-4.6417 POSITIONED -0.3010
-4.3407 POSITIVE -0.3010
-4.1646 POSSESS -0.2776
-4.3407 POSSESSION -0.2944
-4.6417 POSSIBILITY -0.2948
-4.3407 POSSIBLE -0.2968
-4.3407 POSSIBLY -0.2867
-4.0397 POST -0.2909
-4.6417 POSTERS -0.3004
-4.3407 POSTING -0.2977
-4.3407 POTENTIAL -0.2917
-4.0397 POW -0.3009
-4.0397 POWER -0.2889
-4.6417 POWERFUL -0.2948
-3.6875 POWS -0.2913
-4.6417 PRAISE -0.3007
-4.6417 PRANKS -0.3000
-4.6417 PRECLUDE -0.3007
-4.6417 PREDECESSOR -0.2962
-4.6417 PREDICT -0.3003
-4.3407 PREDICTABLE -0.2931
-4.6417 PREDOMINATELY -0.3000
-4.6417 PREFERRED -0.3010
-4.3407 PREGNANT -0.3004
-4.6417 PREMIERE -0.2994
-4.6417 PREMONITION -0.3006
-4.6417 PREPARING -0.3000
-4.6417 PRESENCE -0.2975
-4.6417 PRESENT -0.3002
-4.6417 PRESENTATION -0.2953
-4.3407 PRESENTED -0.3009
-4.6417 PRESENTLY -0.3002
-4.1646 PRESENTS -0.2831
-4.6417 PRESERVED -0.3004
-4.3407 PRESSURE -0.2936
-4.3407 PRESTIGIOUS -0.2997
-4.6417 PRESUMABLY -0.3010
-4.6417 PRETENDING -0.2982
-4.6417 PRETENSIONS -0.2975
-4.6417 PRETENTIOUS -0.3010
-3.4376 PRETTY -0.2972
-4.3407 PREVENT -0.2850
-4.6417 PREVIOUS -0.3010
-4.6417 PREY -0.2962
-4.6417 PRICE -0.2878
-4.6417 PRIMARILY -0.2962
-4.6417 PRIME -0.3010
-4.6417 PRINCE -0.3010
-4.6417 PRINCIPAL -0.3010
-4.6417 PRINCIPLE -0.3004
-4.6417 PRIOR -0.2962
-4.6417 PRISONER -0.2953
-4.1646 PRISONERS -0.2974
-4.6417 PRIZE -0.3010
-4.3407 PRO -0.3010
-3.6417 PROBABLY -0.2847
-4.3407 PROBLEM -0.2834
-4.3407 PROBLEMS -0.2980
-4.1646 PROCESS -0.2845
-4.3407 PRODUCED -0.3008
-4.6417 PRODUCER -0.3010
-3.9428 PRODUCERS -0.2903
-4.6417 PRODUCING -0.3010
-4.6417 PRODUCT -0.2984
-4.1646 PRODUCTION -0.2904
-4.6417 PRODUCTIONS -0.3008
-4.1646 PROFESSIONAL -0.2981
-4.6417 PROGRESSES -0.2975
-4.6417 PROJECTS -0.3002
-4.6417 PROMISED -0.2878
-4.6417 PROMO -0.2994
-4.3407 PRONE -0.2962
-4.3407 PROPER -0.3010
-4.6417 PROPRIETARY -0.3010
-4.6417 PROSECUTOR -0.3010
-4.6417 PROSTHESIS -0.2983
-4.6417 PROUSALIS -0.2948
-4.3407 PROVE -0.2935
-4.6417 PROVIDE -0.2970
-4.3407 PROVIDES -0.2946
-4.3407 PROVOKE -0.2878
-4.6417 PSYCHEDELIC -0.3010
-4.3407 PSYCHOLOGICAL -0.2974
-4.6417 PUBLIC -0.3010
-4.6417 PUFNSTUF -0.3010
-4.6417 PUGILIST -0.2994
-4.6417 PUKE -0.2999
-4.6417 PULASKY -0.3010
-4.6417 PULL -0.3002
-4.6417 PULLED -0.3008
-4.6417 PULLING -0.2984
-4.3407 PULLS -0.2968
-4.6417 PUNCH -0.3001
-4.3407 PUNCHING -0.3007
-4.6417 PUNCTUATES -0.2878
-4.3407 PURCHASE -0.2947
-4.6417 PURCHASING -0.2950
-4.6417 PURE -0.3010
-4.6417 PURISTS -0.3010
-4.6417 PURSUIT -0.2953
-4.6417 PUSHES -0.3007
-4.6417 PUSHING -0.3010
-3.9428 PUT -0.2913
-4.6417 PUTATIVE -0.3010
-4.3407 PUTTING -0.2999
-4.6417 QUALIFYING -0.3010
-4.0397 QUALITY -0.2884
-4.6417 QUARTER -0.3010
-4.6417 QUEEN -0.2953
-4.6417 QUEST -0.3010
-4.0397 QUESTION -0.2952
-4.6417 QUICK -0.3010
-4.6417 QUICKLY -0.2878
-4.1646 QUIET -0.2984
-4.3407 QUIRKY -0.3009
-4.6417 QUIT -0.2878
-3.4113 QUITE -0.2752
-4.1646 R -0.2993
-4.0397 RACE -0.2797
-4.6417 RACIST -0.3010
-4.6417 RACK -0.3001
-4.3407 RADHA -0.3010
-4.6417 RADIO -0.2975
-4.6417 RAGING -0.3010
-4.6417 RAID -0.2999
-4.6417 RAILROAD -0.3010
-4.1646 RAIN -0.3006
-4.6417 RAINY -0.3010
-4.6417 RAJ -0.3010
-4.6417 RALPH -0.3010
-4.1646 RAMONES -0.3005
-4.6417 RAMOS -0.3010
-4.6417 RAN -0.3005
-4.6417 RANDOLPH -0.3010
-4.3407 RANDOM -0.3010
-4.6417 RANDY -0.3010
-4.6417 RANGE -0.2953
-4.0397 RAP -0.2937
-4.6417 RAPPERS -0.3010
-3.9428 RARE -0.3007
-4.3407 RARELY -0.3009
-4.6417 RATE -0.2970
-4.1646 RATED -0.2990
-3.5626 RATHER -0.2961
-4.0397 RATING -0.2967
-4.3407 RATINGS -0.2988
-4.6417 RAVES -0.3008
-4.6417 RAWKED -0.3004
-4.0397 RAY -0.2999
-4.6417 RAYBURN -0.3010
-4.6417 RAYMOND -0.3010
-3.9428 RE -0.2948
-4.3407 REACHED -0.2878
-4.6417 REACHES -0.3008
-3.6875 READ -0.2803
-4.6417 READING -0.3007
-4.6417 READY -0.2962
-3.3195 REAL -0.2757
-4.6417 REALISES -0.3010
-3.8636 REALISTIC -0.2920
-4.6417 REALITIES -0.2953
-4.1646 REALITY -0.2971
-3.9428 REALIZE -0.2935
-4.6417 REALIZED -0.3006
-4.6417 REALIZES -0.3008
-4.3407 REALIZING -0.2970
-3.0735 REALLY -0.2767
-4.6417 REALM -0.2953
-3.9428 REASON -0.2831
-4.6417 REASONS -0.2996
-4.6417 REAY -0.2992
-4.6417 REBECCA -0.2995
-4.3407 REBIRTH -0.2953
-4.3407 RECEIVED -0.2950
-4.3407 RECENT -0.3010
-4.1646 RECENTLY -0.3009
-4.6417 RECIPE -0.2994
-4.6417 RECOGNISE -0.2878
-4.6417 RECOGNITION -0.3007
-4.6417 RECOGNIZED -0.2992
-3.7386 RECOMMEND -0.2770
-4.6417 RECOMMENDABLE -0.3009
-4.6417 RECOMMENDATION -0.2953
-4.6417 RECOMMENDED -0.3000
-4.3407 RECOMMENDING -0.2983
-4.6417 RECONSIDERED -0.3010
-4.1646 RECORD -0.2861
-4.6417 RECORDING -0.2968
-4.6417 RECOVER -0.2878
-4.3407 RECOVERED -0.2974
-4.6417 RECYCLED -0.3009
-3.7966 RED -0.3008
-4.6417 REED -0.2984
-4.0397 REEVE -0.2966
-4.3407 REFRESHING -0.2958
-4.6417 REFUSE -0.2962
-4.6417 REFUSES -0.2962
-4.6417 REGARD -0.3010
-4.6417 REGARDED -0.2992
-4.3407 REGARDING -0.2982
-4.6417 REGULAR -0.3009
-4.6417 REHASH -0.2953
-4.6417 REHEARSING -0.2950
-4.6417 REJECTED -0.3000
-3.9428 RELATE -0.2960
-4.3407 RELATIONSHIP -0.2945
-4.3407 RELATIONSHIPS -0.2862
-4.6417 RELATIVELY -0.3009
-4.6417 RELATIVES -0.2948
-4.0397 RELEASE -0.2873
-4.3407 RELEASED -0.3003
-4.6417 RELEASES -0.2994
-4.6417 RELENTLESS -0.3010
-4.6417 RELIANCE -0.2999
-4.6417 RELIC -0.2994
-4.6417 RELIED -0.3004
-4.3407 RELIEF -0.2974
-4.3407 RELIGIOUS -0.3010
-4.6417 RELISH -0.3006
-4.6417 RELY -0.2999
-4.0397 REMAINS -0.2948
-4.6417 REMAKE -0.2953
-4.3407 REMARKABLE -0.3005
-3.5626 REMEMBER -0.2721
-4.3407 REMEMBERED -0.2976
-4.1646 REMIND -0.2998
-4.6417 REMINDED -0.3007
-4.0397 REMINDS -0.2864
-4.1646 REMINISCENT -0.2953
-4.6417 RENAISSANCE -0.3010
-4.6417 RENDITION -0.2953
-4.6417 RENO -0.3010
-4.6417 RENOWN -0.3010
-4.3407 RENT -0.2977
-4.6417 RENTAL -0.2994
-4.6417 REPEAT -0.2878
-4.6417 REPEATED -0.2999
-4.6417 REPEATING -0.2878
-4.6417 REPEATS -0.2953
-4.6417 REPERTORY -0.3010
-4.6417 REPLAY -0.2950
-4.6417 REPLIES -0.3010
-4.6417 REPRESENTATION -0.2953
-4.6417 REPRESSING -0.3008
-4.6417 REPRISE -0.3005
-4.3407 REQUIRED -0.2950
-4.6417 RESEARCH -0.2948
-4.6417 RESEMBLING -0.3010
-4.6417 RESERVATIONS -0.2948
-4.6417 RESIDENCE -0.2975
-4.6417 RESIDENT -0.3010
-4.6417 RESORT -0.2962
-4.6417 RESPECTFULLY -0.3010
-4.6417 RESPECTS -0.2970
-4.6417 RESPONSE -0.2968
-4.1646 RESPONSIBLE -0.2994
-4.6417 RESSE -0.3010
-3.7966 REST -0.2942
-4.6417 RESTART -0.2962
-4.6417 RESTRAIN -0.3007
-4.3407 RESTS -0.2963
-4.3407 RESULT -0.2968
-4.6417 RESULTED -0.2975
-4.6417 RESURRECT -0.3000
-4.6417 RETAINING -0.3010
-4.6417 RETAKES -0.3010
-4.6417 RETICENT -0.3004
-4.6417 RETIRED -0.3010
-4.6417 RETIREMENT -0.3003
-4.6417 RETREAT -0.2996
-4.6417 RETROSPECT -0.2962
-4.3407 RETURN -0.2962
-4.3407 RETURNS -0.2943
-4.6417 REVEALING -0.3010
-4.6417 REVELATIONS -0.3008
-4.6417 REVENGE -0.3000
-4.3407 REVIEW -0.2970
-4.6417 REVIEWED -0.2983
-4.3407 REVIEWERS -0.2999
-4.6417 REVIVE -0.3009
-4.6417 REVIVING -0.2878
-4.6417 REVOLVING -0.3009
-4.6417 REWARDED -0.2970
-4.6417 REYNOLDS -0.2950
-4.6417 RHYTHM -0.3009
-4.6417 RHYTHMIC -0.3010
-4.6417 RIBBONS -0.2983
-4.6417 RICCI -0.3004
-4.6417 RICH -0.2948
-4.6417 RICHARDSON -0.2986
-4.6417 RID -0.2953
-4.6417 RIDDLED -0.2995
-4.1646 RIDE -0.2946
-4.6417 RIDES -0.3010
-3.7966 RIDICULOUS -0.2838
-3.5278 RIGHT -0.2748
-3.7386 RING -0.2770
-4.6417 RINGS -0.3009
-4.6417 RINGWALD -0.2968
-4.6417 RISK -0.2975
-4.3407 RITA -0.3010
-4.0397 RITTER -0.2952
-4.1646 RIVAL -0.2966
-4.6417 RIVER -0.2968
-4.3407 RIVERSIDE -0.3010
-4.6417 ROAMING -0.2975
-4.3407 ROBERT -0.3010
-4.6417 ROBIN -0.3010
-4.6417 ROBINSON -0.2968
-3.7386 ROCK -0.2941
-4.6417 ROCKETS -0.3009
-4.6417 ROCKS -0.2948
-4.6417 ROCKSTARS -0.3010
-4.6417 ROCKY -0.3005
-4.6417 ROGER -0.3010
-4.3407 ROGERS -0.2877
-3.4656 ROLE -0.2603
-4.0397 ROLES -0.2893
-3.8636 ROLL -0.2946
-4.0397 ROMANCE -0.2966
-4.0397 ROMANTIC -0.2997
-4.6417 ROMANTICS -0.2948
-4.6417 ROMEO -0.2948
-4.6417 RONNY -0.3010
-4.6417 ROOKIE -0.3010
-4.6417 ROOTED -0.2994
-4.6417 ROOTING -0.2994
-4.6417 ROOTLESS -0.3010
-4.6417 ROPE -0.2975
-4.3407 ROSE -0.2939
-4.6417 ROSEANNE -0.3010
-4.6417 ROUGHLY -0.3010
-4.6417 ROUND -0.2994
-4.6417 ROUTE -0.2878
-4.6417 ROUTINES -0.2878
-4.6417 RUIN -0.2970
-4.6417 RULED -0.2970
-4.3407 RULES -0.2999
-4.6417 RUNG -0.2968
-4.6417 RUNNER -0.3010
-3.7386 RUNNING -0.2932
-4.3407 RUNS -0.2950
-4.3407 RUSSELL -0.2998
-4.1646 RUSSIAN -0.3009
-2.2508 S -0.2246
-4.0397 SACRIFICE -0.2898
-4.0397 SAD -0.2930
-4.6417 SADDEST -0.3010
-4.1646 SADLY -0.3009
-4.1646 SAFE -0.2887
-4.6417 SAGA -0.3010
-4.6417 SAHIB -0.3010
-3.5626 SAID -0.2694
-4.1646 SAILOR -0.2965
-4.3407 SALESMAN -0.2877
-4.3407 SAM -0.3010
-3.3407 SAME -0.2942
-4.6417 SAMUEL -0.3010
-4.6417 SAN -0.3010
-4.1646 SANDLER -0.2962
-4.6417 SANT -0.2968
-4.6417 SARCASTIC -0.2992
-4.6417 SAT -0.3009
-4.3407 SATAN -0.2999
-4.6417 SATANIC -0.3010
-4.6417 SATIN -0.2983
-4.3407 SATIRE -0.2953
-4.6417 SATIRIZING -0.3010
-4.6417 SATISFY -0.3009
-4.6417 SATISFYING -0.3010
-4.6417 SAVAGE -0.2878
-4.6417 SAVED -0.3005
-3.6875 SAW -0.2757
-3.3407 SAY -0.2701
-3.8636 SAYING -0.2818
-4.3407 SAYS -0.2945
-4.3407 SCALE -0.2904
-4.6417 SCARES -0.3007
-4.6417 SCARIEST -0.2948
-4.3407 SCARY -0.2985
-4.6417 SCENARIO -0.3008
-4.1646 SCENARIOS -0.2936
-3.4376 SCENE -0.2863
-4.6417 SCENERY -0.2970
-3.3865 SCENES -0.2739
-4.6417 SCENES -0.3000
-4.3407 SCHEDULE -0.2943
-4.3407 SCHERLER -0.3010
-4.6417 SCHLOCKY -0.3009
-3.6875 SCHOOL -0.2806
-4.6417 SCHOOLS -0.2975
-4.3407 SCI -0.3010
-4.6417 SCOOP -0.3010
-4.6417 SCOPE -0.3010
-4.6417 SCORCESE -0.3009
-3.9428 SCORE -0.2863
-4.3407 SCORSESE -0.2945
-4.1646 SCOTT -0.2903
-4.6417 SCRATCHING -0.2995
-4.3407 SCREAM -0.2944
-3.7966 SCREEN -0.2915
-4.3407 SCREENPLAY -0.3003
-4.6417 SCREWING -0.3005
-3.6417 SCRIPT -0.2913
-4.6417 SCRUTINY -0.3002
-4.6417 SEA -0.3010
-4.6417 SEAN -0.3010
-4.6417 SEARCHING -0.2994
-3.7966 SEASON -0.2988
-4.3407 SEAT -0.2947
-3.8636 SECOND -0.2985
-4.6417 SECONDARY -0.3010
-3.8636 SECRET -0.2883
-4.3407 SECRETLY -0.3010
-3.0619 SEE -0.2569
-4.6417 SEED -0.2953
-3.7966 SEEING -0.2798
-4.6417 SEEKS -0.2962
-3.8636 SEEM -0.2960
-4.1646 SEEMED -0.2958
-4.1646 SEEMINGLY -0.3005
-3.4376 SEEMS -0.2952
-3.5278 SEEN -0.2764
-4.3407 SEGMENTS -0.2999
-4.6417 SELDOM -0.3008
-3.7966 SELF -0.2968
-4.6417 SELL -0.3000
-4.3407 SELLERS -0.3002
-4.6417 SENDING -0.3007
-4.6417 SENDS -0.3008
-3.8636 SENSE -0.2846
-4.6417 SENSITIVE -0.3010
-4.6417 SENSITIVELY -0.3010
-3.9428 SENT -0.2925
-4.6417 SENTENCED -0.2962
-4.3407 SEPARATE -0.2994
-4.6417 SEPARATED -0.3003
-4.6417 SEPARATING -0.2983
-4.6417 SEQUELS -0.2950
-4.6417 SEQUENCE -0.3001
-3.8636 SEQUENCES -0.2888
-4.6417 SERGEI -0.3010
-4.6417 SERGO -0.3010
-4.3407 SERIAL -0.3010
-3.4656 SERIES -0.2734
-3.9428 SERIOUS -0.2958
-3.6417 SERIOUSLY -0.2850
-4.3407 SERVED -0.2841
-4.6417 SERVICEABLE -0.3009
-4.6417 SESILIA -0.3010
-3.6417 SET -0.2904
-4.0397 SETS -0.2942
-4.3407 SETTING -0.2946
-4.6417 SETTLES -0.3009
-4.6417 SET -0.2994
-4.6417 SEVEN -0.3000
-4.6417 SEVENTIES -0.3008
-3.7966 SEVERAL -0.3005
-4.6417 SEVERE -0.3010
-4.3407 SEX -0.2990
-4.0397 SEXUAL -0.3005
-4.6417 SEXUALLY -0.3010
-4.1646 SEXY -0.3010
-4.6417 SHADES -0.2953
-4.6417 SHADOW -0.2953
-4.3407 SHADOWED -0.2992
-4.6417 SHADOWS -0.2948
-4.6417 SHAKES -0.2994
-4.0397 SHAKESPEARE -0.2893
-4.0397 SHALL -0.2958
-4.3407 SHALLOW -0.2867
-4.1646 SHAME -0.2938
-4.6417 SHAMELESSLY -0.3010
-4.0397 SHANGHAI -0.2966
-4.6417 SHATTERING -0.3010
-4.6417 SHAW -0.3010
-2.8935 SHE -0.2882
-4.6417 SHEDS -0.3009
-4.1646 SHEPPARD -0.2954
-4.6417 SHINE -0.3008
-4.1646 SHIRLEY -0.2989
-4.6417 SHOCK -0.2953
-4.6417 SHOCKINGLY -0.3010
-4.6417 SHOE -0.3010
-4.1646 SHOOTING -0.2949
-4.6417 SHOOTS -0.3010
-4.6417 SHORE -0.3010
-4.1646 SHORT -0.2939
-4.6417 SHORTENING -0.2878
-4.1646 SHORTLY -0.3008
-4.6417 SHORTS -0.3010
-3.7386 SHOT -0.2667
-3.7386 SHOTS -0.2894
-3.4956 SHOULD -0.2961
-4.6417 SHOULDERS -0.2953
-4.3407 SHOULDN -0.3000
-3.0977 SHOW -0.2532
-4.6417 SHOWDOWN -0.3009
-4.1646 SHOWED -0.2810
-4.3407 SHOWING -0.2980
-4.6417 SHOWN -0.3009
-3.4656 SHOWS -0.2740
-4.6417 SHRINK -0.2990
-4.6417 SHRUG -0.2970
-4.3407 SHUTTLE -0.3010
-4.1646 SICK -0.2840
-3.9428 SIDE -0.2897
-4.1646 SIDNEY -0.3010
-4.6417 SIGHT -0.2878
-4.6417 SIGNIFICANCE -0.3005
-4.6417 SIGNIFICANT -0.2953
-4.6417 SIKES -0.2982
-4.6417 SILENCE -0.2948
-3.9428 SILENT -0.3006
-4.1646 SILLY -0.2993
-3.8636 SIMILAR -0.2896
-4.6417 SIMON -0.3010
-3.9428 SIMPLE -0.2925
-4.6417 SIMPLIFIED -0.2962
-4.6417 SIMPLISTIC -0.2948
-3.9428 SIMPLY -0.2947
-3.9428 SINATRA -0.2965
-3.4656 SINCE -0.2914
-4.6417 SINCERELY -0.3010
-4.6417 SING -0.3009
-4.6417 SINGER -0.2975
-4.6417 SINGIN -0.2975
-4.0397 SINGING -0.2945
-4.3407 SINGLE -0.3004
-4.6417 SINISTER -0.3010
-4.0397 SIR -0.3010
-4.3407 SISSY -0.2966
-4.6417 SISTER -0.3008
-4.3407 SISTERS -0.2998
-4.6417 SIT -0.3004
-4.0397 SITCOM -0.2838
-4.6417 SITCOMS -0.3001
-4.6417 SITTING -0.3010
-4.6417 SITUATED -0.2975
-4.6417 SITUATION -0.2970
-4.0397 SITUATIONS -0.2811
-4.1646 SIX -0.3010
-4.6417 SIXTEEN -0.2996
-4.6417 SIZED -0.3010
-4.6417 SKELETON -0.3009
-4.6417 SKILLS -0.2953
-4.3407 SKY -0.3009
-4.6417 SKYE -0.3010
-4.6417 SLAPPED -0.3002
-4.0397 SLASHER -0.2987
-4.6417 SLAY -0.3009
-4.6417 SLAYED -0.2950
-4.6417 SLAYER -0.2948
-4.3407 SLAYING -0.3004
-4.6417 SLEAZIEST -0.3010
-4.3407 SLEEPING -0.2947
-4.1646 SLIGHTLY -0.2998
-4.6417 SLIPPED -0.3004
-4.6417 SLIPPER -0.3009
-4.1646 SLOAN -0.2925
-4.6417 SLOANE -0.2948
-4.3407 SLOW -0.2947
-4.6417 SLOWLY -0.3010
-4.6417 SLYLY -0.3010
-3.8636 SMALL -0.2996
-4.6417 SMALLER -0.3010
-4.6417 SMART -0.3009
-4.6417 SMARTEST -0.3010
-4.6417 SMELL -0.3004
-4.1646 SMILE -0.2981
-4.3407 SMILING -0.2947
-4.0397 SMITH -0.2905
-4.6417 SMOKE -0.3000
-4.6417 SMOOTH -0.3010
-4.6417 SMOOTHLY -0.2948
-4.6417 SNAPPED -0.3005
-4.6417 SNAPPING -0.2953
-4.6417 SNAPSHOT -0.2953
-4.6417 SNAPSHOTS -0.2953
-4.3407 SNOW -0.3010
-2.8356 SO -0.2596
-4.6417 SOAVI -0.2986
-4.3407 SOCCER -0.3009
-4.3407 SOCIETY -0.2963
-4.6417 SOCIOPATH -0.2999
-4.6417 SOFIKO -0.3010
-4.3407 SOFT -0.3007
-4.6417 SOLDIERS -0.3010
-3.0185 SOME -0.2893
-4.6417 SOMEDAY -0.3010
-4.3407 SOMEHOW -0.3009
-3.7966 SOMEONE -0.2921
-3.3407 SOMETHING -0.2661
-3.7966 SOMETIMES -0.2947
-3.9428 SOMEWHAT -0.3004
-3.9428 SON -0.2966
-4.6417 SONG -0.3010
-3.8636 SONGS -0.2824
-4.6417 SOON -0.3010
-4.6417 SOPHY -0.3010
-4.6417 SORE -0.2982
-4.6417 SORROW -0.2953
-4.6417 SORRY -0.2994
-4.0397 SORT -0.2953
-4.1646 SORTS -0.2952
-4.3407 SOUL -0.2982
-3.8636 SOUND -0.2962
-4.6417 SOUNDS -0.3002
-4.6417 SOUNDTRACK -0.3010
-4.6417 SOUR -0.3010
-4.6417 SOURCE -0.3010
-4.0397 SOX -0.2942
-3.8636 SPACE -0.2932
-4.6417 SPACED -0.3004
-4.6417 SPADES -0.3001
-3.8636 SPEAK -0.2822
-4.1646 SPEAKS -0.2819
-4.1646 SPECIAL -0.3010
-4.6417 SPECIALTY -0.2968
-4.6417 SPECIFIC -0.3010
-4.6417 SPECTACLE -0.2953
-4.3407 SPECTACULAR -0.2998
-4.6417 SPECULATION -0.2982
-4.6417 SPEECH -0.2948
-4.6417 SPEECHES -0.3004
-4.6417 SPELL -0.3010
-4.3407 SPENCER -0.2986
-4.6417 SPEND -0.3002
-4.3407 SPENT -0.2948
-4.1646 SPINE -0.3001
-4.6417 SPINNING -0.3010
-4.6417 SPIRIT -0.2975
-4.6417 SPITE -0.2953
-4.6417 SPLIT -0.3010
-4.3407 SPOCK -0.2948
-4.6417 SPOIL -0.2983
-4.6417 SPOILING -0.2970
-4.6417 SPONTANEOUS -0.2992
-4.3407 SPOOFING -0.2877
-4.0397 SPORTS -0.2947
-4.6417 SPOT -0.2953
-4.6417 SPOTS -0.2950
-4.6417 SPOUSE -0.2986
-4.6417 SPUR -0.3007
-4.6417 ST -0.3010
-4.6417 STAG -0.3008
-4.1646 STAGE -0.3010
-4.6417 STAGES -0.2982
-4.6417 STAGING -0.3010
-4.1646 STALAG -0.3010
-4.6417 STAMMERING -0.3010
-4.6417 STAND -0.3004
-4.1646 STANDARD -0.3010
-4.6417 STANDARDS -0.2953
-4.6417 STANDING -0.3010
-4.3407 STANDS -0.2974
-4.6417 STANWYCK -0.3010
-3.9428 STAR -0.2973
-4.6417 STARK -0.3010
-4.6417 STARRED -0.2975
-4.6417 STARRING -0.3010
-3.8636 STARS -0.2916
-4.3407 START -0.2932
-4.3407 STARTED -0.2962
-4.3407 STARTING -0.3001
-3.8636 STARTS -0.2959
-4.3407 STATEMENT -0.2953
-4.6417 STATEMENTS -0.2975
-4.6417 STATING -0.3009
-4.3407 STATION -0.2973
-4.6417 STAVROS -0.3010
-4.0397 STAY -0.2910
-4.6417 STEAL -0.2950
-4.6417 STEELE -0.3010
-4.6417 STEP -0.3010
-4.6417 STEPHENSON -0.2948
-4.3407 STEPSISTERS -0.2979
-4.6417 STEREOTYPICAL -0.3010
-4.3407 STEVEN -0.3010
-3.3630 STILL -0.2795
-4.6417 STILTED -0.2950
-4.6417 STOIC -0.2992
-4.6417 STOMACH -0.3003
-4.6417 STONER -0.3010
-4.3407 STOOD -0.3004
-4.6417 STOOPID -0.3008
-4.0397 STOP -0.2948
-4.6417 STORE -0.3005
-3.9428 STORIES -0.2901
-2.9515 STORY -0.2417
-4.6417 STRAIGHT -0.2948
-4.6417 STRAIGHTFORWARD -0.2994
-4.6417 STRANDED -0.2975
-4.6417 STRANGE -0.2948
-4.1646 STRANGELY -0.3010
-4.6417 STRAY -0.3007
-4.6417 STREEP -0.2968
-4.1646 STREET -0.2997
-4.3407 STREETS -0.3000
-4.6417 STRESS -0.2948
-4.6417 STRETCHES -0.2953
-4.6417 STRIKES -0.3009
-4.1646 STRONG -0.2973
-4.1646 STRONGLY -0.3010
-4.1646 STRUGGLE -0.2898
-4.6417 STRUGGLING -0.3010
-4.6417 STRUNG -0.3010
-4.6417 STUCK -0.3004
-4.3407 STUDENT -0.2953
-4.0397 STUDENTS -0.2876
-4.6417 STUDIED -0.3007
-4.1646 STUDIO -0.2961
-4.6417 STUDIOS -0.2992
-4.6417 STUDY -0.3010
-4.3407 STUDYING -0.3000
-3.7966 STUFF -0.2975
-4.0397 STUNNING -0.3008
-4.6417 STUNNINGLY -0.3010
-4.6417 STUNT -0.3008
-4.6417 STUPID -0.3008
-4.6417 STUPIDLY -0.3010
-3.9428 STYLE -0.2787
-4.3407 STYLED -0.2997
-4.6417 STYLES -0.2953
-4.3407 STYLISED -0.3008
-4.3407 STYLISH -0.2948
-4.6417 STYLISTIC -0.3010
-4.6417 STYLIZATIONS -0.2950
-4.6417 SUBCONSCIOUSLY -0.3010
-4.3407 SUBLIME -0.3009
-4.6417 SUBPLOT -0.2968
-4.6417 SUBSEQUENT -0.3010
-4.6417 SUBTITLED -0.3010
-4.6417 SUBTITLES -0.3000
-4.6417 SUBTLE -0.3009
-4.6417 SUBTRACT -0.3010
-4.3407 SUBURBAN -0.3010
-4.6417 SUCCEEDING -0.2962
-4.0397 SUCCESS -0.2984
-4.3407 SUCCESSFUL -0.2991
-4.6417 SUCCESSFULLY -0.2962
-4.6417 SUCCUMBED -0.2962
-3.5278 SUCH -0.2922
-4.6417 SUCK -0.3010
-4.3407 SUDDENLY -0.3007
-4.1646 SUGGEST -0.2984
-4.3407 SUICIDE -0.2898
-4.1646 SUIT -0.3001
-4.6417 SUITABLE -0.2994
-4.6417 SUITS -0.2999
-4.6417 SULKY -0.2948
-4.6417 SUM -0.2953
-4.6417 SUMMARY -0.3010
-4.6417 SUMMERTIME -0.3004
-4.6417 SUMMING -0.3005
-4.3407 SUMPTUOUS -0.3010
-4.3407 SUNG -0.3002
-4.6417 SUNRISE -0.2968
-3.8636 SUPERB -0.2926
-4.3407 SUPERBLY -0.3009
-4.6417 SUPERIOR -0.2962
-4.6417 SUPERSTAR -0.3010
-4.6417 SUPERSTARDOM -0.2948
-4.6417 SUPPORT -0.3009
-4.0397 SUPPORTING -0.3007
-4.3407 SUPPOSE -0.3009
-3.8636 SUPPOSED -0.2962
-4.1646 SUPPOSEDLY -0.2948
-4.6417 SUPREMELY -0.3010
-3.8636 SURE -0.2759
-4.3407 SURELY -0.2934
-4.3407 SURFACE -0.2996
-4.6417 SURPASSES -0.3007
-4.3407 SURPRISE -0.2970
-4.3407 SURPRISED -0.2996
-4.6417 SURPRISES -0.3009
-4.6417 SURPRISINGLY -0.3010
-4.6417 SURREAL -0.2983
-4.6417 SURROUNDED -0.2983
-4.6417 SURROUNDING -0.2970
-4.6417 SURROUNDINGS -0.2994
-4.6417 SURVIVING -0.3010
-4.6417 SUSPECT -0.2984
-4.3407 SUSPENSE -0.2929
-4.6417 SUSPENSEFUL -0.3010
-4.6417 SUSSANAH -0.3010
-3.9428 SUZANNE -0.2945
-4.6417 SWEARS -0.2962
-4.6417 SWEATER -0.2994
-4.6417 SWEDEN -0.2975
-4.6417 SWEEPS -0.3000
-4.0397 SWEET -0.2939
-4.6417 SWEETHEART -0.2878
-4.6417 SWEETLY -0.3010
-4.6417 SWIFT -0.3010
-4.3407 SWIFTLY -0.3009
-4.6417 SWING -0.3005
-4.6417 SWORD -0.2948
-3.9428 SWORDPLAY -0.2944
-4.6417 SWORDSMAN -0.3010
-4.6417 SWORDSMANS -0.3010
-4.3407 SYMBOLISM -0.2942
-4.3407 SYMPATHETIC -0.3006
-4.6417 SYMPATHIZE -0.2995
-4.1646 SYSTEM -0.2984
-4.6417 SZWARC -0.3006
-2.6247 T -0.2635
-4.6417 TABOO -0.3010
-4.6417 TACKY -0.2984
-4.6417 TAFT -0.3010
-4.6417 TAIWANESE -0.3010
-4.6417 TAKAISHVILI -0.3010
-3.5626 TAKE -0.2820
-4.1646 TAKEN -0.2992
-3.6875 TAKES -0.2845
-3.8636 TAKING -0.2854
-4.6417 TAKITA -0.3010
-4.3407 TALE -0.2994
-4.1646 TALENT -0.2900
-3.7966 TALENTED -0.2945
-4.6417 TALES -0.2878
-4.3407 TALESPIN -0.3002
-4.3407 TALK -0.2969
-4.1646 TALKING -0.2961
-4.6417 TALKS -0.3000
-4.6417 TARGET -0.2950
-4.3407 TARGETED -0.3002
-4.3407 TASK -0.2953
-4.6417 TASTELESS -0.3010
-4.6417 TAUT -0.3010
-4.6417 TEACHES -0.2950
-4.0397 TEAM -0.2941
-4.6417 TEAMMATE -0.3010
-4.6417 TEAMS -0.2994
-4.6417 TEAMWORK -0.2948
-4.6417 TEAR -0.2970
-4.6417 TEARS -0.2962
-4.3407 TEDIOUS -0.3002
-4.6417 TEDIUM -0.2953
-4.0397 TEEN -0.3007
-4.3407 TEENAGE -0.3010
-4.6417 TEENAGER -0.2975
-4.6417 TEENAGERS -0.2992
-4.6417 TEENS -0.3005
-4.6417 TELESCOPE -0.2996
-4.1646 TELEVISION -0.3005
-3.9428 TELL -0.2788
-3.9428 TELLING -0.3000
-3.8636 TELLS -0.2858
-4.6417 TEMPLE -0.2986
-4.3407 TEMPO -0.2938
-3.7966 TEN -0.2989
-4.1646 TENANT -0.2942
-4.6417 TEND -0.2962
-4.6417 TENDED -0.2962
-4.6417 TENDENCY -0.2962
-4.6417 TENSE -0.2962
-3.7966 TENSION -0.2878
-4.6417 TEPID -0.2994
-4.6417 TERM -0.2999
-4.6417 TERMED -0.3010
-4.6417 TERMINALLY -0.3010
-4.1646 TERRIBLE -0.3009
-4.6417 TERRIFIC -0.2994
-4.6417 TERRIFYING -0.2998
-4.6417 TESTAMENTS -0.3003
-4.6417 TESTING -0.3010
-4.6417 TEXTURED -0.2992
-4.6417 TH -0.3010
-3.0619 THAN -0.2708
-4.6417 THANK -0.3010
-4.6417 THANKFULLY -0.3010
-4.3407 THANKS -0.2962
-2.2234 THAT -0.2041
-4.6417 THAW -0.2992
-1.5215 THE -0.2504
-3.8636 THEATER -0.2841
-4.6417 THEATERS -0.3010
-4.6417 THEATRICAL -0.3010
-4.6417 THEE -0.3010
-2.9093 THEIR -0.2953
-3.0854 THEM -0.2669
-3.8636 THEME -0.2964
-4.6417 THEMED -0.3010
-4.6417 THEMES -0.2962
-3.7966 THEMSELVES -0.2773
-3.3195 THEN -0.2580
-2.8564 THERE -0.2553
-4.3407 THEREFORE -0.3006
-3.2615 THESE -0.2983
-2.8424 THEY -0.2929
-4.3407 THICKENS -0.3004
-4.6417 THIN -0.3010
-3.3865 THING -0.2728
-3.7966 THINGS -0.2990
-3.1646 THINK -0.2616
-4.1646 THINKING -0.2959
-4.1646 THIRD -0.3009
-4.3407 THIRST -0.2952
-4.3407 THIRTY -0.3006
-2.2056 THIS -0.2266
-4.6417 THOMAS -0.2948
-4.6417 THOMPSON -0.2878
-4.6417 THOROUGH -0.3010
-3.2800 THOSE -0.2896
-3.5626 THOUGH -0.2745
-3.6875 THOUGHT -0.2947
-4.6417 THOUGHTFUL -0.3010
-4.3407 THREAT -0.2936
-4.3407 THREATENED -0.2932
-3.4656 THREE -0.3003
-4.6417 THRILLED -0.2962
-3.8636 THRILLER -0.2934
-4.6417 THRILLERS -0.2996
-4.3407 THRILLING -0.3010
-3.4376 THROUGH -0.2718
-3.8636 THROUGHOUT -0.2856
-4.3407 THROW -0.2975
-4.6417 THROWING -0.3005
-4.1646 THROWN -0.2963
-4.6417 THUMBING -0.3001
-4.3407 THUMBS -0.3005
-4.3407 THUS -0.3005
-4.6417 TICKETS -0.3006
-4.3407 TIED -0.2969
-4.3407 TIGHTLY -0.3010
-4.6417 TILL -0.3010
-2.9257 TIME -0.2476
-3.6003 TIMES -0.2664
-4.6417 TIMING -0.3010
-4.1646 TIMOTHY -0.3010
-4.3407 TINGLER -0.2982
-4.6417 TIRE -0.2953
-3.8636 TITLE -0.2914
-4.6417 TITLES -0.3007
-1.9542 TO -0.2356
-4.6417 TOBY -0.3010
-3.6875 TODAY -0.2845
-3.8636 TOGETHER -0.2901
-4.6417 TOILET -0.2948
-4.6417 TOKYO -0.3010
-4.0397 TOLD -0.2993
-3.6417 TOM -0.2864
-4.6417 TOMMY -0.3010
-4.0397 TONE -0.2945
-4.6417 TONGUE -0.2975
-4.6417 TONGUES -0.3009
-4.3407 TONI -0.3010
-4.6417 TONY -0.3010
-3.0854 TOO -0.2741
-3.7966 TOOK -0.2977
-4.6417 TOOLS -0.2995
-3.7386 TOP -0.2952
-4.6417 TOPICS -0.2984
-4.1646 TORN -0.2946
-4.6417 TOSS -0.3005
-4.0397 TOTAL -0.3007
-3.8636 TOTALLY -0.3007
-4.6417 TOUCH -0.3009
-4.6417 TOUCHES -0.3007
-4.3407 TOUCHING -0.3008
-4.1646 TOUGH -0.2966
-4.6417 TOURIST -0.2995
-4.6417 TOW -0.2992
-4.3407 TOWARD -0.2878
-3.7966 TOWN -0.2891
-4.6417 TRACE -0.2878
-4.3407 TRACK -0.2953
-4.6417 TRADITIONS -0.3009
-4.6417 TRAGEDY -0.3010
-4.3407 TRAGIC -0.3009
-4.1646 TRAIN -0.3001
-4.6417 TRAINED -0.2948
-4.6417 TRAIT -0.2992
-4.6417 TRANS -0.2994
-4.6417 TRANSCEND -0.2878
-4.6417 TRANSFORMS -0.3008
-4.6417 TRANSGRESSIONS -0.2999
-4.6417 TRANSLATION -0.2948
-4.3407 TRANSVESTITISM -0.2944
-4.3407 TRAP -0.2834
-4.6417 TRAPPED -0.2948
-4.6417 TRAUMA -0.2953
-4.6417 TRAUMATIZED -0.3010
-4.6417 TRAVEL -0.3005
-4.6417 TRAVELED -0.2975
-4.6417 TRAVELER -0.2948
-4.6417 TRAVELING -0.3009
-4.1646 TRAVIS -0.2990
-4.6417 TREACHEROUS -0.3010
-4.6417 TREASURE -0.3001
-4.3407 TREAT -0.2984
-4.3407 TREATED -0.2992
-4.6417 TREATING -0.3009
-4.3407 TREATS -0.2878
-4.6417 TREK -0.3009
-4.3407 TRELKOVSKY -0.3010
-4.6417 TREMAINE -0.2962
-4.6417 TREMENDOUS -0.3010
-4.6417 TRIAD -0.3010
-4.6417 TRIADS -0.2948
-4.6417 TRIANGLE -0.3001
-4.6417 TRIBUTE -0.2962
-4.3407 TRICKS -0.2976
-4.1646 TRIED -0.2898
-3.9428 TRIES -0.2962
-4.3407 TRIFIRI -0.3008
-4.6417 TRIFLE -0.3010
-4.3407 TRIP -0.2959
-4.6417 TROJAN -0.3009
-4.3407 TROUBLE -0.3001
-4.6417 TROUBLED -0.3010
-4.6417 TRUCK -0.3010
-3.4656 TRUE -0.2848
-3.7966 TRULY -0.2945
-4.6417 TRUST -0.2994
-4.6417 TRUSTS -0.2975
-4.6417 TRUTH -0.2878
-4.6417 TRUTHS -0.2975
-3.6417 TRY -0.2898
-4.1646 TRYING -0.2962
-4.6417 TSUBAKI -0.3005
-4.6417 TUBE -0.3010
-4.6417 TUCCI -0.2962
-4.6417 TUESDAY -0.3010
-4.6417 TUMULTUOUS -0.3010
-4.6417 TUNES -0.2999
-4.1646 TUNNEL -0.2993
-4.6417 TUNNELS -0.3010
-4.3407 TURKEY -0.3004
-4.6417 TURKISH -0.3010
-4.6417 TURMOIL -0.3010
-4.1646 TURN -0.2995
-4.6417 TURNING -0.3005
-3.7386 TURNS -0.2989
-3.6003 TV -0.2920
-4.6417 TWELVE -0.3008
-4.1646 TWENTY -0.3002
-4.3407 TWICE -0.2990
-4.3407 TWIST -0.2995
-4.1646 TWISTS -0.2936
-3.1646 TWO -0.2680
-4.3407 TYPE -0.2947
-3.7966 TYPICAL -0.2915
-4.6417 TYPICALLY -0.3008
-4.6417 TYRANT -0.3010
-4.6417 UC -0.2878
-4.0397 ULTIMATE -0.3007
-4.6417 ULTIMATELY -0.3007
-4.3407 ULTRA -0.3010
-4.6417 UNAPPEALING -0.2948
-4.6417 UNCERTAINTY -0.3008
-4.3407 UNCLE -0.2992
-4.6417 UNCOMFORTABLE -0.3009
-3.9428 UNDER -0.2815
-4.6417 UNDERACHIEVING -0.3010
-4.6417 UNDERCOVER -0.2962
-4.6417 UNDERHAND -0.3010
-4.6417 UNDERLYING -0.3005
-4.6417 UNDERRATED -0.3008
-3.8636 UNDERSTAND -0.2976
-4.6417 UNDERSTANDS -0.3010
-4.6417 UNDERSTATED -0.3010
-4.3407 UNDERWATER -0.3010
-4.6417 UNDERWHELMED -0.3002
-4.3407 UNDOUBTEDLY -0.3001
-4.6417 UNEVEN -0.2975
-4.6417 UNEXPECTED -0.3010
-4.6417 UNEXPECTEDLY -0.3010
-4.6417 UNFAIR -0.2999
-4.6417 UNFAIRLY -0.3004
-4.6417 UNFAITHFUL -0.3010
-4.6417 UNFOLDING -0.3005
-4.6417 UNFOLDS -0.2975
-4.6417 UNFORGETTABLE -0.2975
-4.1646 UNFORTUNATELY -0.2949
-4.6417 UNHOLY -0.3008
-4.6417 UNINSPIRED -0.2975
-4.3407 UNINTENTIONALLY -0.3009
-4.6417 UNIONS -0.3010
-4.1646 UNIQUE -0.2952
-4.6417 UNIT -0.3001
-4.6417 UNIVERSE -0.3004
-4.1646 UNKNOWN -0.3000
-4.3407 UNLESS -0.3000
-4.6417 UNLIKABLE -0.2948
-4.0397 UNLIKE -0.2837
-4.3407 UNNECESSARY -0.2994
-4.6417 UNNERVING -0.3010
-4.6417 UNOFFICIAL -0.3009
-4.6417 UNREAL -0.3010
-4.6417 UNSETTLING -0.3008
-4.6417 UNSTABLE -0.3010
-4.6417 UNSURPASSED -0.3000
-4.6417 UNTAMED -0.3010
-4.1646 UNTIL -0.2994
-4.6417 UNUSUAL -0.2975
-4.6417 UNWILLINGNESS -0.2953
-2.9175 UP -0.2465
-4.6417 UPDATE -0.2953
-3.9428 UPON -0.2928
-4.3407 UPS -0.2945
-4.6417 UPSET -0.3008
-4.3407 URBAN -0.3010
-4.6417 URBANE -0.3010
-4.6417 URDHU -0.2968
-4.6417 URGENCY -0.3005
-3.3865 US -0.2679
-4.6417 USA -0.2986
-4.6417 USAF -0.3010
-3.9428 USED -0.2929
-4.6417 USELESS -0.3010
-4.6417 USER -0.2984
-4.3407 USES -0.3010
-4.3407 USING -0.2815
-4.1646 USUAL -0.2970
-4.6417 USUALLY -0.3010
-4.3407 VACATION -0.3008
-4.6417 VACHTANGI -0.3010
-4.6417 VAL -0.3010
-3.5626 VALENTINE -0.2808
-4.6417 VALID -0.3010
-4.6417 VALUE -0.2953
-3.8636 VAMPIRE -0.2940
-4.6417 VAMPIRISM -0.3009
-4.3407 VAN -0.3010
-4.6417 VANCE -0.3010
-4.6417 VAPORIZES -0.3010
-4.6417 VARIATIONS -0.2999
-4.6417 VARIETY -0.2953
-4.3407 VARIOUS -0.3010
-4.6417 VARYING -0.3010
-4.6417 VASSILIS -0.3010
-4.6417 VAULTED -0.3008
-4.3407 VAULTING -0.3009
-3.6003 VE -0.2999
-4.3407 VEHICLE -0.2958
-4.6417 VEIL -0.2953
-4.6417 VENEZUELA -0.3010
-4.6417 VERBAL -0.3010
-4.6417 VERGE -0.2953
-4.6417 VERIKOAN -0.3010
-4.6417 VERSED -0.2975
-3.7966 VERSION -0.2787
-4.1646 VERSIONS -0.2953
-2.8493 VERY -0.2964
-4.3407 VIA -0.2878
-4.6417 VIBRATORS -0.3001
-4.6417 VICISSITUDES -0.3005
-4.6417 VICTIM -0.3009
-4.6417 VICTORY -0.2984
-4.1646 VIDEO -0.3010
-4.6417 VIE -0.2970
-4.3407 VIENNA -0.2970
-4.6417 VIES -0.2994
-4.6417 VIETNAM -0.2968
-3.7386 VIEW -0.2972
-4.6417 VIEWED -0.2992
-3.6417 VIEWER -0.2848
-4.0397 VIEWERS -0.2977
-4.1646 VIEWING -0.2968
-4.6417 VIEWINGS -0.2953
-4.6417 VIEWS -0.2982
-4.6417 VILLA -0.3010
-4.0397 VILLAIN -0.2881
-4.6417 VILLAINS -0.3010
-4.6417 VINCENTE -0.3010
-4.6417 VINGANçA -0.3010
-3.8636 VIOLENCE -0.2885
-4.6417 VIOLENT -0.3010
-4.6417 VIRILE -0.3010
-4.6417 VISION -0.3010
-4.6417 VISIONARY -0.2994
-4.3407 VISIONS -0.3009
-4.6417 VISIT -0.3010
-4.6417 VISUALLY -0.3009
-4.3407 VISUALS -0.2938
-4.6417 VITAL -0.3010
-4.6417 VOCAL -0.3010
-4.1646 VOICE -0.2968
-4.6417 VOIGHT -0.3006
-4.6417 VOLUME -0.2982
-4.6417 VOLUNTEER -0.3009
-4.6417 VOLUNTEERING -0.3001
-4.3407 VON -0.3010
-4.6417 VOTE -0.2968
-4.6417 VOYAGE -0.3010
-4.3407 VS -0.3008
-4.6417 VU -0.2948
-4.6417 VULNERABILITY -0.2948
-4.6417 VULNERABLE -0.3005
-4.3407 WAITING -0.2988
-4.6417 WAKE -0.2953
-4.0397 WALKEN -0.2855
-4.3407 WALKING -0.3003
-4.6417 WALSH -0.2996
-4.6417 WANG -0.3010
-3.6875 WANT -0.2950
-3.7386 WANTED -0.2785
-4.6417 WANTING -0.2962
-4.3407 WANTS -0.2962
-3.7966 WAR -0.2901
-4.6417 WARDEN -0.3003
-4.3407 WARDENS -0.2939
-4.6417 WARMING -0.3010
-4.6417 WARN -0.3010
-4.3407 WARNING -0.2945
-4.6417 WARRIORS -0.3003
-4.6417 WARS -0.3010
-2.3342 WAS -0.2261
-4.6417 WASH -0.3004
-4.3407 WASHINGTON -0.2968
-4.0397 WASN -0.3000
-4.6417 WASTE -0.2878
-3.2993 WATCH -0.2632
-4.6417 WATCHABLE -0.2948
-3.7966 WATCHED -0.2831
-4.3407 WATCHES -0.3008
-3.4656 WATCHING -0.2689
-4.6417 WATCHWORD -0.2994
-4.6417 WATER -0.3004
-4.3407 WATERS -0.2951
-3.0977 WAY -0.2481
-3.9428 WAYNE -0.2895
-4.6417 WAYS -0.2970
-3.0289 WE -0.2934
-4.6417 WEAK -0.3010
-4.6417 WEAKNESS -0.2994
-4.6417 WEAKNESSES -0.2948
-4.6417 WEALTHY -0.3010
-4.3407 WEBER -0.3003
-4.6417 WEEK -0.2992
-4.6417 WEEKS -0.3009
-3.4656 WEIRD -0.2985
-4.6417 WEIRDLY -0.3010
-4.6417 WEIRDNESS -0.3010
-4.6417 WELCOMED -0.2970
-4.6417 WELD -0.3009
-2.9014 WELL -0.2653
-3.3195 WELLES -0.2805
-4.3407 WELLS -0.3004
-3.7386 WENT -0.2921
-4.6417 WERCHING -0.2984
-3.1103 WERE -0.2841
-4.6417 WEREN -0.3000
-4.3407 WESTERN -0.2999
-4.6417 WESTPOINT -0.2948
-4.6417 WET -0.2992
-4.6417 WHA -0.2999
-2.9696 WHAT -0.2538
-4.1646 WHATEVER -0.2844
-4.6417 WHATSOEVER -0.3010
-2.9257 WHEN -0.2650
-3.4376 WHERE -0.2701
-3.9428 WHETHER -0.2949
-3.0083 WHICH -0.2575
-3.2104 WHILE -0.2783
-4.6417 WHILST -0.3004
-4.6417 WHIMSICAL -0.2948
-4.6417 WHISPER -0.3004
-4.1646 WHITE -0.2946
-2.7496 WHO -0.2771
-4.6417 WHOA -0.3009
-4.6417 WHOEVER -0.3009
-3.4113 WHOLE -0.2947
-4.3407 WHOM -0.3007
-4.0397 WHOSE -0.3004
-3.4113 WHY -0.2701
-4.6417 WICKED -0.2953
-4.6417 WICKEDLY -0.3009
-4.6417 WIDE -0.3009
-3.7386 WIFE -0.2903
-4.1646 WILD -0.2950
-4.6417 WILDERNESS -0.3010
-4.6417 WILDLIFE -0.3009
-3.2268 WILL -0.2947
-3.8636 WILLIAM -0.3009
-3.9428 WILLIAMS -0.2946
-4.6417 WILLS -0.3010
-4.1646 WIN -0.2960
-4.6417 WINCHESTER -0.2970
-4.6417 WINCING -0.3001
-4.6417 WIND -0.3010
-4.6417 WINDMILL -0.2948
-4.6417 WINGS -0.3009
-4.0397 WINNING -0.3009
-4.6417 WINTER -0.2994
-4.1646 WIRE -0.2947
-4.6417 WISDOM -0.2953
-4.6417 WISE -0.3009
-4.6417 WISEMAN -0.2878
-4.3407 WISH -0.2990
-4.3407 WISHED -0.2998
-4.1646 WITCH -0.2950
-4.6417 WITCHCRAFT -0.3002
-4.3407 WITCHES -0.3009
-2.4514 WITH -0.2491
-4.6417 WITHERSPOON -0.3009
-3.9428 WITHIN -0.2810
-3.6875 WITHOUT -0.2812
-4.3407 WITTY -0.2996
-4.6417 WOLFE -0.2992
-3.5278 WOMAN -0.2848
-3.8636 WOMEN -0.2990
-3.7966 WON -0.2867
-4.6417 WONDER -0.3006
-4.6417 WONDERED -0.3005
-3.9428 WONDERFUL -0.3001
-4.6417 WONDERFULLY -0.3010
-4.6417 WONDERING -0.3004
-4.6417 WONDERLAND -0.2948
-4.6417 WONDERS -0.2995
-4.3407 WONT -0.3007
-3.9428 WOODEN -0.3009
-4.3407 WOODS -0.2869
-4.3407 WORD -0.2848
-4.6417 WORDS -0.2975
-3.5278 WORK -0.2803
-4.3407 WORKED -0.2988
-4.1646 WORKING -0.2936
-4.3407 WORKS -0.3010
-3.4113 WORLD -0.2612
-4.6417 WORLDLIER -0.3010
-4.3407 WORRY -0.2941
-4.3407 WORST -0.2991
-3.6003 WORTH -0.2742
-4.6417 WORTHWHILE -0.2962
-2.9983 WOULD -0.2945
-4.6417 WOULDN -0.3000
-4.6417 WOUND -0.3008
-4.6417 WOURNOW -0.2948
-4.6417 WOVEN -0.3010
-4.6417 WOW -0.3010
-4.6417 WRAPPED -0.3005
-4.6417 WRENCHING -0.2998
-4.3407 WRITER -0.3008
-4.3407 WRITERS -0.3009
-4.1646 WRITING -0.2888
-4.1646 WRITTEN -0.3002
-3.7386 WRONG -0.2907
-4.6417 WROTE -0.3009
-4.6417 WROUGHT -0.2995
-4.6417 WWI -0.3005
-4.6417 WYOMING -0.3010
-4.6417 X -0.3010
-4.6417 XVICHIA -0.3010
-4.6417 YAHOO -0.3010
-4.6417 YALL -0.2982
-4.6417 YANK -0.3001
-4.6417 YANKEE -0.3009
-4.6417 YEAH -0.2996
-3.8636 YEAR -0.2970
-3.3630 YEARS -0.2857
-4.6417 YELL -0.3008
-4.6417 YEP -0.2878
-3.9428 YES -0.2927
-3.5626 YET -0.2877
-4.6417 YOAKAM -0.2992
-4.6417 YOJIRO -0.3010
-4.3407 YORK -0.3010
-2.6417 YOU -0.2431
-3.3865 YOUNG -0.2902
-4.3407 YOUNGER -0.3006
-3.3865 YOUR -0.2999
-4.3407 YOURSELF -0.3007
-4.6417 YR -0.3008
-4.6417 ZAKARIADZE -0.3010
-4.6417 ZAKU -0.3008
-4.6417 ZED -0.3010
-4.6417 ZEITGEIST -0.2953
-4.6417 ZELAH -0.3010
-4.3407 ZEON -0.3010
-4.6417 ZOMBI -0.2878
-4.6417 ZOMBIE -0.3010
-4.6417 ZONE -0.3005
-4.6417 ZONES -0.3006
-4.6417  -0.2994

\2-grams:
-1.4559 <s> A -0.2883
-2.3010 <s> ABSOLUTE -0.2218
-2.3010 <s> ACTION -0.2840
-2.0000 <s> AN -0.2960
-2.3010 <s> AND -0.2993
-2.3010 <s> ANGELA 0.0000
-2.3010 <s> AT -0.2209
-2.3010 <s> BUT -0.2778
-2.3010 <s> CHALK 0.0000
-2.3010 <s> CULT -0.1761
-2.3010 <s> DEFINITELY -0.2041
-2.3010 <s> EA -0.1761
-2.3010 <s> EGLIMATA -0.1761
-2.0000 <s> FIRST -0.2833
-2.3010 <s> HOW -0.2932
-1.0969 <s> I -0.2448
-2.3010 <s> IF -0.2926
-2.0000 <s> IN -0.2850
-2.0000 <s> IS -0.2631
-2.3010 <s> JAMES -0.2430
-2.3010 <s> JAPAN -0.2553
-2.0000 <s> JOHN -0.2730
-2.3010 <s> LIKE -0.2774
-2.3010 <s> MARLON -0.1761
-2.3010 <s> MOONCHILD 0.0000
-2.3010 <s> NEW -0.2881
-2.0000 <s> NOT -0.2919
-2.0000 <s> ONLY -0.2762
