Language model created by QuickLM on Tue May 22 12:18:53 EDT 2018
Copyright (c) 1996-2010 Carnegie Mellon University and Alexander I. Rudnicky

The model is in standard ARPA format, designed by Doug Paul while he was at MITRE.

The code that was used to produce this language model is available in Open Source.
Please visit http://www.speech.cs.cmu.edu/tools/ for more information

The (fixed) discount mass is 0.5. The backoffs are computed using the ratio method.
This model based on a corpus of 91 sentences and 5013 words

\data\
ngram 1=5013
ngram 2=13801
ngram 3=17120

\1-grams:
-4.5554 ""42ND -0.3010
-4.5554 ""A -0.3008
-4.5554 ""AH, -0.2995
-4.5554 ""ALL -0.3010
-4.5554 ""AMELIE""'S -0.3010
-4.5554 ""ANY"" -0.3010
-4.5554 ""ART"" -0.3009
-4.5554 ""ARTEMISIA"" -0.3010
-4.5554 ""AVERAGE"" -0.3010
-4.5554 ""BEING -0.3001
-4.5554 ""BERNIE"" -0.3010
-4.5554 ""BLAXPLOITATION"" -0.3008
-4.5554 ""BOB"" -0.2968
-4.5554 ""BREAKER -0.3010
-4.5554 ""BUCKET -0.2952
-4.5554 ""BUT -0.3009
-4.5554 ""CHAMAS -0.3010
-4.5554 ""CHEERLEADER""...ETC. -0.3008
-4.5554 ""CONSULATE"" -0.3010
-4.5554 ""CUTE"" -0.2990
-4.5554 ""DELIVERANCE"" -0.3010
-4.2544 ""DEMON -0.3010
-4.5554 ""DEMONS -0.3010
-4.2544 ""DEMONS"" -0.3008
-4.5554 ""FUNNY -0.3010
-4.5554 ""GAMIN"" -0.3010
-4.5554 ""GEEK"" -0.3005
-4.5554 ""GET -0.3010
-4.5554 ""GIG -0.3010
-4.5554 ""GOLD -0.3010
-4.5554 ""GOOD -0.3010
-4.5554 ""GOODNESS, -0.3008
-4.5554 ""HURRICANE"", -0.3009
-4.0783 ""I -0.3002
-4.5554 ""I'M -0.3010
-4.5554 ""IMPRESSION"" -0.2986
-4.5554 ""IT -0.2990
-4.5554 ""JOCK"" -0.3005
-3.7773 ""LA -0.3010
-4.2544 ""LET'S -0.3007
-4.5554 ""MAN -0.2999
-4.5554 ""MOVIE"" -0.2944
-4.5554 ""MR.MUMBLES"" -0.3008
-4.5554 ""MUMBLES"" -0.3005
-4.2544 ""MY -0.3010
-4.5554 ""ON."" -0.3010
-4.5554 ""RAIN -0.3010
-4.5554 ""REAL"" -0.3010
-4.5554 ""REAL"". -0.2975
-4.5554 ""SHOWDOWN"" -0.3010
-4.5554 ""SINGIN' -0.2975
-3.6012 ""THE -0.3005
-4.5554 ""THIS -0.3010
-4.5554 ""THRILLER"", -0.2995
-4.5554 ""TOM -0.3010
-4.5554 ""UNREAL"" -0.3010
-4.5554 ""WELL -0.2986
-4.5554 ""WHO"" -0.3009
-4.5554 ""WHO'S -0.3010
-4.5554 ""WHY -0.3009
-4.5554 ""WINGS"", -0.3009
-4.5554 ""YES"" -0.2993
-4.5554 #1 -0.2968
-4.5554 $8 -0.3010
-3.9534 & -0.3009
-4.2544 '30'S -0.3010
-4.5554 '40'S -0.2944
-4.5554 '73. -0.2982
-4.5554 'A -0.3008
-4.5554 'BLADE -0.3010
-4.5554 'BOSS' -0.3010
-4.5554 'CHAIRMAN' -0.2968
-4.5554 'CLEAN' -0.3010
-4.5554 'COLORIZATION' -0.3010
-4.5554 'COME -0.3010
-4.5554 'EXPERIENCED' -0.2944
-4.5554 'FAIRY' -0.2961
-4.5554 'GANGSTER' -0.3010
-4.5554 'GREAT'---THIS -0.2968
-4.5554 'GUARONTEE'---OVERALL, -0.2994
-4.5554 'GUILTY' -0.3010
-4.2544 'I -0.3007
-4.5554 'INTERESTING' -0.3010
-4.2544 'JOHN -0.3010
-4.5554 'LIFE -0.3004
-4.5554 'MAGNETIC-CANNON', -0.3010
-4.5554 'MASS-DRIVER' -0.3009
-4.5554 'MEDAL -0.2952
-4.5554 'MEDIA-QUALITY' -0.2952
-4.5554 'MOOD'---WHATEVER -0.2986
-4.5554 'NEVER-TO-BE-MATCHED' -0.3010
-4.5554 'OVER-BUDGET'---SO -0.2997
-4.5554 'PASSWORTHY' -0.3010
-4.5554 'PHONY-PARACHUTING', -0.3009
-4.5554 'PROPRIETARY' -0.3010
-4.5554 'RAP', -0.3010
-4.5554 'RELIC', -0.2994
-4.5554 'REMIND -0.3008
-4.5554 'SOFT' -0.3009
-4.5554 'STANDARD -0.3010
-4.5554 'STAR -0.3010
-4.5554 'SURVIVING' -0.3010
-3.8565 'THE -0.3007
-4.5554 'VERY -0.3010
-4.5554 'WE -0.2998
-4.5554 'WE'RE -0.3009
-4.5554 'WHICH -0.3010
-4.5554 'YES, -0.3008
-4.5554 'YET -0.3008
-4.5554 (""FLAMES -0.2952
-4.5554 (""GET -0.3010
-4.5554 (""NO -0.3010
-4.5554 (8/10)",8,POS -0.2999
-4.5554 (= -0.3010
-4.2544 (A -0.3010
-4.5554 (ACTUALLY, -0.2985
-4.5554 (ALTHOUGH, -0.2882
-4.0783 (AND -0.3006
-4.5554 (ANT1) -0.2975
-4.5554 (APART -0.2882
-4.2544 (AS -0.3007
-4.5554 (AT -0.3009
-4.5554 (BILLIE -0.3010
-4.5554 (BRAZIL): -0.3010
-4.5554 (BURT -0.3010
-4.5554 (CHRISTOPHER -0.3010
-4.5554 (CITIZEN -0.3010
-4.5554 (CONVENTIONALLY)GOOD -0.3008
-4.5554 (DAKOTA -0.3010
-4.5554 (DENNIS -0.3010
-4.5554 (DENZEL -0.3010
-4.5554 (EAZY -0.3010
-4.2544 (EVEN -0.3005
-4.5554 (FATHER -0.3010
-4.5554 (FOR -0.3010
-4.5554 (GIANCARLO -0.3010
-4.5554 (GLENN -0.3010
-4.5554 (HBO?) -0.3007
-4.5554 (HE -0.3010
-4.5554 (I -0.3010
-4.5554 (IE. -0.3005
-4.2544 (IN -0.2919
-4.5554 (IT'S -0.3010
-4.5554 (JON -0.3010
-4.5554 (KURT -0.3010
-4.5554 (LARA -0.3010
-4.5554 (LITERALLY) -0.2944
-4.5554 (MARC -0.3010
-4.5554 (MARRIAGE -0.3010
-4.5554 (MORAYS -0.3009
-4.5554 (MY -0.3010
-4.5554 (NED -0.3010
-4.5554 (NICOLAS -0.3010
-4.5554 (OBVIOUSLY -0.3010
-4.5554 (OF -0.3010
-4.5554 (ONE -0.3010
-4.5554 (ONMYOJI) -0.3010
-4.2544 (OR -0.3008
-4.5554 (PERHAPS -0.2882
-4.5554 (PLAYED -0.3002
-4.5554 (PLEASANTVILLE'S -0.3010
-4.5554 (PRESUMABLY) -0.3010
-4.5554 (RADHA -0.3010
-4.5554 (READ: -0.3010
-4.5554 (RITA -0.3010
-4.5554 (ROBIN -0.3010
-4.5554 (RONNY -0.3010
-4.5554 (SEXY!) -0.3010
-4.5554 (SUCH -0.2993
-4.5554 (SUPPOSEDLY -0.3010
-4.5554 (THE -0.3010
-4.5554 (THERE -0.3009
-4.5554 (TO -0.3008
-4.5554 (TWO -0.3009
-4.5554 (WARNING!) -0.2944
-4.5554 (WE -0.3008
-4.5554 (WHEN -0.3004
-4.2544 (WHICH -0.2968
-4.5554 (WHO -0.2990
-4.5554 (WHOSE -0.3009
-4.5554 (WITH -0.3008
-4.5554 +/- -0.3010
-4.5554 , -0.3009
-3.7773 - -0.2858
-3.7103 -- -0.2895
-4.5554 -IN -0.3009
-4.5554 . -0.2982
-4.5554 ... -0.3010
-4.5554 .... -0.3009
-4.5554 ....AND -0.2882
-4.2544 007 -0.3010
-4.5554 0079, -0.2882
-4.5554 0080 -0.2968
-4.5554 0080, -0.3010
-4.5554 0083 -0.3008
-4.5554 1 -0.2985
-3.8565 10 -0.2702
-4.5554 10. -0.3009
-4.5554 10/10 -0.2994
-4.5554 12 -0.3010
-4.5554 12:01. -0.3009
-4.5554 13 -0.2944
-4.5554 146 -0.3009
-4.5554 17TH -0.3010
-4.5554 19 -0.3009
-4.5554 1911 -0.2944
-4.5554 1918. -0.3010
-4.5554 1920!! -0.3010
-4.5554 1933"", -0.2952
-4.5554 1960S -0.2975
-4.5554 1968 -0.2944
-4.5554 1970S.A -0.3010
-4.5554 1971.",10,POS -0.2999
-4.5554 1972, -0.3004
-4.5554 1979, -0.3010
-4.5554 1980 -0.3010
-4.5554 1980S -0.3005
-4.5554 1994 -0.2944
-4.5554 1997'S -0.2882
-4.2544 2 -0.3010
-4.5554 20 -0.3009
-4.5554 2000'S -0.2882
-4.5554 2001: -0.2948
-4.5554 2005 -0.3010
-4.5554 2007 -0.3010
-4.5554 24 -0.3010
-4.5554 2ND -0.3010
-4.2544 3 -0.3010
-4.5554 3"" -0.2944
-4.5554 30 -0.3009
-4.5554 30'S -0.2961
-4.5554 4 -0.3010
-4.5554 4.4 -0.3010
-4.5554 40'S -0.2944
-4.5554 40'S), -0.2944
-4.2544 5 -0.3009
-4.2544 50'S -0.2962
-4.5554 50'S. -0.3008
-4.0783 6 -0.3004
-4.5554 60'S -0.3010
-4.5554 7 -0.3005
-4.5554 7.",7,POS -0.2999
-4.5554 70'S -0.2944
-3.9534 70S -0.3009
-4.2544 70S. -0.2882
-4.5554 80'S -0.2985
-4.5554 80'S/EARLY -0.3010
-4.5554 80S -0.3010
-4.5554 80S' -0.3010
-4.5554 9 -0.2990
-4.5554 9/10 -0.3003
-4.5554 9/10!",9,POS -0.2999
-4.5554 90 -0.3010
-4.2544 90'S -0.3009
-4.5554 90210! -0.3009
-4.5554 :""NO -0.3010
-4.2544 :) -0.3010
-4.5554 :)",9,POS -0.2999
-4.5554 :)) -0.2975
-2.5964 </s> -0.3010
-2.5964 <s> -0.2431
-1.8453 A -0.2816
-4.5554 A-",7,POS -0.2999
-4.5554 A-RELIGIOUS -0.3010
-4.5554 ABANDONED -0.3010
-4.5554 ABASHIDZE.... -0.3004
-4.5554 ABC -0.2985
-4.5554 ABDUCTION.""MAN -0.2999
-4.5554 ABILITY, -0.3008
-3.8565 ABLE -0.2961
-2.8151 ABOUT -0.2633
-4.2544 ABOUT. -0.3003
-4.5554 ABSENT.MY -0.3010
-4.0783 ABSOLUTE -0.3009
-4.0783 ABSOLUTELY -0.3010
-4.5554 ABSURDLY -0.3010
-4.5554 ABYSS -0.2952
-4.5554 ACADEMY -0.3010
-4.2544 ACCENT -0.2967
-4.5554 ACCENT, -0.2944
-4.5554 ACCENTUATE -0.2882
-4.5554 ACCEPTANCE. -0.2882
-4.5554 ACCIDENT. -0.3004
-4.5554 ACCIDENTAL -0.3010
-4.5554 ACCIDENTALLY -0.3010
-4.5554 ACCOMPANIES -0.3010
-4.5554 ACCUSATION. -0.2994
-4.5554 ACCUSTOMED -0.2961
-4.5554 ACHIEVE -0.3010
-4.5554 ACHIEVEMENTS.BUT -0.3010
-4.5554 ACT -0.3002
-4.2544 ACTED -0.2846
-4.5554 ACTED. -0.3010
-3.3513 ACTING -0.2842
-4.2544 ACTING. -0.2881
-3.7773 ACTION -0.2840
-4.2544 ACTION, -0.2995
-4.5554 ACTION. -0.2882
-4.5554 ACTION.MOBILE -0.3010
-4.5554 ACTIVISTS -0.3010
-4.2544 ACTOR -0.3010
-4.5554 ACTOR. -0.2982
-3.4763 ACTORS -0.2807
-4.5554 ACTORS/ACTRESS -0.3010
-4.5554 ACTRESS -0.3006
-4.5554 ACTRESS.NO -0.3006
-4.5554 ACTRESSES, -0.3005
-4.0783 ACTS -0.2934
-4.2544 ACTUAL -0.3009
-3.4763 ACTUALLY -0.2917
-4.5554 ACTUALLY, -0.3000
-4.5554 ADAPTATION -0.3010
-4.5554 ADAPTATION, -0.2995
-4.5554 ADAPTING -0.2982
-4.5554 ADAPTS -0.2882
-4.2544 ADD -0.2981
-4.5554 ADDED -0.3009
-4.5554 ADDITION -0.2952
-4.5554 ADDITIONS: -0.2882
-4.5554 ADDRESS, -0.3010
-4.5554 ADJACENT -0.3010
-4.5554 ADMINISTRATION. -0.3004
-4.5554 ADMIRE -0.3010
-3.9534 ADMIT -0.2911
-4.5554 ADMITS -0.2882
-4.5554 ADRIAN -0.3010
-4.0783 ADULT -0.2995
-4.5554 ADULT. -0.3005
-4.5554 ADULTS. -0.3007
-4.5554 ADVENTURE -0.3009
-4.5554 ADVENTURE, -0.3009
-4.5554 ADVERSARY -0.2961
-4.2544 ADVICE -0.2954
-4.5554 ADVICES -0.3005
-4.5554 ADVISED -0.2961
-4.5554 AESTHETIC -0.2944
-4.2544 AFFAIR -0.2996
-4.5554 AFFAIR.STEVEN -0.3010
-4.5554 AFFECT -0.3007
-4.5554 AFFECTING -0.2968
-4.5554 AFFECTION -0.2994
-4.5554 AFFLUENT -0.2996
-4.2544 AFFORD -0.2960
-4.5554 AFRICA. -0.3010
-3.2544 AFTER -0.2756
-4.5554 AFTER, -0.3010
-4.2544 AFTERNOON -0.3010
-4.5554 AFTERNOON. -0.3004
-3.6523 AGAIN -0.2739
-4.0783 AGAIN, -0.2901
-4.5554 AGAIN.",8,POS -0.2999
-4.5554 AGAIN... -0.2985
-4.5554 AGAIN.SISSY -0.2990
-3.7773 AGAINST -0.2844
-4.2544 AGE -0.2928
-4.5554 AGE, -0.2944
-4.5554 AGED -0.3009
-4.5554 AGENCY -0.3005
-4.2544 AGENT -0.2894
-4.5554 AGENTS -0.3003
-4.5554 AGES -0.3010
-4.2544 AGES. -0.2995
-4.5554 AGING -0.3010
-4.5554 AGO -0.3000
-4.2544 AGO, -0.2943
-4.5554 AGO. -0.2985
-4.5554 AGO.""SO -0.3004
-4.2544 AGREE -0.2996
-4.5554 AGREED -0.2986
-4.5554 AGREES -0.2996
-4.5554 AHEAD -0.2952
-4.5554 AIMLESS -0.3010
-4.5554 AIR -0.3010
-4.5554 AIR. -0.2996
-4.5554 AIRED -0.2999
-4.5554 AIRMEN. -0.2882
-3.8565 AL -0.2966
-4.5554 AL, -0.3002
-4.5554 ALAN -0.3010
-4.5554 ALARM -0.3009
-4.5554 ALAS -0.3002
-4.5554 ALCOHOLIC -0.3010
-4.5554 ALEXANDER -0.3010
-4.5554 ALICE, -0.3010
-4.5554 ALIKE -0.3010
-4.5554 ALIKE) -0.3009
-4.5554 ALIKE. -0.3004
-4.5554 ALIKE.DREW -0.3010
-2.6469 ALL -0.2513
-4.5554 ALL! -0.2882
-4.0783 ALL, -0.2993
-3.8565 ALL. -0.2828
-4.5554 ALLEGEDLY -0.2948
-4.2544 ALLEN -0.3010
-4.5554 ALLEN'S -0.3010
-4.5554 ALLOW -0.2961
-4.5554 ALLOWS -0.3008
-3.6523 ALMOST -0.2927
-4.5554 ALMOST.THE -0.3008
-4.5554 ALOHA!",10,POS -0.2999
-4.2544 ALONE -0.3004
-4.5554 ALONE, -0.2882
-3.9534 ALONG -0.2946
-4.5554 ALONGNO? -0.3004
-3.7103 ALREADY -0.2992
-4.5554 ALRIGHT -0.2995
-4.5554 ALRIGHT' -0.3001
-2.9991 ALSO -0.2761
-4.0783 ALSO, -0.2838
-4.5554 ALSO. -0.2986
-4.5554 ALTERNATE -0.3010
-4.5554 ALTERNATIVES, -0.3004
-3.8565 ALTHOUGH -0.2995
-3.3793 ALWAYS -0.2782
-4.0783 ALWAYS, -0.2930
-4.5554 ALZHEIMER'S -0.3005
-4.0783 AM -0.2999
-4.5554 AMAZED...""BEFORE -0.3010
-3.7103 AMAZING -0.2942
-4.5554 AMAZING. -0.3010
-4.5554 AMAZING... -0.3010
-4.5554 AMAZINGLY -0.3010
-4.5554 AMERICA, -0.3000
-4.5554 AMERICA. -0.3010
-4.2544 AMERICAN -0.2944
-4.5554 AMERICANS -0.3006
-4.5554 AMIABLE, -0.3010
-3.6012 AMONG -0.2879
-4.5554 AMORAL, -0.3010
-4.0783 AMOUNT -0.2952
-4.5554 AMROHI -0.3010
-4.5554 AMURO -0.3010
-4.5554 AMUSING -0.2944
-2.6862 AN -0.2989
-4.5554 ANCIENT -0.3010
-1.8190 AND -0.2003
-3.9534 AND, -0.2956
-4.5554 AND/OR -0.3010
-4.5554 ANDERS -0.3010
-4.5554 ANDERS' -0.2993
-4.5554 ANDERS) -0.3010
-4.5554 ANDERS. -0.3009
-4.2544 ANGELA -0.3010
-4.5554 ANGLES -0.2944
-4.5554 ANGUISH -0.2952
-4.2544 ANIMALS -0.2972
-4.5554 ANIMALS, -0.2944
-4.5554 ANIMALS.' -0.3009
-4.5554 ANIMATED -0.3010
-4.2544 ANIMATION -0.3000
-4.5554 ANIMATRONIC -0.3009
-4.5554 ANNALS -0.2952
-4.5554 ANNOYING -0.3010
-3.7773 ANOTHER -0.3008
-4.2544 ANSWER, -0.2877
-4.5554 ANSWERS. -0.3010
-4.5554 ANTHONY), -0.2996
-4.5554 ANTICIPATES, -0.2975
-4.5554 ANTICIPATION. -0.3004
-4.5554 ANXIOUS -0.3010
-3.3250 ANY -0.2935
-4.5554 ANYHOW, -0.3004
-4.5554 ANYMORE. -0.2994
-3.7103 ANYONE -0.2988
-4.5554 ANYONE'S -0.3010
-4.0783 ANYTHING -0.3007
-4.2544 ANYWAY, -0.2880
-4.0783 ANYWHERE -0.2940
-4.2544 APART -0.2968
-4.5554 APARTMENT -0.2996
-4.5554 APEL -0.2993
-4.5554 APPARENT -0.2944
-4.2544 APPARENTLY -0.2878
-4.5554 APPEAL -0.3009
-4.2544 APPEALING -0.2961
-4.5554 APPEAR -0.2993
-4.5554 APPEARANCE.FAVORITE -0.3010
-4.2544 APPEARED -0.2961
-4.5554 APPLAUDED -0.2882
-4.5554 APPLICATION -0.3010
-4.0783 APPRECIATE -0.2852
-4.2544 APPRECIATED -0.2882
-4.5554 APPRECIATION -0.2961
-4.5554 APPROACH -0.2993
-4.5554 APPROPRIATE -0.2994
-4.5554 APPROVAL -0.2994
-4.5554 APRIL -0.3010
-2.5642 ARE -0.2651
-4.2544 ARE, -0.3002
-4.2544 AREA -0.2943
-4.5554 AREAS -0.2975
-4.0783 AREN'T -0.3005
-4.5554 ARETHA -0.3010
-4.2544 ARMY -0.3002
-4.2544 ARMY, -0.2975
-3.6523 AROUND -0.2776
-4.5554 AROUND, -0.3010
-4.2544 AROUND. -0.2881
-4.5554 ARRIVAL, -0.3010
-4.5554 ARRIVES -0.3001
-4.5554 ART -0.2944
-4.5554 ART. -0.3004
-4.5554 ART.",10,POS -0.2999
-4.5554 ARTICULATE -0.2982
-4.5554 ARTIFICIAL -0.3010
-4.5554 ARTIFICIALLY -0.3010
-4.5554 ARTIST -0.2993
-4.5554 ARTISTIC -0.3010
-4.5554 ARTISTS, -0.2944
-4.2544 ARTS -0.3010
-2.3971 AS -0.2540
-4.2544 AS, -0.3010
-4.2544 ASHURA -0.2987
-4.2544 ASHURA, -0.2882
-4.5554 ASHURA. -0.2982
-4.5554 ASIAN -0.3010
-3.7773 ASIDE -0.2806
-4.2544 ASKED -0.3008
-4.2544 ASPECTS -0.2928
-4.5554 ASS? -0.3004
-4.5554 ASSASSIN -0.2944
-4.5554 ASSAULT -0.3003
-4.5554 ASSHOLE...SEEMS -0.3010
-4.5554 ASSUMED -0.2882
-4.5554 ASTAIRE -0.2944
-4.5554 ASTAIRE/ROGERS -0.3010
-4.5554 ASTRONOMICAL -0.3010
-2.6804 AT -0.2717
-4.5554 AT: -0.3010
-4.5554 ATHINODOROS -0.3010
-4.5554 ATLANTA -0.3010
-4.0783 ATMOSPHERE -0.2884
-4.5554 ATMOSPHERE... -0.3005
-4.0783 ATMOSPHERIC -0.2943
-4.5554 ATMOSPHERIC, -0.2995
-4.0783 ATTACK -0.2966
-4.5554 ATTACK- -0.3009
-4.5554 ATTACKING -0.2882
-4.2544 ATTEMPT -0.2961
-4.5554 ATTEMPTS -0.2961
-4.5554 ATTEND -0.2882
-4.5554 ATTENTION -0.2990
-4.5554 ATTENTION!",10,POS -0.2999
-4.2544 ATTRACTIVE, -0.3001
-4.5554 ATTRACTIVE. -0.3006
-3.8565 AUDIENCE -0.2919
-4.5554 AUDIENCE'S -0.3010
-4.5554 AUDIENCE. -0.3010
-4.5554 AUDIENCE.THAT'S -0.3006
-4.5554 AUDIENCES -0.3010
-4.5554 AUNT'S -0.3010
-4.2544 AUR -0.3010
-4.5554 AUSTRALIA -0.2968
-4.2544 AUSTRALIAN -0.3001
-4.5554 AUTHENTIC -0.2975
-4.5554 AUTHORITY -0.3009
-4.5554 AUTISM -0.2975
-4.5554 AVATAR -0.3002
-4.2544 AVERAGE -0.3009
-4.5554 AVERAGE. -0.2985
-4.5554 AVIATION -0.3010
-4.5554 AVOIDS -0.2882
-4.5554 AWARD -0.3010
-3.6012 AWAY -0.2696
-4.5554 AWAY---I -0.3010
-4.5554 AWAY.",9,POS -0.2999
-4.5554 AWESOME! -0.2985
-4.5554 AWESOME, -0.3005
-4.5554 AWHILE, -0.2995
-4.0783 AWKWARD -0.2928
-4.5554 BABBS -0.3010
-4.2544 BABY -0.3010
-4.5554 BACHELOR -0.3010
-3.4763 BACK -0.2813
-4.5554 BACK!",9,POS -0.2999
-4.5554 BACK' -0.2961
-4.5554 BACKGROUND -0.2944
-4.5554 BACON, -0.3003
-3.6012 BAD -0.2866
-4.5554 BAD...FOR -0.3006
-4.5554 BAHRAIN. -0.3005
-4.5554 BAKERSFIELD -0.3010
-4.5554 BALANCE -0.2952
-4.5554 BALANCE, -0.2882
-4.5554 BALL. -0.3010
-4.5554 BALLET -0.3001
-4.5554 BALLING -0.3010
-4.5554 BAMBINO'.EVERYTHING -0.2968
-4.5554 BANDS -0.2952
-4.5554 BANG -0.3006
-4.5554 BANTERING -0.3010
-4.2544 BAR -0.3009
-4.5554 BARBARA -0.3010
-4.5554 BARELY -0.3010
-4.5554 BARR -0.3003
-4.2544 BARRYMORE -0.2901
-4.5554 BARTY. -0.2997
-4.2544 BASEBALL -0.3003
-4.0783 BASED -0.2999
-4.5554 BASEMENT -0.2996
-4.5554 BASEMENT. -0.3009
-4.5554 BASHING -0.2982
-4.5554 BASICALLY -0.3010
-4.5554 BASKET"" -0.3010
-4.5554 BAT -0.2985
-4.5554 BATHROOM -0.3009
-4.0783 BATTLE -0.2950
-4.2544 BATTLE. -0.2985
-4.5554 BAUREL, -0.2990
-4.5554 BAVA -0.3010
-4.5554 BAWDY, -0.3010
-2.6209 BE -0.2596
-4.5554 BE) -0.2944
-4.5554 BE, -0.2995
-4.2544 BE. -0.2984
-4.5554 BE?' -0.3000
-4.5554 BE?'---THIS -0.2968
-4.5554 BEAMED -0.3009
-4.5554 BEAST. -0.3010
-4.5554 BEAST?",10,POS -0.2999
-4.5554 BEATTY); -0.2944
-3.7773 BEAUTIFUL -0.2928
-4.5554 BEAUTIFUL.",10,POS -0.2999
-4.5554 BEAUTIFULLY -0.3010
-4.5554 BEAUTIFULLY-FILMED -0.3010
-4.0783 BEAUTY -0.2947
-4.5554 BEAUTY. -0.3010
-4.5554 BEAUTY.",10,POS -0.2999
-4.2544 BECAME -0.3009
-4.5554 BECAME. -0.3001
-3.3002 BECAUSE -0.2703
-4.5554 BECAUSE, -0.3008
-4.5554 BECKINSALE'S -0.3010
-4.2544 BECKY -0.2944
-3.6012 BECOME -0.2927
-3.9534 BECOMES -0.2946
-4.5554 BECOMING -0.2948
-4.5554 BEDROOM -0.3010
-4.5554 BEECH(NICK -0.3010
-3.1405 BEEN -0.2854
-4.5554 BEEN.",9,POS -0.2999
-3.4415 BEFORE -0.2712
-4.0783 BEFORE, -0.2992
-4.5554 BEFORE. -0.3010
-4.5554 BEFORE: -0.2882
-4.5554 BEFORE? -0.3005
-4.5554 BEFRIENDS -0.3010
-4.5554 BEGAN -0.2961
-4.5554 BEGIN -0.3010
-4.5554 BEGIN?MEENA -0.3010
-3.9534 BEGINNING -0.2938
-4.0783 BEGINNING, -0.2847
-4.5554 BEGINS -0.2961
-4.5554 BEGINS. -0.3009
-4.5554 BEHAVIOR -0.2952
-3.9534 BEHIND -0.3005
-4.5554 BEHIND,' -0.3010
-3.3002 BEING -0.2889
-4.5554 BEING.",7,POS -0.2999
-4.5554 BEINGS -0.2996
-4.5554 BELIEFS -0.3008
-4.0783 BELIEVABLE -0.2986
-3.7773 BELIEVE -0.2929
-4.5554 BELIEVE,LED -0.3002
-4.5554 BELIEVED -0.2986
-4.2544 BELUSHI -0.2894
-4.2544 BELUSHI, -0.3001
-3.7773 BEN -0.2767
-4.5554 BENARD -0.3010
-4.5554 BENDING -0.3008
-4.5554 BENEATH -0.2882
-4.5554 BENEFIT -0.2952
-4.5554 BERLIN'S -0.3008
-4.2544 BERNIE -0.3009
-4.5554 BERRY -0.2961
-4.5554 BERSERK -0.2975
-3.2332 BEST -0.2816
-3.9534 BEST, -0.2963
-4.2544 BEST. -0.2866
-4.5554 BEST...... -0.2985
-3.4763 BETTER -0.2933
-4.5554 BETTER, -0.3000
-3.6012 BETWEEN -0.2880
-4.0783 BEYOND -0.2997
-4.5554 BI -0.3010
-4.5554 BIASED -0.3009
-4.5554 BIBI -0.3010
-3.4093 BIG -0.3004
-4.5554 BIG, -0.3010
-4.5554 BIG. -0.2882
-4.5554 BIGGER -0.2944
-4.5554 BIGGER-THAN-LIFE -0.2995
-4.2544 BIGGEST -0.3010
-4.5554 BILL -0.3010
-4.5554 BILL.",8,POS -0.2999
-4.5554 BILLY -0.3010
-4.5554 BINDER. -0.2985
-4.5554 BINDING -0.3010
-4.5554 BIRTH, -0.3008
-4.5554 BIRTHDAY -0.3010
-3.3513 BIT -0.2929
-4.2544 BIT, -0.3004
-4.5554 BIT. -0.3004
-4.5554 BITCHY -0.3010
-4.2544 BIZARRE -0.3003
-4.5554 BIZARRE, -0.3008
-4.0783 BLACK -0.3008
-4.5554 BLACK"" -0.3008
-4.5554 BLAME -0.2882
-4.5554 BLAMES -0.3010
-4.2544 BLEW -0.2981
-4.2544 BLOOD -0.2894
-4.5554 BLOOD""), -0.2944
-4.5554 BLOODLUST -0.2994
-4.5554 BLOODY -0.2944
-4.2544 BLOW-HARD -0.3003
-4.5554 BLOWING -0.3006
-4.2544 BLOWN -0.3009
-4.0783 BLUE -0.2974
-4.5554 BOASTS -0.2948
-4.2544 BOAT -0.3010
-4.5554 BOB -0.3010
-4.2544 BOBBY, -0.2973
-4.5554 BODIES -0.2944
-4.5554 BODYGUARD -0.2952
-4.5554 BODYGUARD, -0.2944
-4.5554 BOGOSIAN -0.3010
-4.2544 BOLLYWOOD -0.3010
-4.5554 BOMBASTIC -0.3009
-4.5554 BOMBED -0.3002
-4.5554 BOND) -0.2944
-4.5554 BONES -0.2975
-4.2544 BOOGIE -0.3010
-3.6523 BOOK -0.2938
-4.2544 BOOK, -0.2944
-4.5554 BOOKS -0.2999
-4.5554 BOORMAN'S -0.3010
-4.5554 BORDER -0.2999
-4.5554 BORE, -0.2995
-4.5554 BORING. -0.2948
-4.5554 BORING? -0.3007
-4.5554 BORNE -0.3008
-4.5554 BOSWELL -0.2968
-3.3002 BOTH -0.2838
-4.5554 BOTH, -0.3010
-4.5554 BOTHERS -0.3008
-4.5554 BOTTLE -0.2882
-4.5554 BOTTOM -0.2952
-4.5554 BOTTOMS -0.2952
-4.0783 BOUGHT -0.2846
-4.5554 BOULEVARDIER -0.3007
-4.5554 BOUND -0.3002
-4.5554 BOWELS. -0.3010
-4.5554 BOX. -0.3007
-3.8565 BOY -0.2900
-4.5554 BOYLE). -0.2997
-4.5554 BOYLE, -0.2998
-4.0783 BOYS -0.2944
-4.5554 BOYS.THE -0.3010
-4.5554 BOYS/BABIES/MICE -0.2944
-4.5554 BRAINY, -0.3010
-4.5554 BRANAGH -0.2944
-4.0783 BRANDO -0.2761
-4.5554 BRAT. -0.2882
-4.5554 BREAK -0.3005
-4.5554 BREAK--MR. -0.3010
-4.5554 BREAKDOWN. -0.2948
-4.2544 BREAKS -0.3005
-4.2544 BREATH -0.3008
-4.5554 BREATHING -0.3009
-4.5554 BREATHLESS.NAUSHADS -0.3010
-4.5554 BRIBES -0.2944
-4.5554 BRIDGE -0.2944
-4.5554 BRIGHT, -0.2944
-4.5554 BRILLANT -0.3010
-4.5554 BRILLIANCE -0.2952
-3.8565 BRILLIANT -0.3009
-4.5554 BRILLIANT. -0.3010
-4.5554 BRILLIANTLY -0.3010
-4.5554 BRING -0.3005
-3.9534 BRINGS -0.2970
-4.5554 BRITISH -0.3010
-4.2544 BROADWAY -0.3008
-4.5554 BROKEN -0.3010
-4.5554 BROKERS -0.2952
-4.5554 BRONSTEIN. -0.3010
-4.0783 BROTHER -0.2885
-4.5554 BROTHERS -0.2944
-4.5554 BROUGHT -0.3010
-4.2544 BROWN -0.3001
-4.5554 BROWN"" -0.2944
-4.5554 BROWN, -0.2948
-4.5554 BROWN. -0.2882
-4.5554 BRUTAL -0.3010
-4.5554 BRUTALLY -0.3010
-4.5554 BUCKETS -0.2952
-4.5554 BUCKS -0.2944
-4.5554 BUDDIES -0.3010
-4.5554 BUDDY -0.3010
-3.8565 BUDGET -0.3006
-4.5554 BUDGET. -0.2975
-4.5554 BUILDING). -0.3003
-4.5554 BUILDINGS, -0.2944
-4.5554 BUILDINGS. -0.3010
-4.2544 BUILT -0.2994
-4.5554 BULK -0.2952
-4.5554 BUNCH -0.2952
-4.5554 BURIED -0.3010
-4.5554 BURROWS -0.2998
-4.5554 BUSHMAN. -0.3010
-4.2544 BUSINESS -0.2975
-4.5554 BUSY -0.3010
-2.4516 BUT -0.2365
-4.0783 BUT, -0.2939
-4.5554 BUT. -0.2882
-4.2544 BUY -0.2981
-4.5554 BUYS -0.3000
-2.6981 BY -0.2730
-4.5554 BYRDS. -0.2982
-4.2544 BYRON -0.3010
-4.5554 C -0.3010
-4.5554 C'EST -0.3010
-4.5554 CABAL' -0.3010
-4.5554 CABAL'S -0.3010
-4.5554 CABAL'S' -0.3010
-4.5554 CADET, -0.2985
-4.5554 CAGE) -0.2968
-4.2544 CAGNEY -0.2963
-4.5554 CAHULAWASSEE -0.2882
-4.5554 CALAMITIES -0.3010
-4.5554 CALCULATING, -0.3007
-4.5554 CALENDER -0.2944
-4.0783 CALL -0.2975
-3.8565 CALLED -0.2994
-3.8565 CAME -0.2896
-4.5554 CAMEO -0.2952
-3.9534 CAMERA -0.3009
-4.5554 CAMERA. -0.2985
-4.5554 CAMP -0.2968
-4.5554 CAMPY -0.3010
-3.1241 CAN -0.2974
-3.6523 CAN'T -0.2994
-4.2544 CANADIAN -0.3010
-4.5554 CANDIDATES -0.2998
-4.5554 CANDY'S -0.3010
-4.5554 CANNOT -0.3000
-4.5554 CANVAS -0.2944
-4.5554 CAPITALIZES -0.2999
-4.5554 CAPSULE -0.2952
-4.5554 CAPTORS -0.3010
-4.2544 CAPTURE -0.2913
-4.5554 CAPTURED -0.2882
-4.5554 CAPTURES -0.2882
-4.5554 CAR -0.2996
-4.5554 CARA. -0.3010
-4.0783 CARE -0.2947
-4.2544 CAREER -0.2975
-3.8565 CAREER, -0.2966
-4.0783 CAREER. -0.2968
-4.5554 CAREFUL -0.3010
-4.5554 CAREFULLY -0.3010
-4.5554 CARES -0.3005
-4.5554 CAREY.THERE -0.2968
-4.5554 CARHART -0.2993
-4.5554 CARNIVAL -0.3010
-4.5554 CARON -0.2990
-4.5554 CARRIES -0.2882
-4.5554 CARRYING -0.2882
-4.5554 CARS, -0.3010
-3.7773 CASA -0.3010
-3.7103 CASE -0.2905
-4.5554 CASE, -0.2997
-3.3513 CAST -0.2827
-4.2544 CAST, -0.2936
-4.0783 CAST. -0.2879
-3.9534 CASTING -0.2947
-4.2544 CASTLE -0.2977
-3.9534 CASTLE, -0.2934
-4.5554 CATALOG -0.2994
-4.0783 CATCH -0.2914
-4.5554 CATCHY -0.2961
-4.2544 CAUGHT -0.3005
-4.5554 CAUGHT, -0.3010
-4.5554 CAUSE -0.2952
-4.5554 CAUSE, -0.2882
-4.2544 CAUSED -0.2817
-4.2544 CB4 -0.2975
-4.5554 CEDRIC'S, -0.2993
-4.5554 CELEBRATED -0.3000
-4.5554 CEMETERY"" -0.2998
-4.5554 CEMETERY"". -0.2952
-4.5554 CENTER -0.3010
-4.2544 CENTRAL -0.3010
-4.5554 CENTS.",10,POS -0.2999
-4.2544 CENTURY -0.3010
-4.5554 CEREBRAL -0.3010
-3.9534 CERTAIN -0.3009
-3.7103 CERTAINLY -0.2885
-4.5554 CG -0.3010
-4.5554 CHAIRS -0.2975
-4.5554 CHALK -0.2982
-4.5554 CHALLENGING -0.3010
-3.9534 CHANCE -0.2954
-4.2544 CHANCE, -0.3003
-4.5554 CHANCE. -0.2944
-4.5554 CHANCE.",9,POS -0.2999
-4.5554 CHANGE -0.3008
-4.5554 CHANGED"" -0.3009
-4.5554 CHANGED. -0.3000
-4.2544 CHANGES -0.2871
-4.5554 CHANGING -0.3009
-4.5554 CHANNEL -0.3010
-3.5554 CHARACTER -0.2882
-4.2544 CHARACTER, -0.3002
-4.0783 CHARACTER. -0.3004
-4.5554 CHARACTERISATIONS -0.2996
-4.5554 CHARACTERIZATION. -0.2882
-4.2544 CHARACTERIZE -0.2852
-4.5554 CHARACTERIZED -0.2882
-3.5554 CHARACTERS -0.2888
-4.5554 CHARACTERS- -0.2944
-4.0783 CHARACTERS. -0.2876
-4.5554 CHARACTERS: -0.2948
-4.0783 CHAREL -0.2966
-4.5554 CHAREL'S -0.3010
-4.5554 CHAREL, -0.3005
-4.0783 CHARGED -0.2996
-4.5554 CHARITY -0.3010
-4.5554 CHARLES -0.3010
-4.5554 CHARM -0.2952
-4.5554 CHARM. -0.3007
-4.5554 CHARTS -0.3001
-4.5554 CHASE.",9,POS -0.2999
-4.5554 CHASES -0.3010
-4.5554 CHAVALIER, -0.3010
-4.2544 CHAVEZ -0.2965
-4.5554 CHAVEZ. -0.3010
-4.2544 CHEADLE -0.2901
-4.5554 CHEAP -0.3010
-4.0783 CHECK -0.2949
-4.2544 CHECKED -0.2939
-4.5554 CHEER-UP -0.2999
-4.5554 CHEESE -0.3010
-4.5554 CHEESECAKE -0.3004
-4.5554 CHEESINESS -0.2944
-4.5554 CHEEZY -0.3009
-4.5554 CHEEZY. -0.3010
-4.0783 CHEMISTRY -0.2942
-4.5554 CHIAURELI,VERIKOAN -0.3010
-3.9534 CHILD -0.2951
-4.5554 CHILD'S -0.3010
-4.5554 CHILD--I -0.3010
-4.0783 CHILDHOOD -0.2941
-4.5554 CHILDLIKE -0.3008
-3.5554 CHILDREN -0.2869
-4.5554 CHILDREN. -0.3008
-4.5554 CHILDREN.",7,POS -0.2999
-4.5554 CHILLS -0.3010
-4.2544 CHINESE -0.3010
-4.5554 CHOCOLATE -0.3010
-4.5554 CHOICE. -0.2944
-4.5554 CHOOSE -0.2961
-4.5554 CHOPPILY -0.3010
-4.5554 CHORUS -0.3010
-4.5554 CHOSEN -0.3010
-4.5554 CHOSEN. -0.3008
-4.2544 CHRISTINA -0.3010
-4.5554 CHRISTINE -0.3010
-4.0783 CHRISTOPHER -0.2992
-4.5554 CHUCK -0.3010
-4.5554 CHUNKS.' -0.3009
-4.5554 CHURCH"" -0.2968
-4.5554 CHURCHILL -0.3010
-4.5554 CIA -0.3010
-4.5554 CIARIN -0.3010
-4.2544 CINDERELLA -0.2923
-4.2544 CINDERELLA, -0.2813
-4.0783 CINEMA -0.3010
-4.2544 CINEMA'S -0.3010
-4.2544 CINEMA, -0.3004
-4.2544 CINEMA. -0.2981
-4.5554 CINEMATIC -0.3010
-3.7773 CINEMATOGRAPHY -0.2894
-4.5554 CIRCLE, -0.3010
-4.5554 CITIES -0.2944
-4.5554 CITIZENS -0.3002
-4.5554 CITY -0.2999
-4.5554 CITY, -0.2882
-4.5554 CIVILIZED -0.3010
-4.5554 CLARKE -0.3007
-3.7773 CLASSIC -0.2973
-4.5554 CLASSIC, -0.2944
-4.2544 CLASSICS -0.2991
-4.5554 CLEANING -0.3006
-3.8565 CLEAR -0.2916
-4.5554 CLEARENCE -0.3010
-4.5554 CLEARLY -0.3008
-4.5554 CLEVELAND -0.3010
-4.5554 CLEVER -0.2994
-4.5554 CLEVER, -0.2882
-4.5554 CLICHE -0.3010
-4.5554 CLICHéS -0.2998
-4.5554 CLICHéS, -0.3002
-4.5554 CLICK -0.2995
-4.5554 CLIMBS -0.3009
-4.5554 CLINT -0.3010
-4.5554 CLIPPED -0.3008
-4.2544 CLIPS -0.3000
-4.5554 CLOSE -0.3010
-4.5554 CLOSE. -0.2882
-4.5554 CLOSELY -0.3002
-4.5554 CLOSING -0.2999
-4.5554 CLOSURE. -0.3010
-4.5554 CLOUDS -0.3010
-4.5554 CLOWN -0.2985
-4.5554 CLUB, -0.2944
-4.5554 CLUBS -0.3004
-4.5554 CODE -0.2952
-4.2544 COLD -0.3010
-4.2544 COLLEGE -0.3008
-4.5554 COLLETTE'S -0.3010
-4.5554 COLLETTE, -0.3010
-4.5554 COLONY -0.2952
-4.2544 COLONY, -0.2930
-4.5554 COLOURS -0.3001
-4.2544 COLUMBINE -0.2944
-4.5554 COLUMN, -0.2982
-4.5554 COMBINATION -0.2952
-4.2544 COME -0.3010
-4.5554 COME. -0.2985
-4.5554 COMEBACK -0.3001
-4.5554 COMEDIC -0.3009
-4.5554 COMEDIES -0.3010
-3.5554 COMEDY -0.2873
-3.9534 COMEDY, -0.2926
-4.5554 COMEDY-EXPLOITATION -0.3009
-4.5554 COMEDY. -0.3009
-4.5554 COMEDY.WHAT -0.3008
-3.7773 COMES -0.2947
-4.5554 COMICAL, -0.3010
-4.5554 COMING -0.3005
-4.5554 COMMANDING -0.3009
-4.5554 COMMENT -0.2986
-4.5554 COMMENTATOR -0.2986
-4.2544 COMMENTED -0.2975
-4.5554 COMMENTING -0.3010
-4.5554 COMMIT -0.2986
-4.5554 COMMON -0.3010
-4.5554 COMPANY.BRING -0.2982
-3.9534 COMPARED -0.2961
-4.0783 COMPELLING -0.2942
-4.5554 COMPETENT -0.3009
-4.5554 COMPILATION -0.3008
-3.9534 COMPLAINT -0.2954
-4.2544 COMPLETE -0.2971
-4.0783 COMPLETELY -0.3009
-4.2544 COMPLEX -0.3007
-4.2544 COMPLICATED -0.2938
-4.5554 COMPLICATED. -0.3000
-4.5554 COMPLICATION -0.3002
-4.2544 COMPOSED -0.3002
-4.5554 COMPOSER -0.2993
-4.5554 COMPOSERS, -0.3010
-4.5554 CONCEITED -0.3010
-4.5554 CONCENTRATED -0.2999
-4.5554 CONCENTRATES -0.2999
-4.2544 CONCERN -0.2932
-4.2544 CONCERNS -0.2948
-4.5554 CONCLUDED -0.3001
-4.5554 CONCLUSION.WHETHER -0.3005
-4.5554 CONDENSING -0.3010
-4.5554 CONDITION; -0.2882
-4.5554 CONFIDENCE. -0.2997
-4.2544 CONFRONT -0.2871
-4.5554 CONFRONTING -0.2986
-4.2544 CONFUSED -0.2989
-4.5554 CONFUSED, -0.3009
-4.2544 CONFUSING -0.2864
-4.5554 CONJUNCTIVITIS -0.2961
-4.5554 CONNERY -0.3005
-4.5554 CONSEQUENCE, -0.2982
-4.0783 CONSIDER -0.2881
-4.0783 CONSIDERED -0.3010
-4.5554 CONSIDERING -0.2986
-4.5554 CONSIDERS -0.2961
-4.2544 CONSISTS -0.2947
-4.5554 CONSTANTLY -0.3010
-4.5554 CONSTRUCTION -0.2944
-4.5554 CONTAINS -0.3007
-4.5554 CONTAINS, -0.3010
-4.5554 CONTENT -0.3010
-4.5554 CONTEST -0.3010
-4.5554 CONTEST, -0.3008
-4.5554 CONTINUED -0.2961
-4.5554 CONTINUITY, -0.2944
-4.5554 CONTINUITY--CINDERELLA -0.3008
-4.5554 CONTRARY, -0.3006
-4.5554 CONTRIBUTIONS -0.2961
-4.5554 CONTRIVED, -0.2944
-4.5554 CONTROL. -0.2986
-4.5554 CONTROVERSY -0.3003
-4.5554 CONVENTION, -0.2996
-4.5554 CONVENTIONAL -0.3008
-4.5554 CONVEY -0.2882
-4.5554 CONVICTED. -0.3007
-4.5554 COOKED -0.3006
-4.5554 COOKIE -0.3010
-4.2544 COOL -0.2944
-4.5554 COOL, -0.2944
-4.5554 COP -0.2996
-4.5554 COPY -0.3010
-4.5554 CORE -0.2952
-4.5554 CORMAN -0.3010
-4.5554 CORMAN-PRODUCED -0.3010
-4.5554 CORNY -0.2944
-4.5554 CORPORATE -0.3010
-4.2544 CORRECT -0.3010
-4.5554 CORRECT, -0.2995
-4.2544 COST -0.2998
-4.5554 COSTLY -0.3009
-4.5554 COSTUMES -0.2975
-4.5554 COSTUMING -0.2944
-3.3002 COULD -0.2971
-4.5554 COULD. -0.2982
-4.5554 COUNTEROFFER, -0.2997
-4.5554 COUNTING -0.3009
-4.2544 COUNTRIES. -0.2973
-4.5554 COUNTRY -0.3010
-4.5554 COUNTRYSIDE, -0.3004
-3.8565 COUPLE -0.2950
-4.5554 COUPLED -0.2996
-4.5554 COUPS -0.2944
-4.5554 COUPS. -0.2948
-4.5554 COURAGEOUS -0.2944
-3.9534 COURSE -0.2836
-3.9534 COURSE, -0.2974
-4.2544 COURSE. -0.2866
-4.5554 COURT -0.3005
-4.5554 COURTESAN -0.3010
-4.5554 COURTNEY -0.3010
-4.2544 COURTROOM -0.3010
-4.5554 COVER, -0.2995
-4.5554 COWORKER -0.2986
-4.5554 COX); -0.3001
-4.5554 COX. -0.2982
-4.5554 CRADLE -0.3001
-4.5554 CRAFTING -0.2944
-4.5554 CRAIG -0.3010
-4.5554 CRAP -0.2986
-4.5554 CRAPPY -0.3010
-4.5554 CRASH. -0.3008
-4.5554 CRAZED -0.3010
-3.7103 CRAZY -0.2928
-4.5554 CREAMED -0.3010
-4.5554 CREASEY'S -0.3010
-4.2544 CREASY -0.2968
-4.5554 CREASY, -0.3010
-4.2544 CREATE -0.2948
-4.5554 CREATED -0.3002
-4.5554 CREATING -0.3010
-4.5554 CREATORS -0.2952
-4.5554 CREATURE -0.3008
-4.2544 CREDIT -0.2982
-3.9534 CREEPY -0.2932
-4.2544 CREW -0.3007
-4.5554 CREW!",10,POS -0.2999
-4.5554 CREW. -0.2997
-4.5554 CRIED -0.3005
-4.0783 CRIME -0.2943
-4.0783 CRIMES -0.3010
-4.5554 CRIMES) -0.2968
-4.0783 CRIMINAL -0.2995
-4.5554 CRIMINALS, -0.2997
-4.5554 CRIPPLED, -0.2944
-4.5554 CRISIS -0.2975
-4.5554 CRISIS, -0.3008
-4.5554 CRISTY -0.3010
-4.5554 CRITICISM -0.2968
-4.5554 CRITICISMS -0.2985
-4.5554 CRITICS -0.2944
-4.5554 CROWD. -0.2982
-4.5554 CRUEL -0.3010
-4.5554 CRY -0.2944
-4.2544 CRYING -0.2936
-4.5554 CRYPTIC -0.3010
-4.5554 CUBE), -0.2944
-4.2544 CULT -0.3010
-4.2544 CULTURAL -0.3010
-4.2544 CULTURE -0.2950
-4.5554 CULTURE---IN -0.3007
-4.5554 CUP -0.3010
-4.5554 CURED -0.2952
-4.5554 CURSE -0.2952
-4.5554 CURSE. -0.3008
-4.5554 CURTIS -0.3010
-4.0783 CUT -0.2932
-4.5554 CUTESY -0.2961
-4.5554 CUTTER -0.3010
-4.5554 CUTTING-EDGE -0.3001
-4.5554 CYCLOPS -0.3010
-4.5554 CYCLOPS, -0.2948
-4.2544 DA -0.3010
-4.5554 DAISIES -0.2968
-4.5554 DAISY -0.3010
-4.5554 DAKOTA -0.3010
-4.5554 DALLAS -0.3010
-4.5554 DALTON -0.3004
-4.5554 DAM -0.3010
-4.5554 DAMN...THE -0.3010
-4.5554 DAN, -0.3007
-3.7773 DANCE -0.2867
-4.5554 DANCE"" -0.2968
-4.5554 DANCE. -0.3010
-4.5554 DANCER, -0.3004
-4.5554 DANCERS -0.2952
-4.2544 DANCING -0.3010
-4.5554 DANCING. -0.2944
-4.5554 DANDY, -0.2944
-4.5554 DANELIA -0.2968
-4.5554 DANGER -0.2952
-4.5554 DANGER, -0.3004
-4.5554 DANGEROUS -0.3010
-4.5554 DANIEL -0.3010
-4.5554 DANTE. -0.2948
-4.5554 DAOSHVILI -0.3010
-4.5554 DARE -0.2961
-4.5554 DARES -0.3002
-3.9534 DARK -0.3009
-4.5554 DARLENE -0.2996
-4.5554 DATE -0.3010
-4.5554 DATE.",7,POS -0.2999
-4.5554 DATED -0.2995
-4.5554 DAUGHTER -0.3010
-4.5554 DAVID -0.3010
-4.5554 DAVID, -0.2944
-4.5554 DAWN"". -0.2990
-4.5554 DAWN). -0.3001
-4.0783 DAY -0.2917
-4.5554 DAY, -0.2995
-4.2544 DAY-LEWIS -0.2882
-4.5554 DAY-LEWIS, -0.3003
-4.2544 DAY. -0.3000
-4.2544 DAYS -0.2946
-4.5554 DAYS, -0.3005
-4.5554 DAYS.",8,POS -0.2999
-4.5554 DC -0.3010
-4.5554 DC-OR -0.2990
-4.5554 DEAD. -0.2982
-4.5554 DEAF -0.3010
-4.5554 DEAL -0.2952
-4.5554 DEALER -0.3009
-4.5554 DEALERS -0.2961
-4.5554 DEALING -0.2996
-4.2544 DEALS -0.2867
-4.5554 DEALS. -0.3010
-4.5554 DEATH -0.2952
-4.2544 DEATH, -0.2939
-4.5554 DEATH. -0.2999
-4.5554 DEATH.THE -0.3009
-4.5554 DECADE.THE -0.3009
-4.5554 DECADENT -0.3008
-4.5554 DECADES -0.3006
-4.5554 DECEASED -0.3010
-4.5554 DECEIVE -0.2882
-4.5554 DECEIVED. -0.3010
-4.5554 DECENCY. -0.2975
-3.9534 DECENT -0.2991
-4.5554 DECEPTIVE -0.3010
-4.2544 DECIDE -0.2961
-4.5554 DECIDED -0.2961
-3.8565 DECIDES -0.2947
-4.5554 DECK."" -0.2944
-4.5554 DEDICATED -0.2961
-4.0783 DEEP -0.3009
-4.5554 DEEP.WATCH -0.2882
-4.2544 DEEPER -0.3007
-4.5554 DEFEAT---AUDLEY -0.3006
-4.5554 DEFENDING -0.2882
-4.5554 DEFINATELY -0.3009
-4.5554 DEFINED -0.2882
-3.8565 DEFINITELY -0.2929
-4.5554 DELIBERATE -0.3010
-4.5554 DELIBERATE. -0.3009
-4.5554 DELIBERATELY -0.3010
-4.5554 DELIGHTED -0.3002
-4.5554 DELIGHTFUL -0.2961
-4.2544 DELIVER -0.2882
-4.5554 DELIVERED -0.2993
-4.5554 DELIVERING -0.3010
-4.2544 DELIVERY -0.2952
-3.8565 DELL'ORCO"" -0.2967
-4.5554 DELL'ORCO"", -0.3010
-4.5554 DEMAND -0.2961
-3.9534 DEMON -0.3010
-4.5554 DEMON, -0.2997
-4.5554 DEMONIC -0.3010
-3.8565 DEMONS -0.2980
-4.5554 DEMONS, -0.2968
-4.5554 DEMONS...FOR -0.2882
-4.5554 DEMONSTRATE -0.2986
-3.7773 DENNIS -0.2915
-4.5554 DENSITY -0.2952
-4.5554 DENZEL -0.3010
-4.5554 DEPICT -0.2882
-4.5554 DEPRESSED -0.3010
-4.5554 DEPT. -0.3004
-4.2544 DEPTH -0.2952
-4.5554 DEPUTY -0.3010
-4.5554 DERANGEMENT -0.3010
-4.5554 DESECRATED -0.3010
-4.2544 DESERT -0.2968
-4.5554 DESERTED -0.3010
-4.5554 DESERVE, -0.3010
-4.5554 DESERVED, -0.2993
-4.0783 DESERVES -0.3004
-4.5554 DESIGNED -0.3010
-4.5554 DESIGNED, -0.2944
-4.5554 DESOLATE, -0.3010
-4.5554 DESPISED -0.3000
-4.5554 DESPISED, -0.2944
-4.0783 DESPITE -0.2874
-4.5554 DESTINY -0.3009
-4.5554 DESTINY---HIS -0.3009
-4.5554 DETAIL -0.3010
-4.5554 DETAILED -0.3010
-4.5554 DETAILED, -0.3005
-4.5554 DETECTIVE -0.3010
-4.5554 DETERRED -0.3008
-4.5554 DETROIT,WHEN -0.2997
-4.2544 DEVELOPED -0.2947
-4.5554 DEVELOPED, -0.3002
-4.5554 DEVELOPER -0.3004
-4.5554 DEVELOPING -0.3010
-4.5554 DEVELOPMENT, -0.2982
-4.5554 DEVELOPS -0.2948
-4.5554 DIALOG -0.3008
-4.5554 DIALOG, -0.3009
-4.0783 DIALOGUE -0.3007
-4.5554 DIAMOND -0.3010
-4.5554 DICK -0.3010
-4.5554 DICTATORSHIP -0.2952
-3.5140 DID -0.2896
-4.2544 DID. -0.2969
-3.5554 DIDN'T -0.2959
-4.5554 DIE -0.2993
-4.5554 DIE. -0.3007
-4.5554 DIE.'---THE -0.3004
-4.5554 DIED. -0.3004
-4.5554 DIES -0.2975
-4.2544 DIFFERENCE -0.2960
-3.7103 DIFFERENT -0.3008
-4.5554 DIFFERENT, -0.2995
-3.7773 DIFFICULT -0.2960
-4.5554 DIGGERS -0.2952
-4.5554 DIME -0.2948
-4.5554 DIMENSION -0.2952
-4.5554 DIMENSIONAL. -0.2948
-4.5554 DIMINISH, -0.3007
-4.5554 DINER -0.3009
-3.7773 DIRECTED -0.2951
-4.5554 DIRECTING -0.2952
-4.5554 DIRECTING. -0.2882
-4.0783 DIRECTION -0.2936
-4.5554 DIRECTION, -0.3009
-3.4415 DIRECTOR -0.2911
-4.5554 DIRECTOR! -0.3010
-4.2544 DIRECTOR, -0.3010
-4.5554 DIRECTOR. -0.3010
-4.5554 DIRECTOR/WRITER/MAIN -0.3010
-4.5554 DIRECTORIAL -0.3010
-4.0783 DIRECTORS -0.2941
-4.5554 DISAGREE, -0.3010
-4.5554 DISAPPEAR -0.2994
-4.5554 DISAPPEARED. -0.2948
-4.5554 DISAPPEARS. -0.3010
-4.5554 DISAPPOINTED -0.3002
-4.5554 DISAPPOINTED, -0.2995
-4.5554 DISAPPOINTED.",9,POS -0.2999
-4.5554 DISARMING -0.2961
-4.5554 DISASTER, -0.2944
-4.5554 DISASTER.ONE -0.2952
-4.5554 DISASTERS -0.3007
-4.5554 DISASTROUS -0.2952
-4.5554 DISCO), -0.2982
-4.5554 DISCONNECTED -0.3010
-4.5554 DISCONTINUE -0.3010
-4.5554 DISCOVER -0.2986
-4.5554 DISEASE. -0.2882
-4.5554 DISEASES -0.3009
-4.5554 DISENFRANCHISED -0.3010
-4.5554 DISMAL -0.3010
-3.8565 DISNEY -0.3004
-4.5554 DISNEY'S -0.3009
-4.5554 DISPLAY -0.3010
-4.5554 DISTRESSED -0.3002
-4.5554 DISTRICTS -0.3010
-4.5554 DISTURBED. -0.2985
-4.5554 DISTURBING, -0.2944
-4.5554 DJ -0.3010
-4.5554 DJAFARIDZE,SESILIA -0.3010
-3.2332 DO -0.2561
-4.5554 DO.",10,POS -0.2999
-4.0783 DOCTOR -0.2901
-4.5554 DOCTOR'S -0.3010
-4.5554 DOCTRINES -0.2952
-4.2544 DOCUMENTARIES -0.2975
-4.0783 DOCUMENTARY -0.2913
-4.5554 DODGY -0.2975
-3.3793 DOES -0.2833
-3.6523 DOESN'T -0.2997
-4.2544 DOG -0.2975
-3.7103 DOING -0.2862
-4.5554 DON -0.3010
-3.2332 DON'T -0.2967
-3.9534 DONE -0.2941
-4.5554 DONE, -0.3007
-4.2544 DONE. -0.2878
-4.2544 DOOLEY -0.2994
-4.5554 DOOLEY'S -0.3010
-4.5554 DOOR-TO-DOOR -0.3010
-4.5554 DOORS -0.3010
-4.0783 DOPPELGANGER -0.3005
-4.2544 DOUBT, -0.2985
-4.5554 DOUBT. -0.3010
-4.0783 DOUBTS -0.2875
-3.5140 DOWN -0.2760
-4.5554 DOWNSIDE -0.3004
-4.5554 DOZEN, -0.3004
-4.2544 DOZENS -0.2885
-4.5554 DRAG -0.3008
-4.5554 DRAGON, -0.3010
-4.0783 DRAMA -0.2924
-4.5554 DRAMA, -0.2944
-4.5554 DRAMAS -0.2948
-4.2544 DRAMATIC -0.3010
-4.5554 DREAMLIKE -0.2944
-4.2544 DRESS -0.2926
-4.5554 DRESSED -0.3006
-4.5554 DRESSES -0.2975
-3.8565 DREW -0.3008
-4.5554 DREWS -0.3008
-4.5554 DRIFTER -0.3010
-4.5554 DRILL -0.3010
-4.5554 DRIVE -0.2944
-4.5554 DRIVE-IN, -0.2944
-4.5554 DRIVER -0.2944
-4.5554 DRONE -0.3008
-4.5554 DRUG -0.3010
-4.5554 DRUNK, -0.3002
-4.5554 DUBBED -0.2948
-4.5554 DUBBING -0.2968
-3.8565 DUE -0.2961
-4.5554 DUG -0.3006
-4.5554 DULL, -0.2995
-4.5554 DUMB -0.3010
-4.5554 DUNDEE -0.3010
-3.7103 DURING -0.2875
-4.5554 DUSK -0.3010
-4.5554 DUSTIN -0.3010
-3.9534 DVD -0.2858
-4.5554 DVD! -0.2985
-4.5554 DVD, -0.3007
-4.5554 DVD.I -0.3009
-4.5554 DWELLERS -0.3003
-4.5554 DWIGHT -0.3010
-4.5554 DYING -0.2975
-4.5554 DYLAN -0.3010
-4.5554 DYLAN'S -0.3010
-4.5554 DéJà -0.3010
-4.5554 E, -0.3010
-4.2544 EA -0.3000
-3.4763 EACH -0.2926
-4.2544 EAGERLY -0.2994
-4.2544 EARLIER -0.2975
-4.5554 EARLIER. -0.2948
-4.5554 EARLIEST -0.3010
-3.7103 EARLY -0.2995
-4.5554 EARLY. -0.3005
-4.5554 EARSHOT, -0.2995
-4.5554 EARTH -0.3008
-4.5554 EARTH, -0.3005
-4.5554 EARTH-SHATTERING -0.3010
-4.5554 EARTHLY -0.3010
-4.5554 EASE -0.2975
-4.0783 EASILY -0.2934
-4.5554 EASILY.GRANTED, -0.3004
-4.5554 EAST) -0.3010
-4.0783 EASY -0.2959
-4.5554 EASY, -0.3009
-4.5554 EASYGOING -0.3010
-4.2544 EATING -0.2948
-4.5554 EATING,EATING -0.2944
-4.5554 EATING.IN -0.2882
-4.5554 ECONOMY -0.3009
-4.0783 EDGE -0.2934
-4.5554 EDITED -0.3008
-4.5554 EDITED; -0.2995
-4.5554 EDITING -0.2882
-4.5554 EDITING, -0.3001
-4.5554 EDO -0.2975
-4.5554 EDO, -0.3010
-4.5554 EDWARD -0.3010
-4.2544 EFFECT -0.2952
-4.5554 EFFECTIVE -0.3007
-4.5554 EFFECTIVE, -0.2995
-4.0783 EFFECTS -0.2932
-4.5554 EFFORTS -0.3002
-4.5554 EGGS -0.2975
-4.5554 EGLANTINE -0.2948
-4.2544 EGLIMATA -0.3005
-4.5554 EGO, -0.3010
-4.2544 EIGHTIES, -0.2981
-4.0783 EITHER -0.2879
-4.5554 EITHER. -0.2982
-4.5554 ELDERLY -0.3010
-4.5554 ELDEST -0.2952
-4.5554 ELECTED -0.3002
-4.5554 ELECTION -0.3008
-4.2544 ELEMENTS -0.2952
-4.5554 ELEVATES -0.3009
-4.5554 ELEVEN- -0.3010
-4.5554 ELITE -0.3010
-4.0783 ELSE -0.2953
-4.2544 ELSE. -0.2853
-4.5554 ELSEWHERE -0.3010
-4.5554 EMBARRASSED -0.3010
-4.5554 EMILIA -0.3010
-4.5554 EMINENT -0.3010
-4.5554 EMMA -0.3010
-4.5554 EMMA. -0.3006
-4.5554 EMOTION -0.2975
-4.5554 EMOTIONAL -0.3010
-4.5554 EMOTIONALLY -0.3010
-3.8565 EMOTIONS -0.2895
-4.5554 EMOTIONS: -0.3009
-4.5554 EMPHASIZE -0.3009
-4.5554 EMPLOYER -0.3010
-4.5554 EMPLOYERS, -0.2944
-4.5554 EMULATE -0.3010
-4.5554 EN -0.3010
-4.0783 ENCHANTED -0.2989
-4.5554 ENCOUNTER -0.2997
-4.5554 ENCOUNTERED -0.2948
-4.5554 ENCOUNTERS -0.2948
-4.5554 ENCOUNTERS. -0.2882
-3.6012 END -0.2863
-4.2544 END, -0.2943
-4.5554 END. -0.2948
-4.5554 ENDEAVORING -0.2961
-4.0783 ENDED -0.3006
-3.7773 ENDING -0.2897
-4.5554 ENDING! -0.2986
-4.5554 ENDINGS -0.3005
-4.5554 ENDLESS -0.3010
-3.9534 ENDS -0.2999
-4.5554 ENEMIES.IF -0.3000
-4.5554 ENEMY, -0.3010
-4.5554 ENFORCEMENT, -0.3010
-4.2544 ENGLAND -0.2979
-4.2544 ENGLAND, -0.3008
-4.2544 ENGLISH -0.3010
-4.5554 ENGROSSED -0.2996
-4.5554 ENHANCING -0.2882
-3.5554 ENJOY -0.2850
-4.5554 ENJOY, -0.3010
-4.5554 ENJOY.",9,POS -0.2999
-3.9534 ENJOYABLE -0.2992
-3.9534 ENJOYED -0.2851
-4.5554 ENJOYS -0.2882
-3.7773 ENOUGH -0.2887
-4.5554 ENSEMBLE -0.3010
-4.5554 ENSUES, -0.2944
-4.2544 ENTER -0.2881
-4.5554 ENTERED -0.3005
-4.5554 ENTERPRISE -0.3010
-4.5554 ENTERTAINED -0.2882
-4.0783 ENTERTAINING -0.3008
-4.5554 ENTERTAINMENT -0.2961
-4.5554 ENTERTAINMENT'---YET -0.2982
-4.5554 ENTERTAINMENT. -0.3010
-4.5554 ENTHRALLING, -0.3010
-4.5554 ENTHUSIAST -0.3003
-4.2544 ENTIRE -0.2996
-4.5554 ENTIRETY.GONE -0.2998
-4.2544 ENVY -0.2960
-4.5554 ENVY(EVIDENCED -0.3002
-4.5554 ENVY, -0.3000
-4.5554 ENVY? -0.3008
-4.5554 EPIC -0.3010
-4.2544 EPIC, -0.2995
-3.7773 EPISODE -0.2968
-4.5554 EPISODE, -0.2996
-4.5554 EPISODE. -0.3003
-3.9534 EPISODES -0.2917
-4.5554 EPISODES, -0.3010
-4.2544 EQUALLY -0.3008
-4.5554 EQUIPMENT. -0.3009
-4.0783 ERA -0.2980
-4.5554 ERA, -0.2982
-4.2544 ERA. -0.3003
-4.5554 ERA.OVERALL -0.2982
-4.5554 ERAS -0.2952
-4.5554 ERAS. -0.3006
-4.5554 ERIC -0.3010
-4.5554 ESCAPE -0.3009
-4.5554 ESOTERICS -0.2952
-4.5554 ESPECIAL -0.3010
-3.7773 ESPECIALLY -0.2878
-4.2544 ESSENCE -0.2952
-4.5554 ESSENTIALLY -0.2882
-4.2544 ESTATE -0.2944
-4.5554 ESTES, -0.3009
-4.5554 ESTHETICS -0.2998
-4.5554 ESTIMATE -0.3010
-4.5554 ETC... -0.3007
-4.5554 ETC.WHAT -0.3008
-4.5554 ETERNITY, -0.3005
-4.5554 EVACUATE -0.2882
-4.5554 EVACUATION, -0.3009
-3.1083 EVEN -0.2746
-4.5554 EVENT -0.3007
-3.9534 EVENTS -0.2898
-4.2544 EVENTUALLY -0.3004
-3.5554 EVER -0.2918
-4.5554 EVER!!!"" -0.3010
-4.5554 EVER!ACTORS -0.3002
-4.5554 EVER. -0.3004
-4.2544 EVERETT -0.3010
-3.4763 EVERY -0.2995
-4.5554 EVERYDAY -0.3008
-4.5554 EVERYMAN, -0.2882
-3.7773 EVERYONE -0.2987
-4.5554 EVERYONE, -0.3007
-4.5554 EVERYONE. -0.2882
-3.7103 EVERYTHING -0.2962
-4.5554 EVERYWHERE -0.3009
-4.5554 EVGENI -0.3010
-4.5554 EVIDENCES. -0.2994
-4.2544 EVIL -0.3008
-4.5554 EVOLVED -0.3010
-4.5554 EX-TEAMMATE -0.3010
-3.7773 EXACTLY -0.2808
-4.2544 EXAMPLE -0.2952
-4.0783 EXAMPLE, -0.2852
-4.5554 EXAMPLES. -0.2975
-4.5554 EXCEEDED -0.3010
-4.5554 EXCELLENCE -0.3001
-3.7103 EXCELLENT -0.2931
-4.0783 EXCELLENT, -0.2927
-4.5554 EXCELLENTLY -0.3010
-4.5554 EXCELLENTLY, -0.3010
-3.9534 EXCEPT -0.2865
-4.5554 EXCEPTIONS).WATCH -0.2948
-4.5554 EXCHANGE -0.3010
-4.5554 EXCITING -0.2944
-4.5554 EXCLUSIVELY -0.2994
-4.5554 EXILED -0.2961
-4.5554 EXONERATED.I -0.3008
-4.5554 EXPANSIVE -0.3008
-4.0783 EXPECT -0.2919
-4.2544 EXPECTATIONS -0.2942
-4.5554 EXPECTATIONS, -0.3001
-4.5554 EXPECTATIONS. -0.3010
-4.2544 EXPECTED -0.2853
-4.2544 EXPECTED, -0.2875
-4.0783 EXPECTING -0.2953
-4.5554 EXPENSE -0.2952
-4.5554 EXPENSIVE -0.3010
-4.5554 EXPERIENCED -0.3010
-4.5554 EXPERIENCES. -0.3010
-4.5554 EXPERT. -0.3010
-4.5554 EXPERTLY -0.3010
-4.5554 EXPLAIN -0.2948
-4.2544 EXPLAINS -0.2932
-4.5554 EXPLANATION: -0.3010
-4.5554 EXPLODE -0.3010
-4.5554 EXPLOITATION.TAKE -0.3010
-4.5554 EXPLORATIONS -0.3010
-4.5554 EXPLORED -0.3009
-4.5554 EXPLOSION. -0.3010
-4.5554 EXPOSED, -0.3010
-4.5554 EXPRESSING -0.3010
-4.2544 EXPRESSION -0.2901
-4.5554 EXQUISITELY -0.3010
-4.5554 EXTRA -0.3010
-4.5554 EXTRA-MARITAL -0.3010
-4.5554 EXTRAS -0.3009
-4.5554 EXTREME -0.3010
-3.8565 EXTREMELY -0.3005
-4.5554 EYE -0.3010
-4.2544 EYE, -0.2813
-4.5554 EYES -0.2952
-4.5554 EYRE.BY -0.2882
-4.5554 EYRED -0.3010
-3.9534 FACE -0.2878
-4.5554 FACE, -0.2993
-4.5554 FACE.UNLIKE -0.3007
-4.5554 FACED -0.2975
-4.5554 FACED, -0.3008
-4.5554 FACILITY -0.2986
-4.2544 FACING -0.2882
-3.6012 FACT -0.2924
-4.0783 FACT, -0.3000
-4.5554 FACTOR. -0.2982
-4.5554 FADE -0.3009
-4.5554 FADED -0.3010
-4.5554 FADS, -0.2998
-4.5554 FAHEY -0.3010
-4.5554 FAILING -0.3010
-4.5554 FAILURE -0.2975
-4.5554 FAIR -0.2961
-4.2544 FAIRLY -0.3009
-4.5554 FAIRY -0.3010
-4.5554 FAIRY-TALES. -0.2882
-4.5554 FALL -0.2975
-4.0783 FALLING -0.2994
-4.5554 FALLON -0.2995
-4.5554 FALLS -0.2975
-4.5554 FALSE -0.3010
-4.2544 FAMILIAR -0.3010
-4.5554 FAMILIAR. -0.3008
-4.5554 FAMILIES -0.3003
-3.4763 FAMILY -0.2940
-4.5554 FAMILY, -0.2975
-4.5554 FAMOUS.ANYONE -0.3010
-3.6012 FAN -0.2920
-4.5554 FAN. -0.2982
-4.5554 FANNING -0.2944
-4.5554 FANNING) -0.2944
-4.2544 FANS -0.2939
-4.5554 FANS. -0.3010
-4.5554 FANS.",10,POS -0.2999
-4.5554 FANTASIA -0.3010
-3.9534 FANTASTIC -0.2942
-4.2544 FANTASTIC. -0.2985
-4.5554 FANTASY -0.3010
-4.5554 FANTASY/SWORDPLAY -0.3010
-4.5554 FANTASY/SWORDPLAY/COMEDY -0.3008
-3.6012 FAR -0.2984
-4.2544 FAR, -0.2881
-4.5554 FASCINATING -0.2993
-4.2544 FASHION -0.2917
-4.5554 FASHION, -0.3007
-4.5554 FASHIONS, -0.3010
-4.5554 FATALE -0.3009
-4.2544 FATE -0.2902
-3.9534 FATHER -0.2960
-4.5554 FATHER-FIGURE -0.3005
-4.5554 FAULTS -0.2944
-4.2544 FAVORITE -0.2989
-4.5554 FAVORITES -0.3009
-4.2544 FAVOURITE -0.2994
-4.5554 FAVOURITES -0.3010
-4.5554 FEAR -0.2952
-4.5554 FEAR, -0.2944
-4.5554 FEARED -0.3010
-4.5554 FEARING -0.2882
-4.5554 FEARSOME -0.3010
-4.2544 FEATURE -0.2948
-4.5554 FEATURED -0.2975
-4.2544 FEATURES -0.3009
-4.5554 FEATURES, -0.2975
-4.5554 FEDERATION -0.3010
-3.6012 FEEL -0.2856
-4.5554 FEELING -0.2986
-4.0783 FEELINGS -0.2885
-4.5554 FEELINGS. -0.2985
-3.8565 FEELS -0.2931
-4.5554 FELL -0.3005
-4.5554 FELLOW -0.3010
-4.0783 FELT -0.2986
-3.9534 FEMALE -0.2967
-4.5554 FEMME -0.3010
-4.5554 FEND -0.3009
-4.5554 FEST -0.2952
-4.5554 FESTIVAL -0.3010
-4.2544 FESTIVAL. -0.2982
-4.5554 FETCHING. -0.2986
-4.5554 FEUDING -0.2944
-3.3002 FEW -0.2930
-4.5554 FIFTIES, -0.3009
-4.5554 FIGHT -0.3010
-4.5554 FIGHT(HELL -0.3010
-4.2544 FIGHTING -0.2994
-4.5554 FIGHTS, -0.2996
-4.5554 FIGURE -0.2961
-4.5554 FIGURE. -0.2982
-4.5554 FILL -0.3001
-4.5554 FILLED -0.2996
-2.6862 FILM -0.2472
-4.2544 FILM! -0.3005
-4.5554 FILM'S -0.3010
-4.5554 FILM). -0.3004
-3.4093 FILM, -0.2842
-3.6523 FILM. -0.2827
-4.5554 FILM.",10,POS -0.2999
-4.5554 FILM....THE -0.3010
-4.5554 FILM.THE -0.3010
-4.5554 FILM: -0.3006
-4.2544 FILMED -0.2974
-4.5554 FILMED. -0.2985
-4.2544 FILMING -0.2945
-4.5554 FILMMAKERS -0.2998
-3.3250 FILMS -0.2807
-3.6523 FILMS, -0.2862
-4.5554 FILMS--HOW -0.2982
-4.5554 FILMS. -0.3010
-4.5554 FILMS.",7,POS -0.2999
-4.5554 FILMS.4/25/08==I -0.3004
-4.5554 FILMS: -0.3009
-4.5554 FILMSCHOOL, -0.3007
-4.5554 FILTER -0.2944
-3.9534 FINAL -0.3009
-4.0783 FINALE -0.2939
-4.5554 FINALIZING -0.3009
-4.5554 FINALLY -0.3009
-4.5554 FINALLY; -0.3005
-3.3250 FIND -0.2861
-4.5554 FIND. -0.2985
-4.5554 FINDING -0.2948
-4.2544 FINDS -0.3004
-3.7773 FINE -0.2941
-4.2544 FINEST -0.2917
-4.5554 FINEST. -0.3010
-4.2544 FINISH -0.2982
-4.5554 FINISHED. -0.3010
-4.5554 FIRE -0.2986
-4.2544 FIRE"" -0.2968
-4.5554 FIRE, -0.2882
-4.5554 FIRES -0.3008
-4.5554 FIRESIDE -0.3010
-4.5554 FIRESTORM -0.2952
-4.5554 FIRM -0.3010
-3.3250 FIRST -0.2888
-4.5554 FIRST.AS -0.2982
-4.2544 FITS -0.2881
-4.2544 FIVE -0.3009
-4.5554 FIX, -0.2995
-4.5554 FIXATION -0.2996
-4.5554 FLAMBOYANT -0.3010
-4.5554 FLASHY -0.3010
-4.5554 FLAT--WE -0.3008
-4.5554 FLAV, -0.3010
-4.5554 FLAVA -0.3010
-4.2544 FLAWS -0.2909
-4.5554 FLEET -0.3006
-4.5554 FLEETING, -0.2997
-4.5554 FLICK -0.2968
-4.5554 FLICK, -0.3006
-4.5554 FLICK.MY -0.3010
-4.5554 FLLOW -0.3010
-4.5554 FLOODING -0.2952
-4.5554 FLOPS. -0.2985
-4.2544 FLOW -0.2943
-4.5554 FLOWERS -0.2944
-4.5554 FLU -0.3001
-4.5554 FLUFFY -0.3010
-4.2544 FLUTE -0.2956
-4.5554 FLUTE.NOT -0.3010
-4.5554 FLYING -0.3010
-4.2544 FLYING, -0.2882
-4.5554 FLYING. -0.3008
-4.5554 FLYNN -0.3010
-4.5554 FOCH'S -0.3009
-4.5554 FOCUS -0.2999
-4.5554 FOCUSES -0.3005
-4.5554 FOCUSING -0.2999
-4.5554 FOIBLES -0.2944
-4.2544 FOLKLORE -0.2968
-3.9534 FOLKS -0.2996
-4.0783 FOLLOW -0.2865
-4.2544 FOLLOWED -0.3010
-3.8565 FOLLOWING -0.2852
-4.2544 FOLLOWS -0.2967
-4.5554 FOLLOWS, -0.2996
-4.5554 FONTAINE -0.2944
-4.5554 FONTAINE'S -0.3010
-4.5554 FOOD! -0.2882
-4.5554 FOODS, -0.2944
-4.2544 FOOT"" -0.2978
-4.5554 FOOTAGE.",8,POS -0.2999
-4.5554 FOOTBALL -0.3009
-4.5554 FOOTBALL. -0.2975
-2.4382 FOR -0.2624
-4.5554 FOR, -0.2944
-4.5554 FORCE -0.2944
-4.5554 FORCE. -0.3005
-4.2544 FORCED -0.2925
-4.5554 FORCES -0.3008
-4.5554 FORESTALL -0.3010
-4.5554 FOREVER, -0.2982
-4.5554 FOREVER. -0.3009
-4.0783 FORGET -0.3008
-4.5554 FORGIVE -0.3010
-4.5554 FORGOT -0.2994
-4.5554 FORMATIVE -0.3010
-4.2544 FORMER -0.3010
-4.5554 FORMS -0.2944
-4.5554 FORMULA -0.2968
-4.2544 FORMULAIC -0.2992
-4.5554 FORTH. -0.2985
-4.5554 FORTUNE. -0.2948
-4.5554 FORTUNES -0.3010
-3.8565 FORWARD -0.2961
-3.5140 FOUND -0.2829
-4.2544 FOUR -0.3009
-4.5554 FOURTH -0.3010
-4.5554 FOX. -0.2985
-4.5554 FOXY -0.3010
-4.5554 FRAGMENT -0.2975
-4.5554 FRANCE. -0.3010
-4.5554 FRANCES -0.3010
-4.2544 FRANK -0.3010
-4.5554 FRANKLIN, -0.2990
-4.5554 FRANKLY -0.3005
-4.5554 FREAK -0.3009
-4.5554 FREAKED -0.3005
-4.5554 FREAKS -0.3005
-4.2544 FREED -0.3009
-3.8565 FRENCH -0.2993
-4.5554 FRENZY -0.2986
-4.5554 FRENZY. -0.3001
-4.2544 FREQUENTLY -0.2993
-4.5554 FREQUENTS. -0.2982
-4.5554 FRESH -0.3010
-4.5554 FRESHMAN -0.2968
-4.5554 FRESHMAN--IT'S -0.3010
-4.5554 FRIED -0.3010
-3.7103 FRIEND -0.2877
-4.5554 FRIENDLY -0.3010
-3.8565 FRIENDS -0.2936
-4.5554 FRIENDS! -0.3010
-4.5554 FRIENDS, -0.3010
-4.5554 FROLIC, -0.3010
-2.7773 FROM -0.2682
-4.5554 FRONT -0.2952
-4.5554 FROZEN -0.3010
-4.5554 FRUSTRATING -0.2986
-4.2544 FULCI'S -0.3009
-4.5554 FULFILLED -0.3000
-3.9534 FULL -0.2951
-4.5554 FULL-LENGTH -0.3010
-4.2544 FULLY -0.3010
-3.4415 FUN -0.2781
-4.5554 FUN. -0.3010
-4.5554 FUNDRAISER/SALESMAN. -0.2882
-4.5554 FUNNIER -0.3007
-4.0783 FUNNIEST -0.3006
-3.8565 FUNNY -0.3000
-4.5554 FUNNY, -0.3010
-4.2544 FUNNY. -0.2876
-4.5554 FURLONG -0.2944
-4.5554 FURNISHINGS, -0.3010
-4.5554 FUSS -0.2990
-4.2544 FUTURE -0.3010
-4.5554 FUTURE. -0.2882
-4.5554 FUZZY -0.2944
-4.5554 GAGS -0.3010
-4.5554 GAINED -0.3001
-4.5554 GALE -0.2952
-4.5554 GALORE- -0.3009
-3.4763 GAME -0.2700
-4.5554 GAME! -0.3000
-4.5554 GAMEPLAY. -0.3004
-4.5554 GAMES -0.2944
-4.2544 GAMES. -0.2979
-4.5554 GAMES.I -0.3009
-4.5554 GANGS. -0.3010
-4.2544 GANGSTER -0.3009
-4.5554 GARSH -0.2997
-4.5554 GATHER -0.2882
-3.9534 GAVE -0.3004
-4.5554 GAY -0.3009
-4.5554 GEM. -0.3004
-3.9534 GENE -0.2923
-4.5554 GENERAL -0.3010
-4.0783 GENERALLY -0.3010
-4.5554 GENERATE -0.3010
-4.5554 GENERIC -0.3010
-4.5554 GENEROUSLY -0.3010
-4.5554 GENETICS -0.3010
-4.5554 GENIUS -0.2952
-3.7103 GENRE -0.2913
-4.2544 GENRE'S -0.2952
-4.5554 GENRE, -0.2994
-4.2544 GENRE. -0.2996
-4.5554 GENRE.",10,POS -0.2999
-4.5554 GENTEEL -0.3010
-4.0783 GENUINELY -0.3005
-4.5554 GENUINENESS -0.2952
-3.9534 GEORGE -0.3008
-4.5554 GEORGE, -0.3010
-4.5554 GEORGIA -0.2961
-4.2544 GEORGIAN -0.3009
-4.5554 GEORGY -0.3010
-4.5554 GERALD/GERALDINE -0.2944
-4.5554 GERIATRIC -0.3010
-4.5554 GERMOGEL) -0.2968
-4.2544 GERSHWIN -0.3009
-4.2544 GERSHWIN, -0.2868
-4.5554 GERSHWINS -0.3010
-3.1752 GET -0.2802
-3.5140 GETS -0.2742
-4.0783 GETTING -0.2942
-4.5554 GHARANAS -0.2968
-4.5554 GHOST -0.3010
-4.5554 GHULAM -0.2944
-4.5554 GIANNINI) -0.2986
-4.5554 GIFTED, -0.2944
-4.5554 GIFTS, -0.2990
-4.5554 GIGGLES -0.3010
-4.2544 GIMMICKS -0.2928
-4.2544 GINA -0.2989
-4.5554 GINA. -0.2997
-4.0783 GIRL -0.2956
-4.5554 GIRL"" -0.3010
-4.5554 GIRL-CHILD, -0.3009
-4.5554 GIRLFRIEND. -0.2882
-4.5554 GIRLHOOD -0.2944
-4.5554 GIRLS. -0.2961
-3.4763 GIVE -0.2800
-4.2544 GIVEN -0.2817
-4.5554 GIVER -0.3010
-4.0783 GIVES -0.2938
-3.9534 GIVING -0.2817
-4.2544 GLENN -0.3010
-4.5554 GLOBAL -0.3010
-4.5554 GLORY -0.2952
-4.5554 GLORY. -0.2882
-3.1752 GO -0.2831
-4.5554 GO, -0.2995
-4.2544 GOD -0.3008
-4.5554 GOD'S -0.3010
-4.2544 GOD, -0.2879
-4.2544 GOD. -0.2875
-4.5554 GODDESS -0.3010
-4.5554 GODFATHER -0.2982
-3.7103 GOES -0.2951
-4.5554 GOES, -0.2882
-4.5554 GOES...HE -0.2968
-3.2332 GOING -0.2920
-4.5554 GOLDEN -0.3010
-4.5554 GONE -0.2961
-4.5554 GONE---SO -0.3008
-2.9534 GOOD -0.2917
-4.5554 GOOD! -0.3010
-4.5554 GOOD!",7,POS -0.2999
-4.2544 GOOD, -0.2960
-3.9534 GOOD. -0.2953
-4.5554 GOOD.",7,POS -0.2999
-4.5554 GOOD.,8,POS -0.2999
-4.5554 GOODHEARTED -0.3010
-4.5554 GOODNIGHT -0.3010
-4.5554 GOODS, -0.2993
-4.5554 GOOFS -0.3010
-4.5554 GORE -0.2968
-4.2544 GORGEOUS, -0.3005
-3.4763 GOT -0.2848
-4.5554 GOTTA -0.3008
-4.5554 GOVERNMENT(MANY -0.3010
-4.5554 GOWN -0.2993
-4.5554 GPM-GUILTY -0.3010
-4.5554 GRACE, -0.3010
-4.5554 GRADER. -0.2995
-4.5554 GRADUATION. -0.3008
-4.5554 GRAND -0.3010
-4.2544 GRAPHICS -0.2952
-4.5554 GRASP -0.2952
-4.5554 GRASP. -0.3010
-4.5554 GRASP.",9,POS -0.2999
-4.5554 GRASS -0.3010
-4.5554 GRATUITOUS -0.3010
-4.5554 GRATUITUS -0.3010
-4.2544 GRAVE -0.2975
-4.5554 GRAVEYARD -0.3005
-4.5554 GRAVITAS -0.2944
-2.9872 GREAT -0.2865
-4.5554 GREAT! -0.3010
-3.9534 GREAT, -0.2931
-4.2544 GREAT. -0.3008
-4.5554 GREAT.HELEN -0.3010
-3.8565 GREATEST -0.2917
-4.5554 GREATEST. -0.2995
-4.5554 GREATS -0.2968
-4.5554 GREECE -0.3004
-3.9534 GREEK -0.2942
-4.5554 GREEN -0.3010
-4.5554 GREW -0.3006
-4.5554 GREYTACK, -0.3010
-4.5554 GRIM -0.3010
-4.5554 GRIPPING -0.3010
-4.5554 GRISBY'S -0.3010
-4.5554 GRISBY, -0.3010
-4.5554 GRIT. -0.3000
-4.5554 GROOVE -0.3010
-4.5554 GROUNDHOG -0.3010
-4.2544 GROUP -0.2952
-4.5554 GROUPS -0.3010
-4.5554 GROWING, -0.3010
-4.5554 GUARANTEE -0.3000
-4.5554 GUARD -0.3002
-3.8565 GUESS -0.2948
-4.5554 GUESS.",7,POS -0.2999
-4.5554 GUESS..?THEY -0.3008
-4.5554 GUEST -0.3010
-4.5554 GUIDE -0.2994
-4.5554 GUILTY -0.2994
-4.2544 GUITAR -0.3010
-4.2544 GUN, -0.2947
-3.8565 GUNDAM -0.3007
-4.5554 GUS -0.3010
-4.5554 GUSTO -0.3002
-4.5554 GUSTO. -0.3010
-3.9534 GUY -0.2916
-4.2544 GUY, -0.3002
-4.0783 GUYS -0.2968
-4.5554 GUYS! -0.3006
-4.2544 GUéTARY -0.2996
-4.5554 GWYNETH -0.3010
-4.5554 H.G. -0.3010
-3.0930 HAD -0.2872
-4.5554 HAD. -0.3009
-4.5554 HADN'T -0.3010
-4.2544 HAINES -0.2966
-4.5554 HALF. -0.2982
-4.5554 HALLIDAY, -0.3003
-4.5554 HALLUCINATIONS -0.3010
-4.0783 HAMLET -0.2960
-4.5554 HAMMY -0.3001
-4.5554 HAMPER -0.2999
-4.5554 HAND -0.3008
-4.5554 HAND, -0.2961
-4.5554 HANDFUL -0.2952
-4.5554 HANDLE -0.2948
-4.5554 HANDLE. -0.2982
-4.5554 HANDLED, -0.2996
-4.5554 HANDLED. -0.2985
-4.5554 HANDS -0.3007
-4.5554 HANDS",10,POS -0.2999
-4.5554 HANDSOME -0.2994
-4.2544 HANGS -0.3004
-4.2544 HAPPEN -0.3010
-4.5554 HAPPEN.",9,POS -0.2999
-4.2544 HAPPENED -0.2960
-4.5554 HAPPENED. -0.2982
-4.5554 HAPPENING -0.3008
-4.5554 HAPPENS -0.3010
-4.5554 HAPPENS).THE -0.3001
-4.5554 HAPPILY, -0.2882
-3.7773 HAPPY -0.2950
-4.5554 HAPPY.BOTTOM -0.3010
-4.5554 HARALAMBOPOULOS, -0.3010
-3.7103 HARD -0.2829
-4.2544 HAROLD -0.2968
-4.5554 HARRIET -0.3010
-4.5554 HARSH -0.3009
-4.5554 HARTLEY -0.2993
-4.5554 HARVARD -0.2968
-2.8394 HAS -0.2753
-4.0783 HASN'T -0.3005
-4.5554 HAT -0.2995
-4.5554 HAT, -0.3010
-4.2544 HATED -0.3009
-2.7359 HAVE -0.2674
-4.5554 HAVE, -0.2995
-4.5554 HAVE. -0.3009
-4.5554 HAVEN'T -0.3009
-3.5140 HAVING -0.2811
-4.5554 HAWAII -0.2944
-4.5554 HAWKING'S -0.3007
-4.0783 HAYWORTH -0.2998
-4.5554 HAYWORTH, -0.3003
-4.5554 HAZARDOUS -0.3010
-4.5554 HAZE -0.3001
-2.5062 HE -0.2883
-3.6523 HE'S -0.2942
-4.5554 HEADBANGERS -0.2975
-4.5554 HEADLINE -0.3010
-4.2544 HEALTH -0.3010
-4.5554 HEAR -0.2982
-4.0783 HEARD -0.2945
-4.5554 HEARFELT -0.3010
-4.5554 HEARING -0.3010
-3.9534 HEART -0.2952
-4.5554 HEART.MY -0.3010
-4.5554 HEARTED -0.3010
-4.5554 HEAVEN. -0.3000
-4.5554 HEAVY, -0.3009
-4.5554 HECK -0.2952
-4.2544 HEEL -0.3001
-3.8565 HELP -0.2929
-4.5554 HELPING -0.3005
-4.2544 HELPS -0.2960
-4.5554 HELPS. -0.3009
-4.5554 HENRI -0.3010
-2.9120 HER -0.2883
-3.9534 HER, -0.2928
-3.9534 HER. -0.2971
-4.5554 HER... -0.3010
-3.9534 HERE -0.2932
-4.5554 HERE!!SUMMARY: -0.3010
-3.8565 HERE, -0.2882
-4.2544 HERE. -0.2982
-4.5554 HERO.AS -0.3009
-4.2544 HEROINE -0.2952
-4.5554 HEROINE. -0.2882
-4.2544 HERSELF, -0.2977
-4.5554 HERSELF... -0.3004
-4.5554 HETEROSEXUALS). -0.2882
-4.5554 HIDING -0.2999
-3.6523 HIGH -0.3009
-4.5554 HIGHEST -0.3010
-4.5554 HIGHLIGHT -0.2952
-4.5554 HIGHLIGHTING -0.3010
-4.2544 HIGHLY -0.3009
-4.5554 HIGHLY. -0.3006
-4.5554 HIGHTOWER -0.3010
-4.2544 HILARIOUS -0.3010
-4.5554 HILARIOUS, -0.3001
-4.2544 HILARIOUS. -0.2872
-4.5554 HILL -0.3008
-4.2544 HILLIARD. -0.3010
-4.5554 HILTON -0.2961
-3.3793 HIM -0.2832
-4.5554 HIM, -0.3009
-4.0783 HIM. -0.2850
-3.5140 HIMSELF -0.2757
-4.5554 HIMSELF.LESLIE -0.3010
-4.5554 HINDS -0.3010
-4.5554 HIPNESS, -0.2986
-4.0783 HIRED -0.2952
-2.6312 HIS -0.2878
-4.5554 HISTORIANS, -0.3010
-4.5554 HISTORIC -0.3010
-4.5554 HISTORICAL -0.3010
-3.8565 HISTORY -0.2925
-4.5554 HISTORY. -0.2985
-4.5554 HIT -0.3010
-4.2544 HIT-MAN -0.2997
-4.5554 HITS -0.2944
-4.5554 HODGE-PODGE -0.2952
-4.5554 HOFFMAN -0.3001
-4.5554 HOKEY---WHILE -0.3010
-4.2544 HOLD -0.3007
-3.7103 HOLLYWOOD -0.2941
-4.5554 HOLLYWOOD'S -0.3007
-4.5554 HOLLYWOOD, -0.3002
-4.5554 HOLLYWOOD. -0.2986
-4.5554 HOLMES -0.2968
-4.2544 HOLMES. -0.2881
-4.5554 HOMAGE -0.2961
-4.0783 HOME -0.2967
-4.2544 HOME, -0.3002
-4.2544 HOME. -0.2877
-4.5554 HOMEMADE -0.3010
-4.5554 HOMETOWN'S -0.3010
-4.5554 HOMOSEXUALS -0.3010
-4.5554 HONEST -0.2996
-4.5554 HONESTLY -0.3007
-4.5554 HONESTLY, -0.2882
-4.5554 HONESTY, -0.3009
-4.5554 HONG -0.3010
-4.5554 HONOR'---'HUMANITY -0.3009
-4.5554 HONOR.THE -0.3007
-4.5554 HONORARY -0.3010
-4.5554 HOOFER'S -0.3010
-4.0783 HOPE -0.2930
-4.5554 HOPES... -0.2982
-4.5554 HOPPER). -0.2995
-4.5554 HORRENDOUS -0.3010
-4.5554 HORRIBLE -0.3010
-4.5554 HORRIFIC -0.2993
-3.6012 HORROR -0.2924
-4.5554 HORROR' -0.2982
-4.5554 HOSTESS. -0.2882
-4.5554 HOSTILE -0.3010
-4.5554 HOSTILITY, -0.2961
-4.2544 HOUR -0.2944
-4.5554 HOURS -0.3008
-4.5554 HOURS. -0.3010
-4.0783 HOUSE -0.2959
-4.5554 HOUSE, -0.2944
-4.2544 HOUSE. -0.3000
-3.1575 HOW -0.2791
-4.5554 HOWARD, -0.3010
-4.5554 HOWARD. -0.2882
-3.9534 HOWEVER -0.2848
-3.7773 HOWEVER, -0.2809
-4.0783 HUGE -0.3009
-4.5554 HUGELY -0.3010
-3.8565 HUMAN -0.2943
-4.5554 HUMAN, -0.2952
-4.5554 HUMANITY? -0.2882
-4.5554 HUMANS, -0.3007
-4.0783 HUMOR -0.2916
-4.2544 HUMOR, -0.2894
-4.5554 HUMOUR -0.2952
-4.2544 HUNG -0.2993
-4.5554 HUNT -0.2990
-4.5554 HURLED -0.3008
-4.5554 HURT'S -0.3010
-4.5554 HURTING -0.3010
-3.9534 HUSBAND -0.2941
-4.2544 HUSBAND, -0.3009
-4.5554 HYPOCHONDRIAC -0.2944
-2.2416 I -0.2886
-4.2544 I'D -0.3001
-4.2544 I'LL -0.2999
-3.4415 I'M -0.2932
-3.8565 I'VE -0.3005
-4.5554 I, -0.3010
-4.5554 IAMASEAL2@YAHOO.COM",10,POS -0.2999
-4.5554 IAN -0.3010
-4.2544 ICE -0.3010
-4.5554 ICONIC -0.2961
-4.5554 IDA -0.2998
-3.9534 IDEA -0.2926
-4.5554 IDEA.ROCK -0.2944
-4.5554 IDEAL -0.3010
-4.5554 IDENTITY -0.3010
-4.5554 IDENTITY, -0.2997
-2.9022 IF -0.2644
-4.5554 IGNORE -0.3010
-4.5554 ILL -0.2944
-4.2544 IMAGE -0.2952
-4.5554 IMAGES -0.2952
-4.5554 IMAGES. -0.2982
-4.5554 IMAGINATION -0.3010
-4.5554 IMAGINATIVE -0.3010
-4.0783 IMAGINE -0.2948
-4.5554 IMAX, -0.2995
-4.5554 IMDB -0.3003
-4.5554 IMDBERS, -0.2985
-4.5554 IMHO.",7,POS -0.2999
-4.5554 IMITATE -0.3008
-4.2544 IMMATURE -0.3000
-4.5554 IMMENSELY -0.3010
-4.5554 IMMERSES -0.3009
-4.5554 IMPACT -0.2999
-4.5554 IMPASSIONED -0.3010
-4.5554 IMPERFECTIONS -0.3007
-4.0783 IMPORTANT -0.3003
-4.5554 IMPORTANT, -0.2982
-4.0783 IMPOSSIBLE -0.2961
-4.5554 IMPOSSIBLE, -0.3010
-4.5554 IMPOTENT -0.3010
-4.5554 IMPRESSED -0.2996
-4.5554 IMPRESSIONIST -0.3010
-4.5554 IMPRESSIVE -0.3010
-2.0976 IN -0.2410
-4.5554 IN, -0.3010
-4.5554 IN---'WHICH -0.3010
-4.5554 IN.CAGNEY -0.2968
-4.5554 IN.THE -0.2996
-4.5554 INABILITY -0.2961
-4.5554 INCLUDE -0.3010
-4.5554 INCLUDED -0.3010
-4.0783 INCLUDING -0.2872
-4.5554 INCOMPARABLE -0.3010
-4.5554 INCOMPREHENSIBLE -0.3010
-4.2544 INCREDIBLE -0.3010
-4.5554 INCREDIBLE, -0.2944
-4.5554 INCREDIBLY -0.3010
-4.5554 INDEED -0.3010
-4.5554 INDEED. -0.2882
-4.2544 INDEPENDENT -0.3000
-4.0783 INDIAN -0.3009
-4.5554 INDIVIDUAL -0.3009
-4.5554 INDUCED -0.3010
-4.5554 INDUSTRIALIST -0.3010
-4.5554 INEXPENSIVE -0.3010
-4.5554 INFAMOUS -0.3010
-4.5554 INFANT -0.3010
-4.5554 INFESTED -0.3010
-4.5554 INFLUENCED -0.3002
-4.5554 INFLUENTIAL -0.3010
-4.5554 INFO -0.3010
-4.5554 INFO, -0.3010
-4.5554 INFORMATION, -0.2985
-4.5554 INFORMED -0.2986
-4.5554 INGENIOUS.",10,POS -0.2999
-4.5554 INHABITANTS, -0.3000
-4.5554 INHERIT -0.3010
-4.5554 INHERITED -0.3003
-4.5554 INITIAL -0.3010
-3.8565 INNOCENT -0.2943
-4.5554 INNOCENT. -0.2994
-4.5554 INQUISITIVE -0.3004
-4.5554 INSATIABLE -0.3010
-4.2544 INSIDE -0.2960
-4.5554 INSIDE, -0.3010
-4.5554 INSIDE. -0.3005
-4.5554 INSIGHTFUL -0.3010
-4.5554 INSISTS -0.3004
-4.5554 INSPIRED -0.2882
-4.5554 INSTALLMENT -0.2961
-4.5554 INSTALMENTS -0.2993
-4.0783 INSTANCE, -0.2840
-4.5554 INSTANTS -0.2986
-3.9534 INSTEAD -0.2938
-4.5554 INSTEAD.THE -0.3010
-4.5554 INSULT -0.3008
-4.5554 INSURANCE -0.3010
-4.5554 INSURED -0.2975
-4.5554 INTELLIGENCE -0.3010
-4.5554 INTELLIGENCE. -0.3006
-4.2544 INTELLIGENT -0.2944
-4.5554 INTENDED -0.2975
-4.5554 INTENDED, -0.3010
-4.5554 INTENDS -0.2961
-4.5554 INTENSITY, -0.3002
-4.5554 INTERACTIONS -0.3010
-4.5554 INTERCUTTING -0.3009
-4.5554 INTEREST -0.3007
-4.0783 INTERESTED -0.2975
-3.7103 INTERESTING -0.3005
-4.5554 INTERESTING, -0.3010
-4.0783 INTERESTING. -0.2850
-4.5554 INTERESTING: -0.3002
-4.5554 INTERNATIONAL -0.3001
-4.5554 INTERNET, -0.3010
-4.2544 INTERPRETATION -0.2952
-4.5554 INTERRUPTED -0.3002
-4.5554 INTERTWINE -0.3010
-4.5554 INTERVENES, -0.2993
-4.5554 INTERVIEWS -0.3010
-3.2130 INTO -0.2768
-4.5554 INTO. -0.3009
-4.2544 INTRIGUING -0.3009
-4.2544 INTRODUCE -0.2991
-4.5554 INVETERATE -0.3010
-4.5554 INVOLVEMENTS -0.2996
-4.5554 IPOLITE -0.3010
-4.5554 IRA -0.3010
-4.5554 IRAN -0.2944
-4.0783 IRANIAN -0.3010
-4.5554 IRENE -0.3010
-4.2544 IRISH -0.3010
-4.5554 IRONICALLY -0.3009
-4.5554 IRONICALLY-DETACHED -0.3009
-4.5554 IRRITATING -0.3008
-4.5554 IRRITATING.BUT -0.2882
-4.5554 IRVING -0.3010
-2.0114 IS -0.2283
-3.9534 IS, -0.2883
-4.5554 IS,(PARAPHRASED) -0.3010
-4.2544 IS. -0.2991
-4.5554 IS... -0.2999
-4.5554 IS; -0.3010
-4.5554 ISLAND, -0.3010
-4.5554 ISLAND. -0.2882
-3.4415 ISN'T -0.2799
-3.9534 ISSUE -0.2939
-4.5554 ISSUES, -0.2986
-2.1937 IT -0.2278
-3.9534 IT! -0.2807
-4.5554 IT!",10,POS -0.2999
-2.8479 IT'S -0.2868
-4.5554 IT) -0.3004
-4.5554 IT). -0.3009
-3.6523 IT, -0.2891
-4.5554 IT--BUT -0.3009
-3.2767 IT. -0.2828
-4.5554 IT."" -0.2968
-4.5554 IT.",7,POS -0.2999
-4.5554 IT.",8,POS -0.2999
-4.5554 IT.BRANDO -0.3010
-4.5554 IT: -0.2948
-4.2544 IT? -0.2982
-3.9534 ITALIAN -0.3009
-2.9322 ITS -0.2796
-4.2544 ITSELF -0.2973
-4.5554 ITSELF, -0.3010
-4.2544 ITSELF. -0.3007
-4.2544 IZUMO -0.3009
-4.5554 IZUMO, -0.3004
-4.5554 IZUMO...SOME -0.3010
-4.5554 IZURUHA, -0.2948
-4.5554 J.T. -0.3010
-3.9534 JACK -0.2989
-4.5554 JACKSON -0.2975
-4.5554 JACKSON'S -0.3010
-4.5554 JAFAR -0.3010
-4.5554 JAIL -0.2990
-4.5554 JAIL?"". -0.2882
-4.5554 JAKU -0.3010
-4.0783 JAMES -0.3010
-4.2544 JANE -0.3010
-4.2544 JAPAN -0.2901
-4.5554 JAPAN. -0.3010
-4.5554 JAPAN...OH -0.3010
-4.5554 JAPANESE -0.3010
-4.5554 JEALOUS -0.3010
-4.5554 JEANNOT -0.3010
-4.5554 JEFF -0.3010
-4.5554 JEREMY -0.3010
-4.5554 JERSEY -0.2997
-4.5554 JIM, -0.3010
-4.5554 JIMMY -0.3010
-4.2544 JOAN -0.3010
-3.9534 JOB -0.2979
-4.2544 JOB, -0.2944
-4.5554 JOBS -0.2975
-4.5554 JOE -0.3010
-4.5554 JOEY -0.2975
-4.5554 JOEY, -0.2882
-3.4093 JOHN -0.3008
-4.5554 JOHNSON -0.2993
-4.5554 JOHNSON, -0.3010
-4.5554 JOKE -0.3004
-4.2544 JOKES -0.2935
-4.5554 JOSEF -0.3010
-4.5554 JOURNEY -0.2961
-4.5554 JOY -0.2952
-4.5554 JOY, -0.2944
-4.5554 JOYRIDE -0.2999
-4.5554 JUGGLES -0.2882
-4.2544 JULIET -0.2968
-4.5554 JUNIOR -0.2975
-2.8394 JUST -0.2730
-4.5554 JUSTIFYING -0.3005
-4.5554 KABUKI -0.3010
-4.5554 KANE), -0.3007
-4.5554 KATE -0.3010
-4.5554 KATHAK -0.3010
-4.5554 KAVOGIANNI -0.3010
-4.5554 KAY -0.3010
-3.8565 KEEP -0.2881
-4.5554 KEEPING -0.2975
-4.5554 KEEPS -0.3010
-4.5554 KELLY -0.3010
-4.5554 KELLY.THE -0.3010
-4.2544 KEN -0.3010
-4.5554 KENNETH -0.3010
-4.2544 KENNY -0.2944
-4.5554 KENTUCKY -0.3010
-4.0783 KEPT -0.2997
-4.5554 KESEY -0.2944
-4.5554 KETTY -0.3010
-4.5554 KICK -0.3010
-4.5554 KICK-ASS.IT -0.3010
-4.5554 KICKOFF. -0.3010
-4.0783 KID -0.2982
-4.5554 KID. -0.2982
-4.5554 KIDNAPPED -0.2944
-4.5554 KIDNAPPING -0.2944
-3.7773 KIDS -0.2996
-4.2544 KIDS, -0.2934
-3.7103 KILL -0.2994
-4.0783 KILLED -0.3008
-4.5554 KILLER -0.2975
-3.9534 KILLER. -0.2881
-4.5554 KILLERS. -0.2985
-4.2544 KILLING -0.2947
-4.5554 KILLS -0.3008
-4.5554 KILMER -0.3004
-3.8565 KIND -0.2952
-4.0783 KINDA -0.3010
-4.5554 KINDS -0.3010
-4.2544 KING -0.2931
-4.5554 KING. -0.2882
-4.5554 KIRK -0.3010
-4.5554 KIRK, -0.3010
-4.5554 KITCHEN -0.3010
-3.6012 KNEW -0.2925
-4.5554 KNEW, -0.2995
-4.5554 KNIFE- -0.3005
-4.5554 KNIGHTLEY, -0.3010
-3.3513 KNOW -0.2731
-4.5554 KNOW.",10,POS -0.2999
-4.5554 KNOW.AND -0.3010
-3.9534 KNOWING -0.2939
-4.0783 KNOWLEDGE -0.2928
-3.8565 KNOWN -0.2968
-3.8565 KNOWS -0.2962
-4.5554 KNOWS), -0.3009
-4.5554 KONG'S -0.3010
-4.5554 KONSTADINOU -0.2944
-4.2544 KORDA -0.2880
-4.5554 KORDA'S -0.3010
-4.5554 KORDA, -0.3003
-4.5554 KOTE -0.3010
-4.5554 KUDOS -0.3007
-4.5554 KUMAR -0.3010
-4.5554 KUMAR........KAMAL -0.3010
-4.2544 KUMARI -0.2944
-4.5554 KUMARI'S -0.3010
-4.5554 KUMARI, -0.2882
-4.5554 LA -0.3010
-4.5554 LACK -0.2952
-4.5554 LACKING. -0.3010
-4.5554 LACKLUSTRE -0.2975
-4.5554 LACKS -0.2882
-4.5554 LADIES -0.2944
-3.5554 LADY -0.2943
-4.5554 LADY-LIKE...NO -0.3010
-4.5554 LAMBERTO -0.3010
-4.2544 LAME -0.3010
-4.5554 LANDIS, -0.2944
-4.5554 LANDS. -0.2985
-4.5554 LAND -0.2882
-4.5554 LANGUAGE -0.2961
-4.5554 LANSBURY -0.3010
-4.5554 LANSBURY'S -0.3010
-3.9534 LARGE -0.3009
-4.2544 LARGER -0.3007
-3.6523 LAST -0.3006
-3.8565 LATE -0.3010
-4.5554 LATELY, -0.3010
-3.6523 LATER -0.2925
-4.0783 LATER, -0.2998
-4.5554 LATER. -0.2982
-4.5554 LATEST -0.3010
-4.5554 LATTER -0.2968
-3.9534 LAUGH -0.2933
-4.5554 LAUGH. -0.3000
-4.5554 LAUGHED -0.3004
-4.2544 LAUGHING -0.2991
-4.5554 LAUGHING.EVERY -0.3010
-4.5554 LAUGHS, -0.2882
-4.5554 LAUGHS. -0.2975
-4.5554 LAUGHTER, -0.3010
-3.8565 LAW -0.3009
-4.5554 LAWS -0.2952
-4.5554 LAWYERS -0.3010
-4.5554 LAZERS -0.2944
-3.9534 LEAD -0.2951
-4.5554 LEADER -0.3005
-4.0783 LEADING -0.3009
-4.5554 LEARN -0.3004
-4.2544 LEARNING -0.2976
-4.0783 LEARNS -0.2986
-4.5554 LEARY -0.3010
-3.6012 LEAST -0.2908
-4.5554 LEAST). -0.3010
-4.5554 LEAST, -0.3006
-4.5554 LEAST. -0.3010
-3.8565 LEAVE -0.2870
-4.5554 LEAVE. -0.3005
-4.0783 LEAVES -0.2869
-4.2544 LEAVING -0.2996
-4.5554 LED -0.3008
-3.8565 LEFT -0.3005
-4.5554 LEFTOVER -0.3003
-4.5554 LEGAL -0.2944
-4.5554 LEGS -0.2952
-4.5554 LEISURELY -0.3010
-4.5554 LENGTHY -0.3010
-4.5554 LEONARDO -0.2975
-4.5554 LEONOV -0.2944
-4.5554 LESBIAN -0.3010
-4.0783 LESS -0.3010
-4.0783 LESSER -0.2951
-4.5554 LESSON -0.3010
-4.5554 LESSONS,BUT -0.3010
-3.8565 LET -0.3006
-4.5554 LET'S -0.3010
-4.5554 LETTING -0.3008
-4.5554 LEVANT -0.2990
-4.5554 LEVEL, -0.2982
-4.5554 LEVEL. -0.2985
-4.5554 LEVELS -0.2982
-4.5554 LIBERALLY, -0.3000
-4.5554 LIBRARIAN'S -0.3010
-4.5554 LIBRARIAN. -0.3010
-4.5554 LIBRARIAN.THE -0.3010
-4.5554 LIBRARY. -0.3000
-4.2544 LIE -0.3002
-4.2544 LIED -0.2898
-4.5554 LIES -0.3001
-3.2332 LIFE -0.2691
-4.5554 LIFE! -0.2985
-4.5554 LIFE"" -0.2997
-4.5554 LIFE'. -0.3010
-4.2544 LIFE, -0.2941
-4.2544 LIFE. -0.3005
-4.5554 LIFE... -0.2982
-4.5554 LIFE.PERHAPS -0.3009
-4.5554 LIFE.THE -0.3009
-3.7103 LIGHT -0.2930
-4.2544 LIGHT, -0.2944
-4.2544 LIKABLE -0.2944
-4.5554 LIKABLE, -0.3009
-4.5554 LIKABLE.THE -0.3010
-2.7425 LIKE -0.2538
-3.7103 LIKED -0.2972
-4.5554 LIKED. -0.2882
-4.5554 LIKELY -0.2961
-3.8565 LINDSAY -0.2869
-4.5554 LINDSAY. -0.3004
-4.2544 LINE -0.2952
-4.5554 LINE"", -0.2944
-4.5554 LINE.",10,POS -0.2999
-4.5554 LINE; -0.2882
-4.2544 LINES -0.3009
-4.5554 LINES, -0.3009
-4.2544 LINES. -0.2985
-4.5554 LIOTTA -0.3008
-4.5554 LISA -0.3010
-4.2544 LISTENER -0.2968
-3.2767 LITTLE -0.2988
-4.2544 LITTLE, -0.3010
-4.5554 LITTLE.",9,POS -0.2999
-3.5554 LIVE -0.2843
-4.2544 LIVED -0.2909
-4.5554 LIVES -0.2975
-4.5554 LIVES, -0.3005
-4.2544 LIVING -0.2996
-4.5554 LLOYD -0.3010
-4.5554 LLOYD'S -0.2882
-4.0783 LOCAL -0.3008
-3.7773 LONG -0.3006
-4.5554 LONG, -0.2985
-4.5554 LONG. -0.2997
-4.0783 LONGER -0.3003
-4.5554 LONGER. -0.2982
-3.3513 LOOK -0.2750
-4.5554 LOOK. -0.3010
-3.8565 LOOKED -0.2994
-3.8565 LOOKING -0.2984
-4.5554 LOOKING. -0.3010
-3.6523 LOOKS -0.2872
-4.5554 LOONY, -0.3010
-4.5554 LORD -0.2985
-4.2544 LOSE -0.2955
-4.5554 LOSER -0.3003
-4.5554 LOSER, -0.2995
-4.2544 LOSES -0.3005
-4.0783 LOSING -0.2853
-4.5554 LOST -0.2975
-4.5554 LOST"". -0.3009
-4.5554 LOST,SO -0.2961
-4.5554 LOST.",10,POS -0.2999
-3.5554 LOT -0.2938
-4.5554 LOT!!",10,POS -0.2999
-4.5554 LOT. -0.3010
-3.9534 LOTS -0.2952
-4.5554 LOTTERY, -0.2944
-4.2544 LOUD -0.3007
-4.5554 LOUIS -0.2944
-4.5554 LOVABLENESS, -0.2948
-3.3250 LOVE -0.2691
-4.2544 LOVE, -0.2995
-4.5554 LOVE-STORY -0.3004
-4.5554 LOVE...AND -0.3010
-3.9534 LOVED -0.2973
-4.5554 LOVELIER -0.2944
-4.5554 LOVELIER'? -0.2986
-4.0783 LOVELY -0.3010
-4.5554 LOVER, -0.3000
-4.2544 LOVERS -0.2944
-4.5554 LOVES -0.2961
-4.5554 LOVING -0.3009
-4.0783 LOW -0.3010
-4.5554 LOWER -0.3010
-4.5554 LOWLIFES -0.2997
-4.5554 LUCIO -0.3010
-4.2544 LUCKY -0.3009
-4.5554 LUNG -0.2968
-4.5554 LUSH. -0.3010
-4.5554 LUSTING -0.3008
-3.8565 LYLE -0.2893
-4.5554 LYNCH -0.3010
-4.5554 LYRICISM -0.2944
-4.5554 LYRICIST -0.2944
-4.5554 M. -0.3010
-3.2767 MADE -0.2634
-4.5554 MADE, -0.2995
-4.5554 MAGIC -0.3010
-4.5554 MAGICAL -0.3010
-4.5554 MAGNIFICENT -0.2993
-4.5554 MAIL, -0.2944
-3.7773 MAIN -0.3008
-4.0783 MAINLY -0.3002
-4.5554 MAJOR -0.3010
-4.5554 MAJORITY -0.2952
-3.1083 MAKE -0.2717
-3.2332 MAKES -0.2736
-3.8565 MAKING -0.2912
-4.2544 MALE -0.3008
-4.5554 MALEFICENT, -0.2975
-4.5554 MALEVOLENT -0.3010
-3.3513 MAN -0.2755
-4.0783 MAN, -0.2919
-4.5554 MAN,"" -0.2944
-4.5554 MAN. -0.2995
-4.5554 MANAGE -0.3010
-4.5554 MANAGE.THE -0.3009
-4.2544 MANAGES -0.2961
-4.5554 MANGA. -0.3004
-4.5554 MANHATTAN -0.2961
-4.5554 MANIAC. -0.2882
-4.5554 MANIPULATE -0.2882
-4.5554 MANIPULATION -0.2952
-4.5554 MANN.",8,POS -0.2999
-4.5554 MANNER -0.2986
-4.5554 MANNER, -0.3010
-3.2332 MANY -0.2862
-4.5554 MANZANO -0.3010
-4.5554 MARCO -0.2968
-4.5554 MARIA -0.3010
-4.5554 MARIETTE -0.3010
-4.5554 MARINE -0.3010
-3.9534 MARK -0.3007
-4.5554 MARKET -0.3010
-4.2544 MARLON -0.3010
-3.9534 MARRIED -0.2944
-4.5554 MARRIES -0.2948
-4.2544 MARTIAL -0.3010
-4.2544 MARTIN -0.3010
-4.2544 MARY -0.3010
-4.0783 MARY. -0.2939
-4.5554 MARYLAND -0.3001
-4.5554 MASKED -0.3010
-4.5554 MASSACRE -0.2944
-4.5554 MASSACRE.IZUMO -0.3010
-4.5554 MASSES -0.3008
-4.5554 MASSEY'S -0.3010
-4.5554 MASTER -0.3010
-4.5554 MASTERFUL -0.3010
-4.5554 MASTERLY -0.3010
-4.2544 MASTERPIECE -0.2952
-4.5554 MASTERPIECE). -0.3010
-4.5554 MASTERPIECE, -0.2944
-4.5554 MASTERPIECE. -0.2985
-4.5554 MASTERPIECE.GRADE: -0.3010
-4.5554 MASTERPIECES -0.3009
-4.5554 MASTERS -0.3001
-4.5554 MASTERSON)WANTED -0.2961
-3.8565 MATCH -0.2937
-4.5554 MATERIAL -0.2944
-4.5554 MATT -0.3010
-4.2544 MATTER -0.2949
-4.5554 MATTER) -0.2986
-4.5554 MATTERED -0.2944
-4.5554 MATURE -0.3007
-4.5554 MATURELY, -0.2994
-4.5554 MAURICE -0.3010
-4.5554 MAX -0.2990
-3.6523 MAY -0.2981
-3.6523 MAYBE -0.2903
-4.5554 MAYER -0.3009
-4.5554 MAYER, -0.2968
-4.5554 MAYOR -0.2952
-4.5554 MCBAIN -0.2968
-4.2544 MCCOY -0.2990
-4.5554 MCKENZIE, -0.2995
-3.2332 ME -0.2766
-4.0783 ME, -0.2878
-4.5554 ME.",10,POS -0.2999
-4.5554 ME.THIS -0.2968
-4.2544 MEAN -0.2948
-4.5554 MEANING, -0.2986
-4.5554 MEANS -0.2986
-4.5554 MEAT -0.3010
-3.9534 MEDIA -0.2969
-4.5554 MEDIA, -0.2882
-4.5554 MEDIATION -0.2999
-4.5554 MEEK, -0.3010
-4.2544 MEENA -0.3010
-4.5554 MEENA'S -0.3010
-4.5554 MEET -0.3009
-4.5554 MEET....IN -0.3010
-4.5554 MEETING -0.3010
-4.0783 MEETS -0.2781
-4.5554 MELANGE -0.2986
-4.5554 MELODIES -0.2968
-4.5554 MELODRAMA, -0.3010
-4.5554 MEMBER -0.2952
-4.5554 MEMBER, -0.3003
-3.9534 MEMBERS -0.2883
-4.2544 MEMORABLE -0.3008
-4.5554 MEMORY. -0.2982
-3.9534 MEN -0.2934
-4.5554 MEN'S -0.3010
-4.2544 MEN. -0.2923
-4.5554 MENACING -0.3010
-4.5554 MENTAL -0.3010
-4.5554 MENTALITY, -0.2986
-4.2544 MENTIONED -0.3010
-4.5554 MENTIONED)ARE -0.3010
-4.5554 MENTIONED, -0.2993
-4.5554 MENTIONS -0.2982
-4.2544 MERE -0.3009
-4.5554 MERELY -0.3010
-4.5554 MERYL -0.3010
-4.5554 MESH -0.3010
-4.5554 MESS.IT'S -0.3009
-4.2544 MESSAGE -0.2986
-4.5554 MESSAGES -0.2944
-4.5554 MESSAGES, -0.2985
-4.5554 MET -0.3008
-3.7773 METAL -0.2926
-4.5554 METAL. -0.2944
-4.5554 METHOD -0.3009
-4.5554 METICULOUS -0.3010
-4.5554 MEXICO -0.3010
-4.2544 MGM -0.2944
-4.5554 MICE! -0.3010
-3.7773 MICHAEL -0.2943
-4.5554 MICHELE -0.3010
-4.5554 MID -0.2961
-4.2544 MIDDLE -0.3010
-4.5554 MIDDLE. -0.2985
-4.5554 MIDDLING -0.3010
-3.9534 MIGHT -0.2986
-4.5554 MILLER -0.3010
-4.5554 MILLION -0.3010
-4.5554 MILLION, -0.2982
-4.5554 MILO -0.2961
-4.5554 MIMICKING -0.3010
-3.9534 MIND -0.2875
-4.5554 MIND-BOGGLING -0.3010
-4.5554 MINDS -0.3002
-4.5554 MINDS. -0.2975
-4.5554 MINE"" -0.3010
-4.5554 MINELLI -0.2996
-4.5554 MINUTE -0.3008
-3.7103 MINUTES -0.2938
-4.5554 MINUTES, -0.3010
-4.5554 MIRACLE -0.3010
-4.5554 MIRROR, -0.3010
-4.5554 MISE -0.3010
-4.5554 MISERY -0.3010
-4.5554 MISINFORMATION, -0.2882
-4.5554 MISLEADING -0.3010
-4.5554 MISLEADING, -0.2882
-3.8565 MISS -0.2976
-4.5554 MISS.STARTING -0.3003
-4.5554 MISSED -0.3005
-4.5554 MISSES -0.2948
-4.2544 MISSING -0.2977
-4.5554 MISSION.FOR -0.3007
-4.5554 MISTAKE -0.3002
-4.2544 MISTAKEN -0.2994
-4.5554 MITCHELL). -0.3010
-4.5554 MITCHELL. -0.2882
-4.2544 MIX -0.2952
-4.5554 MIXED -0.3010
-4.2544 MOBILE -0.3010
-4.5554 MOCKUMENTARY -0.3004
-4.5554 MODERATELY -0.3010
-4.5554 MODERN -0.3010
-4.5554 MOGULS -0.2952
-4.5554 MOLLY -0.3010
-4.0783 MOMENT -0.2946
-4.5554 MOMENT, -0.3010
-3.9534 MOMENTS -0.2885
-4.0783 MOMENTS, -0.2890
-4.5554 MOMENTS.",7,POS -0.2999
-4.5554 MOMENTS.THEIR -0.3008
-4.0783 MONEY -0.2953
-4.5554 MONEY), -0.2882
-4.0783 MONEY, -0.2944
-4.5554 MONEY. -0.2975
-4.5554 MONGER -0.2968
-4.5554 MONO -0.3010
-4.5554 MONTAGE -0.2952
-4.5554 MONTHS, -0.3001
-4.2544 MONTREAL -0.2994
-4.5554 MONUMENTAL -0.2944
-4.5554 MOON. -0.3004
-4.5554 MOONWALKER -0.2961
-4.5554 MOPE -0.3010
-4.5554 MORAL -0.3010
-4.5554 MORANT"". -0.2975
-4.5554 MORBID -0.3010
-2.9120 MORE -0.2842
-4.0783 MORE. -0.2982
-4.5554 MORE.",7,POS -0.2999
-4.5554 MORES -0.3010
-4.5554 MORNING, -0.3010
-4.5554 MOSQUE -0.2968
-3.0641 MOST -0.2986
-4.2544 MOSTLY -0.3000
-4.5554 MOTHER, -0.2944
-4.5554 MOTIFS -0.2944
-4.5554 MOTION -0.3010
-4.5554 MOUSE -0.2944
-4.5554 MOUSE'. -0.2948
-4.2544 MOVE -0.2988
-4.5554 MOVEMENT -0.2944
-4.2544 MOVES -0.3010
-2.4985 MOVIE -0.2428
-4.5554 MOVIE! -0.3010
-4.5554 MOVIE!!!!! -0.3000
-4.5554 MOVIE!",10,POS -0.2999
-4.5554 MOVIE",10,POS -0.2999
-4.5554 MOVIE'S -0.3010
-4.5554 MOVIE). -0.3008
-3.4415 MOVIE, -0.2945
-3.3793 MOVIE. -0.2751
-4.5554 MOVIE.",10,POS -0.2999
-3.9534 MOVIE.",7,POS -0.2999
-4.5554 MOVIE...I -0.3009
-4.5554 MOVIE.8/10",8,POS -0.2999
-4.5554 MOVIE.IF -0.3000
-4.5554 MOVIE.TO -0.3000
-4.5554 MOVIE: -0.3008
-3.3002 MOVIES -0.2751
-3.9534 MOVIES, -0.2957
-4.5554 MOVIES. -0.3007
-4.5554 MOVIES.THE -0.3009
-4.5554 MOVING -0.3010
-4.0783 MR -0.3010
-3.9534 MR. -0.3010
-4.2544 MR.TOM -0.2961
-4.5554 MS -0.3010
-4.5554 MS, -0.3010
-4.0783 MS. -0.3010
-3.1937 MUCH -0.2683
-4.5554 MUCH.",7,POS -0.2999
-4.2544 MUDDLED -0.2975
-4.5554 MULTI-AWARD -0.3010
-4.5554 MULTI-DIMENSIONAL -0.3010
-4.5554 MULTI-PLANE -0.3010
-4.0783 MURDER -0.3002
-4.5554 MURDERED -0.3002
-4.5554 MURDEROUS -0.3010
-4.5554 MURKY -0.3009
-3.6012 MUSIC -0.2804
-4.0783 MUSIC, -0.2900
-4.5554 MUSIC. -0.3010
-3.4093 MUSICAL -0.2810
-4.5554 MUSICAL) -0.2990
-4.5554 MUSICAL.) -0.2985
-4.0783 MUSICALS -0.3002
-4.2544 MUSICALS, -0.2995
-4.5554 MUSICALS. -0.3004
-4.5554 MUSICIANS -0.3010
-4.5554 MUSINGS, -0.2944
-3.5140 MUST -0.2991
-4.5554 MUST'VE -0.3007
-4.5554 MUST-SEE -0.2994
-2.9991 MY -0.2997
-3.7773 MYSELF -0.2812
-4.2544 MYSELF, -0.2943
-4.2544 MYSTERIOUS -0.3008
-4.5554 MYSTERY -0.3007
-4.5554 NAGS -0.3008
-4.5554 NAILED -0.2882
-4.2544 NAIVE -0.3007
-4.0783 NAME -0.2969
-4.5554 NAME, -0.2982
-4.2544 NAMED -0.3010
-4.2544 NAMES -0.2909
-4.2544 NANCY -0.3010
-4.5554 NARRATE -0.2882
-4.5554 NARRATIVE -0.2996
-4.5554 NATHAN -0.3010
-4.5554 NATION'S -0.3010
-4.5554 NATIVE -0.3010
-4.0783 NATURAL -0.2942
-4.5554 NATUREIT -0.2968
-4.5554 NAVIGATE -0.3000
-4.0783 NEARLY -0.2992
-4.5554 NECKS, -0.2882
-4.0783 NEED -0.2957
-4.5554 NEED? -0.3010
-4.5554 NEEDLESS) -0.3010
-3.9534 NEEDS -0.2898
-4.5554 NEITHER -0.3001
-4.5554 NETWORK? -0.2995
-4.5554 NEUROTIC -0.2944
-4.5554 NEUTRAL -0.3010
-3.1241 NEVER -0.2923
-4.2544 NEVERTHELESS -0.2968
-4.5554 NEVERTHELESS, -0.2985
-3.4763 NEW -0.2942
-4.5554 NEWBIE -0.3010
-4.5554 NEWNESS -0.2975
-4.5554 NEWT -0.2996
-4.5554 NEWTYPES -0.3010
-4.5554 NEXT -0.3010
-4.2544 NEXT. -0.2852
-4.5554 NEXT?THE -0.3009
-3.7773 NICE -0.2893
-4.5554 NICE-LOOKING -0.3010
-4.5554 NICKNAME -0.3010
-4.5554 NIGH. -0.2882
-3.7773 NIGHT -0.2943
-4.5554 NIGHT, -0.3010
-4.5554 NIGHTMARE -0.3003
-4.5554 NIGHTMARE. -0.2882
-4.5554 NIGHTMARES.THIS -0.3010
-4.5554 NIGHTMARISH -0.3010
-4.5554 NIGHTS -0.2968
-4.5554 NIGHTS), -0.2944
-4.5554 NIKAH -0.3010
-4.5554 NIKOLAIDIS -0.2995
-4.5554 NINA -0.3010
-4.5554 NINE -0.2990
-3.2332 NO -0.2990
-4.5554 NO, -0.3008
-4.5554 NOBILITY. -0.3009
-4.5554 NOBODY -0.3009
-4.5554 NOD -0.2952
-4.0783 NOIR -0.3007
-4.5554 NOMINATED -0.2994
-4.5554 NONE -0.2952
-4.5554 NONETHELESS -0.3010
-4.5554 NONSENSICAL -0.3010
-4.0783 NOR -0.3005
-3.9534 NORMAL -0.3008
-4.5554 NORMALLY -0.2968
-4.5554 NORTH -0.3010
-4.5554 NORTHAM -0.3009
-4.5554 NOSE-THUMBING -0.3001
-4.5554 NOSTALGIA -0.3010
-2.6981 NOT -0.2576
-4.0783 NOT, -0.2983
-4.2544 NOT. -0.2853
-4.5554 NOTABLY -0.3003
-4.5554 NOTE -0.3008
-4.0783 NOTED -0.3000
-4.5554 NOTES, -0.2944
-3.4415 NOTHING -0.2875
-4.2544 NOTHING, -0.2999
-4.5554 NOTHING.'---THEN -0.2882
-4.5554 NOTICE.THE -0.3009
-4.5554 NOVEL -0.2944
-3.7773 NOW -0.2964
-4.5554 NOW! -0.3004
-4.5554 NOW) -0.2982
-4.5554 NOW, -0.2993
-4.5554 NOW,"" -0.2993
-4.5554 NOW. -0.3000
-4.5554 NUANCE -0.2952
-4.5554 NUDE -0.3010
-4.5554 NUDE. -0.3000
-4.5554 NUDITY. -0.3005
-4.0783 NUMBER -0.2952
-4.5554 NUMBER, -0.2968
-4.2544 NUMBERS -0.2994
-4.5554 NUMBERS. -0.2882
-4.5554 NURSES -0.2975
-4.5554 NWA -0.2944
-4.5554 NWA), -0.3010
-4.5554 NWH. -0.3003
-4.5554 O'CLOCK, -0.2975
-4.5554 O'HARA, -0.2882
-4.5554 O'LEARY, -0.2882
-4.5554 O'LEARY.",9,POS -0.2999
-4.2544 OBLIGATORY -0.3010
-4.5554 OBSESSED -0.3010
-4.2544 OBSESSION -0.2953
-4.2544 OBTAIN -0.2946
-4.5554 OBTRUSIVE -0.2975
-4.0783 OBVIOUS -0.2980
-3.7773 OBVIOUSLY -0.2835
-4.5554 OBVIOUSLY, -0.2975
-4.5554 OCCASIONALLY -0.3006
-4.5554 ODD -0.3010
-4.5554 ODD, -0.3010
-4.5554 ODDYSEY, -0.3008
-1.8760 OF -0.2506
-4.5554 OF. -0.3004
-3.4415 OFF -0.2750
-4.5554 OFF. -0.2882
-4.5554 OFFERED -0.2882
-3.9534 OFFERS -0.2939
-4.0783 OFFICER -0.2951
-4.5554 OFFICER, -0.2995
-4.2544 OFFSIDE -0.2964
-4.5554 OFFSIDE, -0.3004
-3.6012 OFTEN -0.2995
-4.5554 OFTEN.",8,POS -0.2999
-4.2544 OGRE -0.3010
-4.5554 OH, -0.2944
-4.5554 OHIO -0.3009
-3.8565 OK -0.2885
-3.5140 OLD -0.2988
-4.2544 OLD. -0.3009
-4.5554 OLD.I -0.3010
-4.0783 OLDER -0.3008
-4.5554 OLDEST -0.3010
-4.5554 OLIVER -0.3010
-2.6012 ON -0.2604
-4.5554 ON, -0.2944
-4.0783 ONCE -0.3003
-2.6633 ONE -0.2727
-4.5554 ONE"") -0.2993
-4.2544 ONE'S -0.2994
-4.5554 ONE, -0.2995
-4.2544 ONE. -0.2947
-4.5554 ONE: -0.3009
-4.5554 ONES -0.3009
-4.5554 ONES, -0.2882
-4.5554 ONLINE) -0.3002
-3.1575 ONLY -0.2698
-4.5554 ONTO -0.2882
-4.5554 OOD, -0.3010
-4.5554 OOPS, -0.2985
-4.5554 OPEN -0.2975
-4.5554 OPENED -0.3008
-4.5554 OPENING -0.2952
-4.5554 OPENLY -0.3010
-3.9534 OPINION -0.2885
-4.2544 OPINION, -0.2994
-4.2544 OPINION. -0.3009
-4.5554 OPINION.I -0.3006
-4.5554 OPPOSED -0.2961
-4.5554 OPPOSES.SURE, -0.2882
-4.2544 OPPOSING -0.2881
-4.5554 OPPOSITE -0.3005
-4.5554 OPPRESSIVE -0.3009
-4.5554 OPTIMISM -0.3004
-4.5554 OPTIMISM, -0.3008
-4.5554 OPULENT -0.3009
-2.9534 OR -0.2647
-4.5554 ORCHESTRAL -0.3010
-4.2544 ORDER -0.2960
-4.5554 ORDER, -0.2997
-4.5554 OREGON -0.3010
-4.5554 OREGON, -0.3004
-4.5554 OREGONIAN -0.2995
-4.5554 ORGANIZED -0.2975
-4.5554 ORIENTED -0.3010
-3.8565 ORIGINAL -0.2942
-4.5554 ORIGINAL! -0.3010
-4.5554 ORIGINAL. -0.2982
-4.5554 ORIGINAL...THE -0.3010
-4.5554 ORIGINALITY.",10,POS -0.2999
-4.5554 ORIGINALLY -0.3010
-4.5554 ORIGINS. -0.3004
-4.5554 ORPHANS -0.3005
-4.0783 ORSON -0.3008
-3.9534 OSCAR -0.2881
-4.5554 OSCAR, -0.2993
-4.5554 OSCARS.SINCE -0.3010
-3.1083 OTHER -0.2975
-4.5554 OTHER, -0.2944
-4.5554 OTHER. -0.3009
-4.5554 OTHER?) -0.2944
-4.5554 OTHERS -0.2986
-4.5554 OTHERS)--AND -0.3005
-4.5554 OTHERWISE -0.3010
-3.6012 OUR -0.3005
-4.5554 OURSELVES -0.3010
-2.9220 OUT -0.2545
-4.0783 OUT, -0.2990
-4.2544 OUT. -0.2856
-4.5554 OUT.",7,POS -0.2999
-4.5554 OUTCOME -0.2968
-4.2544 OUTSIDE -0.2822
-4.5554 OUTSIDER -0.3009
-4.5554 OUTSIDERS -0.3009
-4.0783 OUTSTANDING -0.2929
-4.5554 OUTSTANDING, -0.3010
-3.3793 OVER -0.2799
-4.5554 OVER-RATED! -0.3006
-4.5554 OVER-RELIANCE -0.2999
-4.5554 OVER. -0.2882
-4.2544 OVERALL -0.3001
-3.9534 OVERALL, -0.2941
-4.5554 OVERALL.",10,POS -0.2999
-4.5554 OVERCOME -0.3002
-4.5554 OVERDONE.A -0.3009
-4.5554 OVERSHADOWED -0.3002
-4.5554 OVERWEIGHT -0.3010
-4.5554 OVERWHELMING -0.3010
-3.8565 OWN -0.3009
-4.2544 OWNER -0.2952
-4.5554 OXFORD. -0.3008
-4.5554 P.T. -0.3010
-4.5554 PACE -0.3010
-4.5554 PACED. -0.2982
-4.5554 PACING -0.2968
-4.5554 PACING: -0.2995
-4.5554 PACKAGE...HE -0.3010
-4.2544 PACKED -0.2941
-4.5554 PAGE, -0.2985
-4.2544 PAID -0.2925
-4.5554 PAIN -0.2986
-4.5554 PAINTED -0.2999
-4.5554 PAINTERS -0.2961
-4.5554 PAINTERS.I -0.3009
-4.5554 PAINTING -0.3005
-4.5554 PAINTS -0.3010
-4.5554 PAJAMA'S -0.3008
-4.2544 PAL -0.3003
-4.5554 PAL--HE -0.3009
-4.5554 PALE -0.3008
-4.5554 PALETTE, -0.3005
-4.5554 PALPABLE -0.2944
-4.5554 PALSY. -0.3010
-4.5554 PALTROW -0.2968
-4.5554 PANAHI -0.3010
-4.5554 PANAHI, -0.2982
-4.5554 PANNED -0.3002
-4.5554 PAOLO -0.3010
-4.5554 PAPAL -0.3010
-4.5554 PARAPHRASING -0.3010
-4.5554 PARENT/GRANDPARENT. -0.2982
-3.9534 PARENTS -0.2936
-4.5554 PARIS -0.3010
-4.2544 PARKER -0.3010
-4.5554 PARODY -0.3010
-3.5140 PART -0.2873
-4.5554 PART, -0.2944
-4.5554 PART. -0.2997
-4.5554 PART.GENE'S -0.3010
-4.5554 PARTIAL -0.3010
-4.5554 PARTIALLY -0.3010
-4.5554 PARTICULAR, -0.2882
-3.9534 PARTICULARLY -0.2876
-4.5554 PARTLY -0.3010
-4.2544 PARTNER -0.2944
-4.5554 PARTNER. -0.3010
-3.9534 PARTS -0.2952
-3.9534 PARTY -0.2941
-4.5554 PARTY'S -0.3010
-4.5554 PASDAR -0.2968
-4.5554 PASSAGE -0.2952
-4.0783 PASSED -0.3000
-4.5554 PASSES -0.2944
-4.5554 PASSING. -0.2882
-4.5554 PASSION -0.2952
-4.5554 PASSIONATE -0.3009
-4.2544 PAST -0.2948
-4.2544 PAST. -0.3010
-4.5554 PATHAR. -0.3009
-4.2544 PATIENT -0.2943
-4.2544 PATRICK -0.3000
-4.5554 PATRICK. -0.2975
-4.5554 PATRIOTS, -0.2944
-4.2544 PAY -0.3006
-4.5554 PAYING -0.2882
-4.5554 PAYS -0.3010
-4.5554 PD -0.3010
-4.5554 PEACE -0.2944
-4.5554 PEANUTS), -0.2995
-4.5554 PECULIAR, -0.2993
-4.5554 PEDIGREE -0.2952
-4.5554 PEEK -0.3008
-4.5554 PENNED -0.2975
-3.3002 PEOPLE -0.2876
-4.2544 PEOPLE, -0.2997
-4.5554 PEOPLE. -0.3009
-4.5554 PEOPLE? -0.3010
-4.5554 PEOPLES -0.3010
-4.5554 PERCEIVE -0.2944
-4.5554 PERCENT -0.2952
-3.8565 PERFECT -0.2994
-4.5554 PERFECT. -0.2944
-4.5554 PERFECTED -0.3010
-4.2544 PERFECTLY -0.2944
-3.8565 PERFORMANCE -0.2922
-4.5554 PERFORMANCE, -0.3008
-3.6523 PERFORMANCES -0.2914
-4.5554 PERFORMANCES, -0.3010
-4.5554 PERFORMANCES. -0.2985
-4.5554 PERFORMANCES.THE -0.3009
-4.5554 PERFORMANCES?? -0.3010
-3.7773 PERHAPS -0.2778
-3.8565 PERIOD -0.2847
-4.5554 PERIOD!!! -0.3010
-4.5554 PERIOD. -0.2982
-4.5554 PERMANENT -0.3010
-4.5554 PERSON -0.3004
-4.5554 PERSONA -0.2952
-4.2544 PERSONAL -0.3010
-4.0783 PERSONALITY -0.2896
-4.5554 PERSONALLY -0.3010
-4.5554 PERSONS -0.3010
-4.5554 PERSPECTIVE -0.3010
-4.5554 PET -0.3010
-4.5554 PETTIT, -0.2944
-4.5554 PHENOMENAL -0.3010
-4.5554 PHILLIP -0.3010
-4.2544 PHILOSOPHICAL -0.3009
-4.5554 PHILOSOPHICAL. -0.3006
-4.5554 PHOENIX'S -0.2944
-4.5554 PHOOL -0.3010
-4.5554 PHOTOGRAPHED -0.2961
-4.2544 PHOTOGRAPHY, -0.3007
-4.5554 PIANIST -0.2944
-4.5554 PICKFORD -0.3010
-4.5554 PICKFORD--ALWAYS -0.3010
-4.0783 PICTURE -0.2958
-4.5554 PICTURE!",9,POS -0.2999
-4.2544 PICTURE. -0.2882
-4.2544 PILOT -0.3010
-4.5554 PIPE -0.3010
-4.5554 PIT -0.2990
-4.5554 PIT, -0.3001
-4.2544 PITA -0.3010
-4.5554 PITCH -0.3009
-3.8565 PLACE -0.2888
-4.5554 PLACE! -0.3008
-4.5554 PLACE"" -0.2982
-4.5554 PLACE, -0.3010
-4.5554 PLACE. -0.2944
-4.5554 PLACE.CINDERELLA -0.2968
-4.5554 PLACE.HOWEVER, -0.3010
-4.5554 PLACES -0.2995
-4.2544 PLACES, -0.2866
-4.5554 PLAIN -0.3010
-4.2544 PLAN -0.2961
-4.2544 PLANET -0.2967
-4.5554 PLANET"", -0.2882
-4.2544 PLANET'S -0.3010
-4.5554 PLANNING -0.3010
-4.5554 PLANS -0.3008
-3.9534 PLAY -0.2933
-3.4763 PLAYED -0.2881
-4.2544 PLAYER -0.3007
-4.5554 PLAYERS -0.3002
-3.6523 PLAYING -0.2934
-3.7773 PLAYS -0.2817
-4.5554 PLEAD -0.2961
-4.5554 PLEASANT -0.3001
-4.2544 PLEASANTLY -0.3010
-4.5554 PLEASE -0.3010
-4.5554 PLEASE. -0.3005
-4.5554 PLEASING -0.3001
-4.2544 PLEASURE -0.2959
-4.5554 PLENTY -0.2952
-4.5554 PLODS -0.3010
-3.4415 PLOT -0.2830
-4.2544 PLOT, -0.2928
-4.5554 PLOTS -0.2975
-4.5554 PLOTTED -0.2944
-4.5554 PLUMP -0.2944
-4.0783 PLUS -0.2960
-4.5554 POCKET. -0.3010
-4.5554 POETIC -0.3010
-4.5554 POIGNANT -0.3009
-3.6523 POINT -0.2713
-4.2544 POINT. -0.2941
-4.5554 POINTS -0.2944
-4.5554 POINTS. -0.2961
-4.5554 POISONED -0.3002
-4.5554 POLARIZATION -0.2952
-3.9534 POLICE -0.3007
-4.5554 POLITE -0.2995
-4.5554 POLLAK -0.2944
-3.9534 POOR -0.3010
-4.2544 POORLY -0.3010
-4.2544 POP -0.3005
-4.5554 POP'. -0.3003
-4.2544 POPCORN -0.3010
-4.0783 POPULAR -0.2971
-4.2544 POPULAR, -0.2944
-4.5554 POPULAR? -0.3002
-4.2544 PORN -0.3010
-4.5554 PORTRAIT -0.2952
-4.5554 PORTRAY -0.3009
-4.5554 PORTRAYAL -0.2968
-4.2544 PORTRAYED -0.2984
-4.5554 PORTRAYING -0.3010
-4.0783 POSEY -0.2962
-4.5554 POSEY'S -0.3010
-4.5554 POSEY. -0.2975
-4.5554 POSITION -0.2944
-4.5554 POSITIVE -0.3010
-4.2544 POSSESS -0.2846
-4.5554 POSSESS, -0.2944
-4.2544 POSSESSION -0.2943
-4.5554 POSSIBILITY, -0.2944
-4.5554 POSSIBLE -0.3010
-4.5554 POSSIBLY -0.3000
-4.0783 POST -0.2919
-4.5554 POST-MODERN -0.3001
-4.5554 POSTERS, -0.3004
-4.5554 POSTING -0.3006
-4.5554 POSTING, -0.2985
-4.2544 POTENTIAL -0.2917
-3.9534 POWER -0.2885
-4.5554 POWERFUL, -0.2944
-4.5554 PRANKS.",9,POS -0.2999
-4.5554 PREDECESSOR -0.2961
-4.5554 PREDICT. -0.3003
-4.5554 PREDICTABLE -0.2944
-4.5554 PREDICTABLE, -0.2995
-4.5554 PREDOMINATELY -0.3010
-4.5554 PREFERRED -0.3010
-4.5554 PREGNANT. -0.3004
-4.5554 PREGNANT.EVENTUALLY -0.3010
-4.5554 PREMIERE, -0.2995
-4.5554 PREPARING -0.3000
-4.5554 PRESENCE -0.2975
-4.5554 PRESENT -0.3001
-4.5554 PRESENTATION -0.2952
-4.2544 PRESENTED -0.3009
-4.5554 PRESENTLY -0.3001
-4.0783 PRESENTS -0.2836
-4.5554 PRESERVED. -0.3006
-4.5554 PRESSURE, -0.2944
-4.5554 PRESSURE. -0.2999
-4.2544 PRESTIGIOUS -0.3001
-4.5554 PRETENDING. -0.2985
-4.5554 PRETENSIONS -0.2975
-4.5554 PRETENTIOUS, -0.3010
-3.3793 PRETTY -0.2979
-4.2544 PREVENT -0.2852
-4.5554 PREY -0.2961
-4.5554 PRICE -0.3010
-4.5554 PRIMARILY -0.2961
-4.5554 PRINCE--LEFT -0.2882
-4.5554 PRINCIPAL -0.3010
-4.5554 PRINCIPLE -0.3004
-4.5554 PRIOR -0.2961
-4.5554 PRISONERS -0.3010
-4.5554 PRIZE -0.3010
-4.5554 PRO -0.3010
-4.5554 PRO-GOVERNMENT -0.3010
-3.7103 PROBABLY -0.2864
-4.5554 PROBLEM -0.3010
-4.5554 PROBLEMS -0.3010
-4.5554 PROBLEMS, -0.2995
-4.5554 PROCESS -0.3007
-4.2544 PROCESS. -0.2852
-4.5554 PRODUCED. -0.3010
-4.0783 PRODUCERS -0.2936
-4.5554 PRODUCERS) -0.3010
-4.5554 PRODUCERS. -0.2975
-4.5554 PRODUCING, -0.3010
-4.5554 PRODUCT. -0.3009
-4.0783 PRODUCTION -0.2900
-4.5554 PRODUCTIONS. -0.3010
-4.5554 PROFESSIONAL. -0.2985
-4.5554 PROGRESSES -0.2975
-4.5554 PROJECTS -0.3002
-4.5554 PROMISED. -0.2882
-4.5554 PROMO -0.2994
-4.2544 PROPER -0.3010
-4.5554 PROSECUTOR -0.3010
-4.5554 PROSTHESIS -0.2982
-4.5554 PROUSALIS -0.2944
-4.5554 PROVE -0.2986
-4.5554 PROVIDE -0.2982
-4.5554 PROVIDES -0.2948
-4.2544 PROVOKE -0.2882
-4.5554 PSYCHEDELIC-STYLE -0.3001
-4.2544 PSYCHOLOGICAL -0.2975
-4.5554 PUBLIC -0.3010
-4.5554 PUFNSTUF, -0.3010
-4.5554 PUKE -0.2999
-4.5554 PULASKY. -0.3010
-4.5554 PULL -0.3001
-4.5554 PULLED -0.3008
-4.5554 PULLING -0.2986
-4.5554 PULLS -0.3009
-4.5554 PUNCH -0.3001
-4.2544 PUNCHING -0.3007
-4.5554 PUNCTUATES -0.2882
-4.2544 PURCHASE -0.2944
-4.5554 PURCHASING -0.2948
-4.5554 PURE -0.3010
-4.5554 PURSUIT -0.2952
-4.5554 PUSHING -0.3010
-3.8565 PUT -0.2912
-4.2544 PUTTING -0.2999
-4.5554 QUALIFYING -0.3010
-4.0783 QUALITY -0.2878
-4.5554 QUARTER -0.3010
-4.5554 QUEEN -0.2952
-4.5554 QUEST, -0.3010
-4.2544 QUESTION -0.2981
-4.5554 QUESTION, -0.2982
-4.5554 QUESTION. -0.3010
-4.5554 QUICK -0.3010
-4.5554 QUICKLY, -0.2882
-4.5554 QUIET -0.2986
-4.2544 QUIET, -0.3010
-4.5554 QUIRKY -0.3010
-4.5554 QUIRKY, -0.3009
-4.5554 QUIT -0.2882
-3.3513 QUITE -0.2768
-4.5554 R -0.3010
-4.5554 R&B -0.3010
-4.5554 R. -0.2995
-4.0783 RACE -0.2932
-4.5554 RACE. -0.2882
-4.5554 RACIST, -0.3010
-4.5554 RACK -0.3001
-4.5554 RADHA -0.3010
-4.5554 RADIO -0.2975
-4.5554 RAID, -0.2998
-4.5554 RAIN -0.3010
-4.5554 RAIN"" -0.3009
-4.5554 RAINY -0.3010
-4.5554 RAJ -0.3010
-4.5554 RALPH -0.3010
-4.5554 RAMONES -0.3010
-4.5554 RAMONES, -0.3010
-4.5554 RAMONES? -0.3006
-4.5554 RAMOS -0.3010
-4.5554 RAN -0.3006
-4.5554 RANDOLPH -0.3010
-4.2544 RANDOM -0.3010
-4.5554 RANGE -0.2952
-4.2544 RAP -0.2944
-4.5554 RAP, -0.3010
-4.5554 RAPPERS -0.3010
-3.8565 RARE -0.3008
-4.2544 RARELY -0.3009
-4.5554 RATE -0.2982
-4.2544 RATED -0.3000
-3.6012 RATHER -0.3003
-4.2544 RATHER, -0.3004
-4.5554 RATING -0.3010
-4.5554 RATING), -0.2985
-4.5554 RATINGS -0.3005
-4.5554 RATINGS---FOR -0.3005
-4.5554 RAVES -0.3010
-4.5554 RAWKED -0.3005
-4.2544 RAY -0.3003
-4.5554 RAYBURN -0.3010
-4.5554 RAYMOND -0.3010
-4.2544 REACHED -0.2882
-4.5554 REACHES -0.3008
-3.7103 READ -0.2813
-4.5554 READY -0.2961
-3.4415 REAL -0.2938
-4.5554 REAL"" -0.3010
-4.5554 REAL, -0.3005
-4.5554 REAL-LIFE -0.3010
-4.5554 REAL. -0.2882
-4.5554 REAL... -0.2944
-4.5554 REALISES -0.3010
-4.2544 REALISTIC -0.2975
-4.5554 REALISTIC...IT'S -0.3008
-4.5554 REALITIES -0.2952
-4.2544 REALITY -0.2984
-3.9534 REALIZE -0.2977
-4.5554 REALIZE. -0.3004
-4.5554 REALIZED -0.3006
-4.5554 REALIZES -0.3007
-4.2544 REALIZING -0.2973
-3.1241 REALLY -0.2842
-4.5554 REALLY, -0.3007
-4.5554 REALLY. -0.3010
-4.5554 REALM -0.2952
-4.0783 REASON -0.2880
-4.5554 REASON. -0.2982
-4.5554 REASONS, -0.3009
-4.5554 REAY -0.2993
-4.5554 REBECCA -0.2996
-4.2544 REBIRTH -0.2952
-4.2544 RECEIVED -0.2948
-4.2544 RECENT -0.3010
-4.0783 RECENTLY -0.3009
-4.5554 RECIPE -0.2994
-4.5554 RECOGNISE -0.2882
-4.5554 RECOGNIZED -0.2993
-3.7773 RECOMMEND -0.2798
-4.5554 RECOMMEND.",8,POS -0.2999
-4.5554 RECOMMENDABLE -0.3009
-4.5554 RECOMMENDATION -0.2952
-4.5554 RECOMMENDED.8/10",8,POS -0.2999
-4.2544 RECOMMENDING -0.2982
-4.0783 RECORD -0.2865
-4.5554 RECORDING -0.2968
-4.5554 RECOVER -0.2882
-4.5554 RECOVERED -0.3001
-4.5554 RECOVERED. -0.2982
-4.5554 RECYCLED -0.3009
-3.7103 RED -0.3009
-4.5554 REED, -0.2986
-4.2544 REFRESHING -0.2960
-4.5554 REFUSE -0.2961
-4.5554 REFUSES -0.2961
-4.5554 REGARDED -0.2993
-4.2544 REGARDING -0.2980
-4.5554 REHASH -0.2952
-4.5554 REHEARSING -0.2948
-4.5554 REJECTED -0.3000
-3.8565 RELATE -0.2958
-4.2544 RELATIONSHIP, -0.2943
-4.5554 RELATIONSHIPS -0.2996
-4.5554 RELATIVELY -0.3010
-4.5554 RELEASE -0.2982
-4.5554 RELEASE), -0.2944
-4.5554 RELEASE, -0.3006
-4.5554 RELEASED -0.3004
-4.5554 RELEASES, -0.2995
-4.5554 RELENTLESS -0.3010
-4.5554 RELIED -0.3005
-4.5554 RELIGIOUS/CONSERVATIVE -0.3010
-4.5554 RELISH -0.3006
-4.0783 REMAINS -0.2946
-4.5554 REMAINS---'SAD -0.2995
-4.5554 REMAKE -0.2952
-4.5554 REMARKABLE -0.3010
-4.5554 REMARKABLE.MY -0.3007
-3.7773 REMEMBER -0.2838
-4.2544 REMEMBER, -0.2944
-4.2544 REMEMBERED -0.2979
-4.2544 REMIND -0.3000
-4.5554 REMINDED -0.3008
-3.9534 REMINDS -0.2869
-4.0783 REMINISCENT -0.2952
-4.5554 RENAISSANCE -0.3010
-4.5554 RENDITION -0.2952
-4.5554 RENO -0.3010
-4.5554 RENOWN, -0.3010
-4.2544 RENT -0.2977
-4.5554 RENTAL -0.2994
-4.5554 REPEAT -0.2882
-4.5554 REPEATED -0.2999
-4.5554 REPEATING -0.2882
-4.5554 REPEATS -0.2952
-4.5554 REPERTORY -0.3010
-4.5554 REPLAY -0.2948
-4.5554 REPLIES, -0.3010
-4.5554 REPRESENTATION -0.2952
-4.5554 REPRESSING -0.3008
-4.2544 REQUIRED -0.2948
-4.5554 RESEARCH -0.2944
-4.5554 RESEMBLING -0.3010
-4.5554 RESERVATIONS -0.2944
-4.5554 RESIDENT -0.3010
-4.5554 RESORT -0.2961
-4.5554 RESPECTFULLY -0.3010
-4.5554 RESPECTS, -0.2982
-4.5554 RESPONSE -0.3010
-4.2544 RESPONSIBLE -0.2994
-4.5554 RESSE -0.3010
-3.8565 REST -0.2941
-4.5554 RESTART -0.2961
-4.5554 RESTRAIN -0.3008
-4.2544 RESTS -0.2964
-4.2544 RESULT -0.2968
-4.5554 RESURRECT -0.3000
-4.5554 RETAINING -0.3010
-4.5554 RETAKES -0.3010
-4.5554 RETICENT -0.3004
-4.5554 RETIRED -0.3010
-4.5554 RETIREMENT -0.3003
-4.5554 RETREAT. -0.2997
-4.5554 RETROSPECT -0.2961
-4.2544 RETURN -0.2961
-4.2544 RETURNS -0.2943
-4.5554 REVEALING -0.3010
-4.5554 REVELATIONS, -0.3008
-4.5554 REVENGE"")",10,POS -0.2999
-4.5554 REVIEWERS -0.2999
-4.5554 REVIVING -0.2882
-4.5554 REVOLVING -0.3009
-4.5554 REYNOLDS); -0.2948
-4.5554 RHYTHM"" -0.3009
-4.5554 RIBBONS. -0.2982
-4.5554 RICCI, -0.3004
-4.5554 RICH -0.2944
-4.5554 RICHARDSON'S -0.3010
-4.5554 RID -0.2952
-4.5554 RIDDLED -0.2996
-4.2544 RIDE -0.2943
-4.5554 RIDE....HOORAY!!!!,8,POS -0.2999
-4.5554 RIDICULOUS -0.3009
-4.0783 RIDICULOUS, -0.2995
-4.2544 RIDICULOUS. -0.2864
-3.9534 RIGHT -0.3006
-4.5554 RIGHT, -0.3004
-4.2544 RIGHT. -0.2864
-4.5554 RIGHT.",7,POS -0.2999
-4.5554 RINGWALD -0.2968
-4.5554 RISK -0.2975
-4.5554 RITA -0.3010
-3.9534 RITTER -0.2952
-4.5554 RIVAL -0.3009
-4.5554 RIVAL, -0.3010
-4.5554 RIVER -0.2968
-4.2544 RIVERSIDE -0.3010
-4.5554 ROAMING -0.2975
-4.2544 ROBERT -0.3010
-4.5554 ROBINSON) -0.2968
-3.9534 ROCK -0.2943
-4.2544 ROCK'N'ROLL -0.2994
-4.5554 ROCK, -0.3010
-4.5554 ROCKETS---GIVE -0.3010
-4.5554 ROCKS -0.2944
-4.5554 ROCKY -0.3005
-4.5554 ROGER -0.3010
-4.5554 ROGERS. -0.2882
-3.7103 ROLE -0.2812
-4.5554 ROLE, -0.3005
-4.5554 ROLE---ALL -0.3010
-4.2544 ROLE. -0.2856
-4.0783 ROLES -0.2893
-3.9534 ROLL -0.2966
-4.2544 ROMANCE -0.3009
-4.2544 ROMANCE. -0.3003
-4.0783 ROMANTIC -0.3001
-4.5554 ROMANTICS -0.2944
-4.5554 ROMEO -0.2944
-4.5554 ROOKIE -0.3010
-4.5554 ROOTLESS -0.3010
-4.5554 ROPE -0.2975
-4.2544 ROSE -0.2935
-4.5554 ROSEANNE -0.3010
-4.5554 ROUGHLY -0.3010
-4.5554 ROUND, -0.2995
-4.5554 ROUTINES.THE -0.3009
-4.5554 RULED. -0.2982
-4.5554 RULES -0.2998
-4.5554 RULES.GIVEN -0.2882
-4.5554 RUNNER'---ANYTHING -0.3000
-3.7103 RUNNING -0.2935
-4.5554 RUNS -0.2948
-4.5554 RUSSELL -0.2998
-4.5554 RUSSELL) -0.3009
-4.0783 RUSSIAN -0.3010
-4.0783 SACRIFICE -0.2894
-4.5554 SACRIFICE...MEANWHILE, -0.3010
-4.5554 SAD -0.3010
-4.5554 SAD, -0.2944
-4.5554 SAD. -0.2995
-4.5554 SADDEST -0.3010
-4.2544 SADLY -0.3010
-4.5554 SADLY, -0.3010
-4.2544 SAFE -0.2945
-4.5554 SAFE. -0.2952
-4.5554 SAGA) -0.3010
-4.5554 SAHIB -0.3010
-3.7103 SAID -0.2918
-4.5554 SAID, -0.2882
-4.2544 SAILOR -0.2968
-4.5554 SAILOR, -0.3009
-4.5554 SALESMAN -0.3010
-4.2544 SAM -0.3010
-3.5140 SAME -0.2993
-4.2544 SAME, -0.2977
-4.5554 SAMUEL -0.3010
-4.0783 SANDLER -0.2967
-4.5554 SANT -0.2968
-4.5554 SAT -0.3009
-4.5554 SATAN"", -0.3005
-4.5554 SATAN. -0.3004
-4.5554 SATANIC -0.3010
-4.5554 SATIN. -0.2982
-4.5554 SATIRE -0.2952
-4.5554 SATISFY -0.3008
-4.5554 SATISFYING -0.3010
-4.5554 SAVED -0.3005
-3.6523 SAW -0.2787
-4.5554 SAW. -0.2985
-3.3793 SAY -0.2790
-4.0783 SAY, -0.2962
-4.5554 SAY? -0.2997
-4.0783 SAYING -0.2890
-4.5554 SAYING, -0.3010
-4.5554 SAYING. -0.2982
-4.2544 SAYS -0.3010
-4.5554 SCALE -0.2961
-4.5554 SCARES -0.3008
-4.5554 SCARIEST -0.2944
-4.2544 SCARY, -0.2986
-4.5554 SCENARIO -0.3008
-4.2544 SCENARIOS -0.2999
-3.6012 SCENE -0.2943
-4.0783 SCENE, -0.2997
-4.5554 SCENE.ITS -0.3010
-4.5554 SCENERY. -0.2982
-3.6012 SCENES -0.2866
-4.5554 SCENES) -0.2944
-3.9534 SCENES. -0.2972
-4.5554 SCENES",8,POS -0.2999
-4.5554 SCHEDULE -0.2944
-4.5554 SCHEDULE, -0.3007
-4.2544 SCHERLER -0.3010
-4.5554 SCHLOCKY -0.3009
-3.7773 SCHOOL -0.2887
-4.5554 SCHOOL'S -0.3010
-4.5554 SCHOOL)IT -0.2968
-4.5554 SCHOOLS -0.2975
-4.5554 SCI-FI -0.3010
-4.5554 SCOOP. -0.3010
-4.5554 SCOPE -0.3010
-4.0783 SCORE -0.2909
-4.5554 SCORE.OR -0.3010
-4.5554 SCORSESE -0.2944
-4.5554 SCORSESE. -0.3008
-4.0783 SCOTT -0.2899
-4.5554 SCRATCHING -0.2996
-4.2544 SCREEN -0.2944
-4.5554 SCREEN, -0.2986
-4.5554 SCREEN. -0.3010
-4.5554 SCREEN.FORTUNATELY, -0.2982
-4.5554 SCREEN.PAKEEZAH -0.2968
-4.5554 SCREENPLAY -0.3004
-4.5554 SCREWING -0.3006
-3.6523 SCRIPT -0.2917
-4.2544 SCRIPT, -0.3009
-4.5554 SEA -0.3010
-4.5554 SEAN -0.3010
-4.5554 SEARCHING -0.2994
-3.7103 SEASON -0.3009
-4.5554 SEAT -0.2944
-4.0783 SECOND -0.2993
-4.5554 SECONDARY -0.3010
-3.9534 SECRET -0.2944
-4.5554 SECRET. -0.3004
-4.2544 SECRETLY -0.3010
-3.0930 SEE -0.2655
-4.0783 SEE, -0.2910
-4.5554 SEE.AN -0.3010
-3.7773 SEEING -0.2849
-4.5554 SEEING. -0.3004
-4.5554 SEEKS -0.2961
-3.8565 SEEM -0.2959
-4.0783 SEEMED -0.2957
-4.2544 SEEMINGLY -0.3005
-3.5554 SEEMS -0.2952
-3.5554 SEEN -0.2920
-4.5554 SEEN! -0.2995
-4.5554 SEEN......... -0.3010
-4.2544 SEGMENTS -0.2998
-4.2544 SELF -0.2969
-4.5554 SELF-DESTRUCTION -0.3010
-4.5554 SELF-INDULGENT -0.3010
-4.5554 SELF-KNOWLEDGE -0.2999
-4.5554 SELL -0.3000
-4.5554 SENDS, -0.3008
-4.2544 SENSE -0.2952
-4.2544 SENSE. -0.2984
-4.5554 SENSITIVE -0.3010
-4.5554 SENSITIVELY, -0.3010
-3.8565 SENT -0.2925
-4.5554 SENTENCED -0.2961
-4.5554 SEPARATE -0.2994
-4.5554 SEPARATED -0.3003
-4.5554 SEPARATING -0.2982
-4.5554 SEQUELS -0.2948
-4.5554 SEQUENCE -0.3001
-3.9534 SEQUENCES -0.2893
-4.5554 SEQUENCES, -0.3007
-4.5554 SEQUENCES. -0.3008
-4.2544 SERIAL -0.3010
-3.7773 SERIES -0.2883
-4.0783 SERIES, -0.3006
-4.5554 SERIES,EVEN -0.3009
-4.5554 SERIES. -0.2982
-4.2544 SERIOUS -0.3004
-4.5554 SERIOUS. -0.3002
-4.5554 SERIOUS.MAYBE -0.3004
-3.9534 SERIOUSLY -0.2919
-4.2544 SERIOUSLY, -0.3008
-4.2544 SERIOUSLY. -0.3000
-4.2544 SERVED -0.2846
-4.5554 SERVICEABLE -0.3010
-3.8565 SET -0.2965
-4.2544 SET, -0.2951
-4.5554 SET-PIECE -0.3010
-4.5554 SET-PIECES -0.2986
-4.0783 SETS -0.2939
-4.5554 SETTING -0.3010
-4.5554 SETTLES -0.3009
-4.5554 SEVENTIES, -0.3008
-3.8565 SEVERAL -0.3007
-4.5554 SEVERE -0.3010
-4.2544 SEX -0.3010
-4.2544 SEXUAL -0.3008
-4.5554 SEXUAL, -0.3009
-4.5554 SEXUAL. -0.3010
-4.5554 SEXUALLY -0.3010
-4.2544 SEXY -0.3010
-4.5554 SHADES -0.2952
-4.5554 SHADOW -0.2952
-4.2544 SHADOWED -0.2993
-4.5554 SHADOWS -0.2944
-4.5554 SHAKES -0.2995
-4.0783 SHAKESPEARE -0.2917
-4.5554 SHAKESPEARE'S -0.3010
-3.9534 SHALL -0.2972
-4.5554 SHALLOW. -0.2882
-4.5554 SHALLOW.",8,POS -0.2999
-4.5554 SHAME -0.2986
-4.5554 SHAME. -0.2982
-4.5554 SHAMELESSLY -0.3010
-4.2544 SHANGHAI -0.2966
-4.2544 SHANGHAI"" -0.2967
-4.5554 SHAW -0.3010
-2.8312 SHE -0.2908
-4.5554 SHE'LL -0.3010
-4.5554 SHE'S -0.3010
-4.5554 SHEDS -0.3009
-4.0783 SHEPPARD -0.2954
-4.5554 SHINE -0.3008
-4.0783 SHIRLEY -0.2989
-4.5554 SHOCK -0.2952
-4.5554 SHOE -0.3010
-4.0783 SHOOTING -0.2947
-4.5554 SHOOTS -0.3010
-4.5554 SHORE -0.3010
-4.5554 SHORT -0.2996
-4.5554 SHORT, -0.3009
-4.5554 SHORT. -0.2982
-4.0783 SHORTLY -0.3008
-4.5554 SHORTS -0.3010
-4.0783 SHOT -0.2919
-4.2544 SHOT, -0.2981
-4.5554 SHOT. -0.2994
-3.9534 SHOTS -0.2948
-3.5140 SHOULD -0.2983
-4.5554 SHOULD. -0.3001
-4.5554 SHOULDERS -0.2952
-4.2544 SHOULDN'T -0.3009
-3.2130 SHOW -0.2624
-3.8565 SHOW, -0.2941
-3.7773 SHOW. -0.2832
-4.5554 SHOW.THE -0.3008
-4.0783 SHOWED -0.2812
-4.2544 SHOWING -0.2979
-4.5554 SHOWN -0.3009
-3.5554 SHOWS -0.2788
-4.2544 SHOWS, -0.2995
-4.5554 SHRINK -0.2990
-4.5554 SHRUG -0.2982
-4.2544 SHUTTLE -0.3010
-4.0783 SICK -0.2834
-3.8565 SIDE -0.2901
-4.5554 SIGHT. -0.2882
-4.5554 SIGNIFICANCE. -0.3005
-4.5554 SIGNIFICANT -0.2952
-4.5554 SIKES, -0.2985
-4.5554 SILENCE -0.2944
-4.2544 SILENT -0.3010
-4.2544 SILLY -0.3010
-4.5554 SILLY, -0.2995
-4.0783 SIMILAR -0.2960
-4.5554 SIMON -0.3010
-3.9534 SIMPLE -0.2939
-4.5554 SIMPLE, -0.2995
-4.5554 SIMPLISTIC -0.2944
-3.9534 SIMPLY -0.2945
-3.9534 SINATRA -0.2973
-3.5554 SINCE -0.2938
-4.5554 SINCE, -0.3010
-4.5554 SINCERELY -0.3010
-4.5554 SING -0.3009
-4.5554 SINGER -0.2975
-4.0783 SINGING -0.2974
-4.5554 SINGING, -0.2982
-4.5554 SINGLE -0.3010
-4.5554 SINGLE. -0.3004
-3.9534 SIR -0.3010
-4.5554 SISSY'S -0.3010
-4.5554 SISTER -0.3008
-4.5554 SISTERS -0.3003
-4.5554 SISTERS, -0.3006
-4.5554 SIT..........OUT -0.2999
-4.0783 SITCOM -0.2973
-4.5554 SITCOM. -0.2882
-4.5554 SITCOMS -0.3001
-4.5554 SITTING -0.3010
-4.5554 SITUATED -0.2975
-4.5554 SITUATION -0.2982
-4.2544 SITUATIONS -0.2882
-4.5554 SITUATIONS, -0.2985
-4.2544 SIX -0.3010
-4.5554 SIX-PENCE. -0.3010
-4.5554 SIXTEEN! -0.2997
-4.5554 SIZED -0.3009
-4.5554 SKELETON -0.3008
-4.5554 SKILLS -0.2952
-4.5554 SKY -0.3010
-4.5554 SKY. -0.3010
-4.5554 SKYE -0.3010
-4.5554 SLAPPED -0.3002
-4.5554 SLASHER -0.3010
-4.5554 SLAY -0.3010
-4.5554 SLAYED -0.2948
-4.5554 SLAYER"" -0.2944
-4.2544 SLAYING -0.3006
-4.5554 SLEAZIEST -0.3010
-4.2544 SLEEPING -0.2944
-4.5554 SLIGHTLY -0.3005
-4.5554 SLIPPER -0.3009
-4.2544 SLOAN'S -0.3010
-4.5554 SLOAN. -0.2948
-4.5554 SLOANE -0.2944
-4.5554 SLOW -0.2944
-4.5554 SLOW-PACED -0.3008
-4.5554 SLOWLY -0.3010
-3.8565 SMALL -0.3001
-4.5554 SMALL, -0.3010
-4.5554 SMALLER -0.3010
-4.5554 SMART -0.3010
-4.5554 SMARTEST -0.3010
-4.5554 SMELL -0.3004
-4.2544 SMILE -0.2999
-4.5554 SMILE, -0.2995
-4.5554 SMILING -0.2944
-4.5554 SMITH -0.3010
-4.5554 SMOKE -0.3000
-4.5554 SMOOTHLY, -0.2944
-4.5554 SNAPPED -0.3006
-4.5554 SNAPPING -0.2952
-4.2544 SNOW -0.3010
-2.8742 SO -0.2720
-4.2544 SO, -0.3009
-4.5554 SO. -0.2882
-4.5554 SOAVI'S -0.3009
-4.2544 SOCCER -0.3009
-4.5554 SOCIETY -0.3004
-4.5554 SOCIETY. -0.3004
-4.5554 SOCIOPATH. -0.2999
-4.5554 SOFT -0.3010
-3.0930 SOME -0.2914
-4.5554 SOMEDAY -0.3010
-4.2544 SOMEHOW -0.3009
-3.8565 SOMEONE -0.2956
-4.5554 SOMEONE.",10,POS -0.2999
-3.4763 SOMETHING -0.2696
-3.8565 SOMETIMES -0.2947
-3.8565 SOMEWHAT -0.3009
-3.9534 SON -0.2966
-4.5554 SON, -0.3010
-4.5554 SONG -0.3010
-4.2544 SONGS -0.3009
-4.5554 SONGS, -0.3010
-4.2544 SONGS. -0.2979
-4.5554 SONGS.THE -0.3010
